{
  "model_type": "NeuralController",
  "input_features": 7,
  "output_classes": 6,
  "model_state_dict": {
    "shared_layers.0.weight": [
      [
        -0.8234602212905884, 0.042718444019556046, -0.7562968134880066, -0.30006295442581177,
        0.05810004100203514, -0.32891231775283813
      ],
      [
        0.36771461367607117, 0.1404595822095871, -0.7950619459152222, -0.2605506181716919,
        -0.36329734325408936, 0.24013172090053558
      ],
      [
        0.2708311676979065, 0.020510246977210045, -0.7400332689285278, 0.1421884149312973,
        0.423285573720932, -2.3039631843566895
      ],
      [
        0.5287034511566162, -0.19845759868621826, -0.8180351257324219, -0.3951137959957123,
        0.5875616669654846, -1.7962054014205933
      ],
      [
        0.41140618920326233, -0.37942299246788025, -0.18639861047267914, -0.20528581738471985,
        0.2782510221004486, 0.6134684681892395
      ],
      [
        -0.15435534715652466, 0.01208172645419836, 0.09115833789110184, 0.13564112782478333,
        -0.3143847584724426, -0.08205775171518326
      ],
      [
        0.06809349358081818, 0.24057777225971222, -0.11984513700008392, -0.3311878740787506,
        -0.06324689090251923, -0.24760781228542328
      ],
      [
        -1.0041249990463257, -0.14604029059410095, -0.20323316752910614, -0.11635846644639969,
        0.16447192430496216, -1.3456686735153198
      ],
      [
        -2.544067621231079, -0.0049413954839110374, -0.4443248510360718, -0.3416849374771118,
        -0.12152469158172607, 0.07438061386346817
      ],
      [
        0.17708687484264374, 0.33486583828926086, 0.1765158325433731, 0.5140247941017151,
        -0.12040121853351593, 0.2878560423851013
      ],
      [
        -0.18063555657863617, 0.2653873562812805, 0.03791647031903267, 0.21839119493961334,
        -0.3496798574924469, -4.328422546386719
      ],
      [
        -0.13404567539691925, -0.02471025474369526, 0.23745109140872955, -0.10676001012325287,
        0.33262911438941956, 0.49581778049468994
      ],
      [
        0.0580996535718441, -0.2522861063480377, 0.6224319934844971, 0.3684510886669159,
        -0.1977420449256897, -3.7060744762420654
      ],
      [
        -0.23592253029346466, 0.004926607944071293, 0.22490710020065308, -0.2450825423002243,
        -0.14103537797927856, -0.06336840987205505
      ],
      [
        -0.10245273262262344, -0.10678265243768692, -1.3420382738113403, -0.2068910151720047,
        0.411567747592926, 0.1907283067703247
      ],
      [
        0.5178220272064209, 0.012667504139244556, -0.7754121422767639, 0.2588897943496704,
        -0.361907422542572, -2.4192276000976562
      ],
      [
        0.10939453542232513, -0.030117178335785866, -0.35960039496421814, -0.0725359097123146,
        0.019491761922836304, 0.08833564817905426
      ],
      [
        -0.4329635500907898, -0.05377378687262535, -0.25327733159065247, 0.38542231917381287,
        0.33503419160842896, 1.3726966381072998
      ],
      [
        0.20890940725803375, -0.19561924040317535, 0.19889849424362183, -0.08651558309793472,
        -0.26491954922676086, -4.259549617767334
      ],
      [
        -0.302681028842926, 0.3491227626800537, 0.23263069987297058, 0.37196624279022217,
        -0.33916109800338745, 0.7195928692817688
      ],
      [
        -0.6930606365203857, -0.04836779460310936, -0.07619083672761917, -0.2535827159881592,
        -0.04591245576739311, -0.07027487456798553
      ],
      [
        0.44940081238746643, 0.0647793784737587, 0.14085575938224792, 0.5795373916625977,
        -0.035705652087926865, 0.11398110538721085
      ],
      [
        -0.1836230456829071, -0.14249832928180695, -1.0890429019927979, -0.5681052803993225,
        0.27364274859428406, -0.3801165521144867
      ],
      [
        0.7600626945495605, 0.07879002392292023, -0.28782251477241516, 0.34403353929519653,
        -0.2637287378311157, 0.5852941870689392
      ],
      [
        -0.16164913773536682, 0.0029307915829122066, 0.2401764988899231, 0.005883440840989351,
        -0.3480876088142395, -5.367053508758545
      ],
      [
        0.4907095730304718, -0.021892543882131577, -0.7103781700134277, -0.5603988766670227,
        0.5198763012886047, 0.12078321725130081
      ],
      [
        0.4994467496871948, -0.1970006674528122, 0.29752814769744873, 0.4180063009262085,
        0.2283605933189392, 0.9051409959793091
      ],
      [
        -0.06484939903020859, -0.15979817509651184, -0.1401849389076233, -0.17930245399475098,
        -0.14495573937892914, -0.12035899609327316
      ],
      [
        0.7639493346214294, -0.17906589806079865, 0.13694553077220917, -0.07405424863100052,
        -0.4246220886707306, 0.4951555132865906
      ],
      [
        0.3687889873981476, -0.3093884587287903, 0.39493000507354736, -0.34418442845344543,
        0.17020633816719055, 1.0952486991882324
      ],
      [
        -0.031218212097883224, -0.03654026985168457, 0.1235998198390007, -0.3877381384372711,
        -0.12883968651294708, -0.7252820730209351
      ],
      [
        0.12475497275590897, 0.31518611311912537, 0.634370744228363, 0.5034674406051636,
        -0.15019649267196655, -0.21158729493618011
      ],
      [
        0.18318891525268555, 0.27190670371055603, -0.5178186893463135, -0.02500777319073677,
        0.10891907662153244, 0.8907387256622314
      ],
      [
        0.6359221935272217, 0.0036073015071451664, 0.04506426304578781, 0.05474628135561943,
        -0.0694439709186554, 0.41983628273010254
      ],
      [
        0.25118935108184814, -0.12415699660778046, -0.3497224748134613, -0.17046326398849487,
        -0.12822186946868896, -0.263102263212204
      ],
      [
        -0.20675109326839447, 0.12172509729862213, 0.26135706901550293, 0.566943347454071,
        0.01955307461321354, -0.09345375001430511
      ],
      [
        0.08104591816663742, -0.3855774700641632, -0.3677499294281006, -0.24237217009067535,
        -0.19669412076473236, 0.06103745847940445
      ],
      [
        -0.35769352316856384, 0.0998680591583252, 0.04715268313884735, -0.05714653804898262,
        -0.16187800467014313, 0.03294304758310318
      ],
      [
        -2.2180583477020264, -0.005707763601094484, -0.17101304233074188, -0.5369309782981873,
        -0.09598921984434128, -1.2243732213974
      ],
      [
        0.05362951382994652, 0.07301829755306244, -0.03254278749227524, -0.07985980808734894,
        -0.3509189784526825, -0.32454895973205566
      ],
      [
        -0.32433584332466125, -0.23082423210144043, -0.3052329421043396, 0.1735006421804428,
        -0.2611405551433563, -0.39669397473335266
      ],
      [
        0.8403900265693665, 0.03984604775905609, 0.35679736733436584, 0.37862658500671387,
        0.13556288182735443, 0.42303720116615295
      ],
      [
        -0.0862606093287468, 0.002541670808568597, 0.17187991738319397, 0.10382212698459625,
        -0.08636356145143509, -5.00353479385376
      ],
      [
        0.5204669237136841, -0.1232793852686882, -0.9006592631340027, -0.5538434982299805,
        -0.08807409554719925, 0.5361513495445251
      ],
      [
        0.17333194613456726, 0.007594072725623846, -0.6744626760482788, 0.13784457743167877,
        -0.20227430760860443, -2.4822561740875244
      ],
      [
        0.5860185623168945, -0.04723002016544342, -0.03654405102133751, 0.22957268357276917,
        0.41266727447509766, 1.2675584554672241
      ],
      [
        -0.2954249978065491, 0.06488940119743347, -0.2496689110994339, 0.3307458162307739,
        -0.34678730368614197, -0.13465143740177155
      ],
      [
        -0.11625991016626358, -0.10801215469837189, -0.24453507363796234, 0.3931719660758972,
        -0.14772559702396393, 0.3833802044391632
      ],
      [
        0.03711001202464104, -0.002131325425580144, 0.03951428830623627, 0.22786636650562286,
        -0.252276211977005, 0.004887203220278025
      ],
      [
        0.08312022686004639, 0.025354517623782158, 0.10479247570037842, 0.10888052731752396,
        -0.3223319351673126, 0.6251888871192932
      ],
      [
        0.45127415657043457, 0.08464883267879486, -0.3729226589202881, -0.1751643866300583,
        0.048461850732564926, 2.1924803256988525
      ],
      [
        0.05187887325882912, 0.10183782875537872, 0.5554342865943909, 0.19079457223415375,
        0.19200344383716583, 0.3424603343009949
      ],
      [
        0.37101152539253235, 0.1449049860239029, -0.20049181580543518, -0.3586699366569519,
        0.32709118723869324, 1.1157774925231934
      ],
      [
        0.06526642292737961, 0.21783597767353058, -0.21244728565216064, -0.0863294005393982,
        -0.3065376877784729, 0.21163833141326904
      ],
      [
        -0.23926270008087158, 0.017387760803103447, -0.22372722625732422, 0.36126020550727844,
        -0.07360602170228958, -4.3255295753479
      ],
      [
        0.20053283870220184, 0.17133133113384247, -0.22777438163757324, 0.21616330742835999,
        -0.3723051846027374, -4.236582279205322
      ],
      [
        0.4265024662017822, 0.007911096327006817, -0.06368912756443024, 0.47447869181632996,
        -0.00388510269112885, -0.1283605545759201
      ],
      [
        -0.20538096129894257, -0.49858224391937256, 0.20990416407585144, -0.08937948197126389,
        0.025336958467960358, -0.1746452897787094
      ],
      [
        -1.0467036962509155, 0.16206975281238556, 0.3187720775604248, -0.24399414658546448,
        0.2230086773633957, 0.4785838723182678
      ],
      [
        0.5348981022834778, 0.20949684083461761, -0.054773617535829544, 0.27819862961769104,
        -0.005196056794375181, 1.9219108819961548
      ],
      [
        0.17645344138145447, 0.035638898611068726, -0.15987004339694977, 0.3028883934020996,
        -0.5537092089653015, -0.6284373998641968
      ],
      [
        -0.07295527309179306, -0.3927444517612457, 0.02758980356156826, -0.04380900412797928,
        -0.2233263999223709, 0.2980166971683502
      ],
      [
        0.1380564272403717, -0.0014043719274923205, 0.25965526700019836, -0.297421932220459,
        0.22235740721225739, 0.6580445766448975
      ],
      [
        -0.23879067599773407, -0.07945547252893448, 0.8563293218612671, 0.5499621033668518,
        0.4839646518230438, 0.11369170993566513
      ],
      [
        -0.2681581974029541, -0.025162246078252792, 0.31977176666259766, 0.10346032679080963,
        -0.2725215554237366, -0.025999950245022774
      ],
      [
        0.3437664806842804, 0.0029754082206636667, -0.8221274018287659, -0.3713812232017517,
        -0.0605509914457798, -1.7324469089508057
      ],
      [
        -0.35435038805007935, -0.3122435212135315, 0.28336113691329956, -0.038110338151454926,
        0.33919957280158997, -3.213536500930786
      ],
      [
        0.12147347629070282, 0.008053609170019627, -0.19060102105140686, 0.06295257061719894,
        -0.13388299942016602, -3.8665831089019775
      ],
      [
        0.8172899484634399, -0.10487756133079529, -0.8895780444145203, -0.259184330701828,
        -0.3574066460132599, 0.29192909598350525
      ],
      [
        0.17668823897838593, 0.26512494683265686, -0.8326750993728638, 0.1585223376750946,
        -0.15014368295669556, 0.16498979926109314
      ],
      [
        -0.015480728819966316, -0.1277325451374054, -0.44611287117004395, -0.39742743968963623,
        0.31492212414741516, -2.989171028137207
      ],
      [
        -2.8989133834838867, 0.053701285272836685, -1.2747424840927124, 0.21432660520076752,
        0.19017045199871063, -0.05767424404621124
      ],
      [
        -0.1343185156583786, -0.3964804410934448, -0.2349817454814911, -0.3245123326778412,
        -0.19060558080673218, 0.05186421796679497
      ],
      [
        -0.5167189836502075, -0.05755728483200073, -0.0001348924561170861, 0.31241026520729065,
        0.23431618511676788, -3.0932295322418213
      ],
      [
        -0.45821887254714966, 0.1357969343662262, -0.32756268978118896, 0.10989641398191452,
        -0.10767122358083725, 0.025326240807771683
      ],
      [
        0.050512976944446564, -0.15837742388248444, -0.0758499875664711, -0.20470070838928223,
        -0.2084413468837738, -0.3419296145439148
      ],
      [
        0.31788772344589233, 0.2993832528591156, -0.1738942414522171, -0.4216621220111847,
        0.08136404305696487, 0.007376961875706911
      ],
      [
        0.13748644292354584, 0.2370397299528122, -0.2777104079723358, -0.24299204349517822,
        -0.23924468457698822, -0.06747736781835556
      ],
      [
        -0.3047531545162201, -0.16142329573631287, 0.13828130066394806, 0.27713924646377563,
        -0.053837087005376816, -3.209350347518921
      ],
      [
        -0.29223817586898804, -0.26194798946380615, -0.39846038818359375, -0.33594298362731934,
        0.10445182025432587, 0.2741507589817047
      ],
      [
        0.6619836091995239, 0.0035877919290214777, -0.3233838975429535, -0.2573705017566681,
        -0.39413800835609436, 0.31051453948020935
      ],
      [
        0.5429812073707581, 0.21431967616081238, -0.9226512908935547, -0.6542467474937439,
        0.043337851762771606, 0.1626373827457428
      ],
      [
        -0.12075559794902802, 0.07379567623138428, 0.14419478178024292, -0.05201146379113197,
        0.05909189209342003, -4.165563106536865
      ],
      [
        0.5210951566696167, 0.13175588846206665, -0.25834622979164124, 0.3217269778251648,
        0.2074299305677414, 0.27358031272888184
      ],
      [
        -0.1764233410358429, -0.13294269144535065, 0.05559615418314934, 0.2562902271747589,
        0.24332252144813538, -0.3079155683517456
      ],
      [
        -0.10971952229738235, 0.02407974749803543, -0.6866880655288696, -0.32476505637168884,
        -0.17636975646018982, 0.03336545079946518
      ],
      [
        0.05585012212395668, 0.07795155048370361, -0.8002581596374512, -0.35312333703041077,
        -0.2194053828716278, -0.5328574180603027
      ],
      [
        0.5598329901695251, 0.014077246189117432, -0.20810438692569733, 0.1694278120994568,
        0.056978750973939896, 0.786923348903656
      ],
      [
        0.10228423774242401, 0.31884804368019104, 0.284214586019516, 0.15664830803871155,
        -0.33325305581092834, -3.2040023803710938
      ],
      [
        -0.14722232520580292, 0.1542588323354721, 0.017394214868545532, 0.0367184653878212,
        -0.19671785831451416, 0.14106082916259766
      ],
      [
        -0.10089956969022751, -0.2904762327671051, -0.2919263243675232, -0.32632651925086975,
        0.2411559373140335, -0.07414975762367249
      ],
      [
        -0.12781572341918945, -0.34972912073135376, -0.3441394865512848, -0.4065849781036377,
        -0.3636244833469391, -0.3528081476688385
      ],
      [
        -2.787968635559082, 0.3183407783508301, -0.54686439037323, -0.18906858563423157,
        -0.1544165164232254, -0.022559452801942825
      ],
      [
        -0.5342001914978027, 0.20390638709068298, 0.24651819467544556, 0.43573594093322754,
        0.3494776487350464, -0.020891593769192696
      ],
      [
        -0.26495423913002014, 0.026655543595552444, -0.30963394045829773, 0.17680425941944122,
        -0.19640770554542542, 0.08468406647443771
      ],
      [
        0.5247185230255127, 0.09801948815584183, -0.2307521104812622, -0.12042943388223648,
        0.4069374203681946, 1.1519391536712646
      ],
      [
        -0.39168381690979004, 0.10624637454748154, -0.8658813238143921, -0.26500776410102844,
        -0.09669667482376099, 0.01034554373472929
      ],
      [
        -0.17120735347270966, -0.29631727933883667, -0.303152471780777, 0.20363378524780273,
        -0.000282657885691151, -0.22358369827270508
      ],
      [
        -0.18957896530628204, -0.2213887721300125, -0.11659450083971024, 0.25812384486198425,
        -0.13868942856788635, -3.0088398456573486
      ],
      [
        0.0692467987537384, 0.051288243383169174, -0.1507571041584015, 0.3320463001728058,
        -0.1163080707192421, -0.379738450050354
      ],
      [
        -1.5804152488708496, -0.1229299008846283, 0.10578735917806625, 0.0956953689455986,
        0.2508907914161682, 0.6908422112464905
      ],
      [
        -0.3460422158241272, 0.34845417737960815, 0.23896552622318268, -0.22194649279117584,
        -0.3656628429889679, 0.32259446382522583
      ],
      [
        -0.5268673300743103, 0.34906208515167236, -0.5762561559677124, -0.34510377049446106,
        0.5593219995498657, 0.015113080851733685
      ],
      [
        0.08385651558637619, 0.14812195301055908, 0.052930574864149094, -0.13112254440784454,
        0.34177306294441223, 0.029530946165323257
      ],
      [
        0.4684036672115326, 0.011432010680437088, 0.2928372919559479, 0.5093731880187988,
        0.19898155331611633, -0.2801290452480316
      ],
      [
        0.633296012878418, 0.061959926038980484, 0.017971452325582504, -0.24208283424377441,
        -0.1261759102344513, 0.1343277096748352
      ],
      [
        -0.23008258640766144, 0.2719132900238037, -0.33692485094070435, -0.27581530809402466,
        0.12826333940029144, -2.8628451824188232
      ],
      [
        -0.406494677066803, 0.13088232278823853, -0.36539536714553833, 0.13257910311222076,
        0.011296873912215233, -0.2863613963127136
      ],
      [
        0.4042532444000244, 0.15338201820850372, -0.44733935594558716, 0.3459833264350891,
        0.2675507068634033, 1.0267963409423828
      ],
      [
        -0.3893110156059265, 0.08395657688379288, -0.2092975229024887, 0.2449827492237091,
        0.16498197615146637, -4.433797359466553
      ],
      [
        -0.33431094884872437, 0.0867445170879364, -0.40751567482948303, -0.3468154966831207,
        -0.0998690202832222, -0.0278451070189476
      ],
      [
        -0.03582793101668358, 0.08040602505207062, -0.14418289065361023, 0.2025172859430313,
        0.07746725529432297, -3.7404980659484863
      ],
      [
        0.29632171988487244, -0.20059248805046082, 0.06017376482486725, -0.40657806396484375,
        0.029830383136868477, 0.20805898308753967
      ],
      [
        -1.9913674592971802, -0.18389169871807098, -0.5025222301483154, -0.2847818434238434,
        0.030573898926377296, 0.017865624278783798
      ],
      [
        0.4076920747756958, 0.0026805615052580833, -0.23218315839767456, 0.16131269931793213,
        -0.16594262421131134, -5.140810012817383
      ],
      [
        0.7498002052307129, -0.10772603750228882, -0.1688445806503296, 0.32724472880363464,
        0.009003907442092896, 0.35461094975471497
      ],
      [
        0.005933574866503477, 0.22773675620555878, 0.2598072290420532, -0.41939622163772583,
        0.24062027037143707, 0.08196818083524704
      ],
      [
        0.3182224631309509, 0.24584665894508362, 0.30883336067199707, 0.08995458483695984,
        0.06116532161831856, 0.8653084635734558
      ],
      [
        -0.8217803835868835, 0.007776215206831694, -0.14779354631900787, -0.6054515242576599,
        0.3800632357597351, -0.9771161079406738
      ],
      [
        -0.7678622603416443, 0.12322351336479187, 0.058706413954496384, -0.06996787339448929,
        -0.0822688415646553, -3.0777597427368164
      ],
      [
        0.34688836336135864, -0.2727459669113159, 0.03637559339404106, 0.06998109817504883,
        0.05145847797393799, -4.617071628570557
      ],
      [
        0.12693524360656738, 0.1748872697353363, -0.08262715488672256, -0.19110208749771118,
        -0.10739850997924805, 0.03316674754023552
      ],
      [
        0.2805824279785156, -0.3194931745529175, 0.18107502162456512, 0.175186887383461,
        0.18599103391170502, 1.3447471857070923
      ],
      [
        0.3471132814884186, -0.23413455486297607, -0.23886829614639282, 0.31530341506004333,
        -0.4258696436882019, -3.7805209159851074
      ],
      [
        -0.3576653301715851, -0.30585527420043945, 0.374373197555542, 0.45939019322395325,
        -0.0552588626742363, -0.9217315912246704
      ],
      [
        0.2366669625043869, 0.007193749770522118, -0.29588058590888977, -0.32015588879585266,
        0.22747619450092316, 1.22152578830719
      ],
      [
        0.13578619062900543, 0.22735057771205902, -0.40111300349235535, 0.17860905826091766,
        0.09881043434143066, -2.3554747104644775
      ],
      [
        -0.375731498003006, 0.09143804013729095, -0.014663239009678364, 0.5214336514472961,
        -0.36820584535598755, -1.9312371015548706
      ]
    ],
    "shared_layers.0.bias": [
      0.12771102786064148, 0.5506121516227722, -0.20557652413845062, 0.068418949842453,
      0.27375301718711853, -0.17143681645393372, -0.39101141691207886, 0.09227953106164932,
      0.46544697880744934, -0.1920357048511505, 0.29948899149894714, 0.007698143366724253,
      -0.003580451477319002, 0.09315864741802216, -0.1588311344385147, 0.30940961837768555,
      -0.3686285614967346, -0.3263448178768158, 0.26836350560188293, -0.10215238481760025,
      0.37417763471603394, -0.08955506980419159, 0.2988424301147461, 0.09677796810865402,
      0.43179449439048767, 0.053792789578437805, -0.061031486839056015, 0.4300914406776428,
      0.5339622497558594, -0.27241164445877075, 0.3372451364994049, -0.12994970381259918,
      -0.3149943947792053, 0.03747236356139183, -0.12384033203125, -0.17083212733268738,
      -0.40730586647987366, 0.4627498388290405, 0.47833311557769775, -0.2681833505630493,
      0.05130050703883171, -0.12442958354949951, 0.15963114798069, 0.30714577436447144,
      0.22056885063648224, -0.2566235363483429, -0.12822166085243225, -0.3934159576892853,
      0.18693804740905762, 0.2458428293466568, 0.1772954761981964, -0.20131894946098328,
      0.07224658131599426, -0.2560539245605469, 0.25323835015296936, 0.21894921362400055,
      -0.11658234149217606, 0.14220193028450012, 0.32843655347824097, -0.036941904574632645,
      0.46181562542915344, -0.36114805936813354, 0.3172428011894226, -0.37204819917678833,
      -0.32873183488845825, 0.3020300567150116, 0.18149222433567047, 0.2104692906141281,
      0.4019636809825897, 0.025791332125663757, 0.24851593375205994, 0.18205076456069946,
      -0.1565553843975067, -0.06035952642560005, 0.3262578547000885, 0.05021226406097412,
      -0.20482666790485382, -0.11765357106924057, 0.1853969693183899, -0.16951404511928558,
      0.4048396944999695, -0.10902891308069229, 0.12113445997238159, -0.2749125361442566,
      -0.1448815017938614, 0.7024213075637817, 0.4384816586971283, -0.13233239948749542,
      0.022640282288193703, -0.24475052952766418, -0.4021676182746887, 0.25196924805641174,
      0.3569774329662323, -0.231661856174469, -0.36276042461395264, -0.12246488779783249,
      0.602167546749115, -0.039635516703128815, 0.2629508078098297, -0.21188250184059143,
      -0.1588498204946518, -0.3575865924358368, -0.07510823011398315, -0.28711700439453125,
      -0.2781856656074524, 0.10017921030521393, 0.2880626916885376, -0.14570307731628418,
      -0.3121703267097473, 0.22856450080871582, 0.21108685433864594, -0.04103758558630943,
      -0.40600091218948364, 0.42824479937553406, 0.18484844267368317, -0.057176344096660614,
      -0.3521442115306854, -0.08509501069784164, 0.09854096919298172, 0.2267533540725708,
      0.09169074892997742, -0.2023428976535797, 0.04784626141190529, 0.2090214192867279,
      0.15660011768341064, -0.16329391300678253, -0.1143244281411171, 0.3562852442264557
    ],
    "shared_layers.2.weight": [
      [
        -0.038904689252376556, -0.029929744079709053, -0.08841823041439056, 0.03644217178225517,
        0.04642871394753456, 0.07250010967254639, -0.074750617146492, -0.08112853765487671,
        0.037905603647232056, 0.07356252521276474, -0.08586088567972183, -0.039708901196718216,
        0.010573052801191807, 0.06831659376621246, -0.09981441497802734, 0.07082279771566391,
        -0.07506932318210602, 0.05928945541381836, -0.02355465106666088, -0.07765205949544907,
        0.06817352771759033, 0.026691582053899765, -0.06420660763978958, -0.031106069684028625,
        -0.05929822102189064, -0.0636918768286705, -0.022293005138635635, -0.049428097903728485,
        0.013376791030168533, -0.07800821214914322, -0.08625531941652298, -0.05604345351457596,
        -0.040221504867076874, 0.07047218829393387, -0.0005348750855773687, -0.06352881342172623,
        -0.01946626976132393, -0.06726815551519394, 0.041307322680950165, 0.06376490741968155,
        0.010065942071378231, 0.01737666130065918, 0.04373298957943916, 0.056496839970350266,
        0.012661521323025227, -0.10157860070466995, -0.06368070840835571, 0.08451612293720245,
        -0.08245743811130524, -0.09649251401424408, -0.08410905301570892, 0.05424561724066734,
        -0.027980787679553032, 0.04718319699168205, 0.02883002534508705, 0.059465497732162476,
        0.063957579433918, 0.011710536666214466, -0.026224562898278236, 0.04282572120428085,
        -0.055567990988492966, 0.06262633949518204, 0.04375189170241356, -0.032983504235744476,
        -0.008809302002191544, -0.07640878856182098, -0.057905811816453934, 0.05797627940773964,
        0.06733936816453934, -0.06923149526119232, -0.050284940749406815, -0.0485052652657032,
        0.010058850981295109, -0.08255280554294586, 0.011491412296891212, 0.043900925666093826,
        -0.06229887902736664, 0.029067784547805786, 0.015599149279296398, 0.08772064745426178,
        0.024190332740545273, 0.0003458106948528439, -0.07161840051412582, 0.0021572462283074856,
        -0.07073259353637695, 0.034167494624853134, -0.03500598296523094, -0.045639555901288986,
        -0.005664195399731398, -0.03202958032488823, -0.07294335961341858, 0.04763568565249443,
        0.0002935290976893157, 0.048799071460962296, 0.07127297669649124, -0.04315825551748276,
        0.04314841330051422, -0.024228820577263832, -0.01738409325480461, 0.0003670568985398859,
        0.047360170632600784, 0.07104963809251785, 0.07239430397748947, -0.03573272377252579,
        -0.060461729764938354, 0.021140875294804573, 0.05504380166530609, -0.07107245922088623,
        -0.09045012295246124, 0.013035588897764683, -0.05055907368659973, 0.04748694226145744,
        0.006974049378186464, 0.060092851519584656, 0.0720190778374672, -0.012548370286822319,
        -0.021452249959111214, 0.007751633413136005, 0.03230148181319237, -0.09149786084890366,
        0.06268613785505295, -0.021162059158086777, -0.07611426711082458, 0.07225646823644638,
        -0.08171488344669342, -0.0440862663090229, -0.09221472591161728, 0.06689751893281937
      ],
      [
        0.09721671044826508, 0.3875499963760376, -0.4547901153564453, -0.27601349353790283,
        0.06792442500591278, 0.055721767246723175, 0.03856988623738289, 0.01142530795186758,
        0.4805012047290802, 0.07054857909679413, -0.20999601483345032, 0.0777159258723259,
        -0.02665047161281109, -0.013890811242163181, 0.030085105448961258, 0.03426695987582207,
        -0.05729175731539726, -0.24578826129436493, -0.31579703092575073, 0.07960163056850433,
        0.38696232438087463, 0.007266117725521326, 0.1866523176431656, 0.16994288563728333,
        -1.065232515335083, -0.21501758694648743, 0.07825528830289841, 0.45392224192619324,
        0.10617495328187943, 0.14514552056789398, 0.17168410122394562, 0.03670026361942291,
        -0.4404241442680359, 0.03973294422030449, 0.0043937452137470245, 0.0911669209599495,
        -0.0748295858502388, 0.40697166323661804, 0.5556765198707581, -0.01741916500031948,
        0.03382593393325806, -0.005944305565208197, -1.2983965873718262, 0.08196906000375748,
        -0.012046430259943008, 0.0004994126502424479, -0.0672995001077652, 0.061465270817279816,
        0.26512840390205383, 0.3170919120311737, 0.10906098783016205, -0.02028503641486168,
        -0.019199762493371964, -0.005109651945531368, -0.5808423161506653, -0.5320179462432861,
        0.09472856670618057, 0.2596132457256317, 0.31845778226852417, 0.12054847925901413,
        0.25788959860801697, 0.021152660250663757, 0.07690499722957611, 0.08038735389709473,
        -0.07493560016155243, -0.06579068303108215, -0.08218265324831009, -0.43837395310401917,
        0.1407696008682251, 0.1263742297887802, -0.4665212333202362, -1.4183369874954224,
        0.02669510804116726, -0.43605005741119385, 0.28068292140960693, 0.029743852093815804,
        0.03891611099243164, -0.06437564641237259, -0.06447364389896393, 0.019140148535370827,
        0.19751189649105072, 0.012857324443757534, -0.7226844429969788, -0.009023015387356281,
        -0.04415947571396828, 0.4407201409339905, 0.24628756940364838, 0.09900114685297012,
        -0.212201327085495, -0.05062703415751457, 0.057508405297994614, -0.00864032469689846,
        -0.5324820280075073, 0.08167050778865814, -0.06817100197076797, 0.029084142297506332,
        0.3449934422969818, 0.029959233477711678, -0.10019330680370331, 0.016916733235120773,
        -0.05583278834819794, 0.055892106145620346, -0.07780683785676956, -0.09511954337358475,
        0.06579092890024185, 0.006450609769672155, -0.18266218900680542, -0.07136628776788712,
        0.05588380992412567, -0.3562467098236084, 0.0955008938908577, -0.922919750213623,
        0.07408000528812408, -0.6125897765159607, -0.9803779125213623, 0.04652092605829239,
        0.03584881126880646, 0.03973054140806198, -0.1431206911802292, 0.12993429601192474,
        -0.6233908534049988, 0.012460609897971153, 0.08226814866065979, 0.043794408440589905,
        0.08719530701637268, -0.6658519506454468, -0.2677326798439026, 0.2513907849788666
      ],
      [
        0.02793736383318901, 0.08026465773582458, 0.0082401093095541, -0.07079685479402542,
        0.056410059332847595, -0.028511742129921913, 0.07216110080480576, -0.049648258835077286,
        -0.07752423733472824, -0.06795096397399902, 0.004207171965390444, -0.01777348294854164,
        -0.04166669026017189, -0.08344882726669312, 0.020947637036442757, 0.05777858570218086,
        0.04775677248835564, -0.005988223943859339, -0.01075029093772173, 0.006803776137530804,
        0.08425866812467575, -0.04792734980583191, 0.015195097774267197, -0.03885688632726669,
        -0.024286583065986633, 0.01501470897346735, -0.022677775472402573, -0.044470760971307755,
        0.015577337704598904, -0.018001234158873558, 0.05096018686890602, 0.07759811729192734,
        -0.016833104193210602, -0.05812712013721466, 0.0702415481209755, -0.0143364192917943,
        0.011758233420550823, 0.011615028604865074, -0.04537263140082359, -0.031149661168456078,
        0.002498770598322153, -0.02834390290081501, -0.061542246490716934, -0.0024285961408168077,
        -0.042603276669979095, 0.030225791037082672, -0.0819486752152443, -0.05765959620475769,
        -0.08086442947387695, 0.07560665160417557, -0.06600340455770493, -0.057785626500844955,
        -0.06385250389575958, -0.0396023690700531, -0.05571481212973595, -0.0624982975423336,
        0.06580331176519394, 0.009470786899328232, -0.07107586413621902, 0.04972618818283081,
        -0.05981970578432083, -0.07187310606241226, -0.038655612617731094, 0.059536162763834,
        0.010116581805050373, -0.020897377282381058, -0.08347626775503159, -0.04371160268783569,
        0.05837302654981613, -0.07284002751111984, 0.037461742758750916, -0.07230522483587265,
        0.014650160446763039, 0.012388665229082108, -0.03861302509903908, 0.029508061707019806,
        0.055567417293787, 0.0010729533387348056, 0.04708587005734444, 0.059537217020988464,
        -0.0827757865190506, 0.08364439010620117, -0.06349031627178192, 0.08785045892000198,
        0.07271101325750351, 0.047661762684583664, -0.03735048323869705, -0.04978629946708679,
        0.06336213648319244, -0.07125728577375412, 0.04202822595834732, -0.06033601611852646,
        -0.019315626472234726, -0.05839564651250839, -0.032424233853816986, -0.07020420581102371,
        0.0554150752723217, 0.04657815769314766, -0.009565290063619614, 0.0540158748626709,
        0.008779452182352543, -0.06398039311170578, 0.06899409741163254, 0.06693197786808014,
        -0.02344382554292679, 0.02259783260524273, -0.0878128856420517, -0.06656651943922043,
        -0.06440159678459167, 0.035583823919296265, 0.009693458676338196, 0.033777303993701935,
        -0.05332040786743164, -0.03381262347102165, -0.026522811502218246, -0.08057070523500443,
        0.0753776878118515, -0.06245027855038643, 0.07139374315738678, -0.05215037986636162,
        0.012473770417273045, -0.07039014250040054, 0.05099254474043846, -0.03185073286294937,
        -0.05558639392256737, -0.08244030177593231, 0.06466740369796753, -0.0792849212884903
      ],
      [
        -0.30851617455482483, 0.19396519660949707, -0.37598463892936707, -0.14627741277217865,
        0.04018285498023033, 0.029929477721452713, 0.0442422516644001, 0.3486034572124481,
        -0.6355902552604675, -0.08429241925477982, 0.05565275251865387, -0.13141296803951263,
        -0.11519533395767212, 0.03659055382013321, -0.45170897245407104, 0.051424089819192886,
        -0.058169689029455185, 0.059928566217422485, -0.22311584651470184, 0.19046248495578766,
        0.5190467238426208, 0.08845529705286026, -0.20428311824798584, 0.2553962767124176,
        -1.0862561464309692, -0.1052655354142189, 0.07916072756052017, 0.629817545413971,
        0.048029523342847824, -0.1669064462184906, 0.047416381537914276, -0.0867057517170906,
        -0.6250354051589966, 0.1591770201921463, 0.0474221408367157, 0.11549181491136551,
        0.04289640858769417, 0.40132519602775574, -0.48507827520370483, 0.01608586125075817,
        -0.08648061007261276, 0.03952523320913315, -1.3885602951049805, 0.1214761734008789,
        -0.029945649206638336, 0.12055380642414093, 0.00920914951711893, -0.06241993606090546,
        0.14757154881954193, 0.03125997632741928, -0.0009710541926324368, -0.08612256497144699,
        -0.026011943817138672, 0.06570150703191757, -0.23995153605937958, -0.292440801858902,
        0.03712671995162964, 0.315289169549942, 0.21101342141628265, 0.01859949342906475,
        0.2258264720439911, 0.010430501773953438, 0.09073186665773392, 0.07317309826612473,
        0.06899651885032654, -0.08774932473897934, -0.06685641407966614, -0.40226972103118896,
        0.15415222942829132, -0.24467699229717255, -0.40323349833488464, -1.290820837020874,
        -0.05388537794351578, -0.22020098567008972, 0.338642418384552, 0.032791510224342346,
        -0.5792690515518188, 0.00907410029321909, 0.04155256226658821, 0.07155033200979233,
        0.24290557205677032, -0.006300138775259256, -0.5145238041877747, 0.014396385289728642,
        -0.12072111666202545, -0.21463710069656372, -0.026884563267230988, 0.05725577473640442,
        -0.22463920712471008, -0.07049078494310379, -0.02996283769607544, -0.053195759654045105,
        -0.5713320374488831, 0.06588898599147797, -0.06298395246267319, 0.020658906549215317,
        -0.1577337086200714, -0.027119221165776253, -0.06262461096048355, 0.04591481760144234,
        -0.0010141333332285285, 0.020307626575231552, -0.42545077204704285, -0.11522430926561356,
        0.10852272808551788, -0.03964119777083397, -0.18317994475364685, -0.07375802844762802,
        0.071802519261837, -0.15611107647418976, -0.012371616438031197, -0.6764281988143921,
        0.06251578778028488, -0.638622522354126, -0.774493932723999, 0.12753839790821075,
        -0.07154592126607895, 0.08769183605909348, -0.4838748872280121, 0.24907571077346802,
        -0.4185106158256531, -0.006934009958058596, 0.031145799905061722, 0.2392861545085907,
        0.02663142792880535, -0.8169479966163635, -0.4745689332485199, 0.4679115414619446
      ],
      [
        -0.07456959038972855, 0.37820571660995483, -0.45107001066207886, -0.26214131712913513,
        0.06322828680276871, 0.07579726725816727, -0.03489028662443161, 0.07172058522701263,
        0.6687784194946289, 0.03311369940638542, -0.34923866391181946, 0.054695919156074524,
        0.05845019221305847, 0.0814719870686531, -0.25196942687034607, -0.0003607426187954843,
        -0.06474272906780243, -0.42417845129966736, -0.32114893198013306, -0.13051635026931763,
        0.35359305143356323, -0.01741146109998226, 0.06401723623275757, 0.1391584873199463,
        -1.0081229209899902, -0.2667748034000397, 0.03875136747956276, 0.33719602227211,
        0.1298082321882248, 0.17718276381492615, 0.048218876123428345, 0.06061255931854248,
        -0.401106059551239, 0.01363903284072876, 0.012335842475295067, 0.07458795607089996,
        -0.07519989460706711, 0.49290958046913147, 0.9575704336166382, 0.050295233726501465,
        0.01920294761657715, 0.11811257153749466, -1.2025669813156128, 0.08156580477952957,
        0.03131392225623131, 0.07526510208845139, 0.06517057120800018, 0.03398817777633667,
        0.1703200489282608, 0.31151247024536133, 0.01820388250052929, 0.050637152045965195,
        0.07942849397659302, -0.006349802017211914, -0.43905341625213623, -0.4195314943790436,
        0.001757339807227254, 0.25608357787132263, 0.20676851272583008, 0.07637029141187668,
        0.2677522301673889, -0.024851983413100243, 0.09178310632705688, 0.0938291847705841,
        0.06897639483213425, 0.04664704203605652, -0.1466829478740692, -0.3958140015602112,
        0.184999480843544, -0.03577614575624466, -0.5908470749855042, -1.7100991010665894,
        0.007969547063112259, -0.43186095356941223, 0.33789774775505066, 0.043730221688747406,
        0.06998090445995331, 0.044620826840400696, -0.01941874250769615, 0.041145630180835724,
        0.08700062334537506, 0.07496034353971481, -0.7814264297485352, 0.08666233718395233,
        0.03386625647544861, 0.416422575712204, 0.3327562212944031, -0.006983403582125902,
        -0.1881403625011444, 0.043167486786842346, -0.07877226173877716, 0.03218235448002815,
        -0.6140328049659729, 0.027461839839816093, -0.045526087284088135, 0.0882117822766304,
        0.39461955428123474, 0.06584235280752182, -0.006858687847852707, 0.003214076394215226,
        -0.4790641665458679, -0.06378620117902756, -0.30671629309654236, -0.026588859036564827,
        -0.05398513376712799, 0.0829162448644638, -0.05272987484931946, -0.07660838961601257,
        0.05123861879110336, -0.26560771465301514, -0.17358529567718506, -0.9108698964118958,
        0.057392667979002, -0.6310132145881653, -1.0612655878067017, 0.029362225905060768,
        -0.03061675652861595, 0.06798125058412552, -0.24697601795196533, 0.13353925943374634,
        -0.7896427512168884, 0.06347339600324631, 0.0006036965060047805, -0.05689164996147156,
        0.12100595235824585, -0.6122062802314758, -0.21945376694202423, 0.29023563861846924
      ],
      [
        -0.3929276168346405, -0.1496596485376358, 0.039504699409008026, -0.07140429317951202,
        0.038849543780088425, 0.019855843856930733, 0.08010287582874298, 0.6645744442939758,
        0.10641290247440338, -0.00015901902224868536, 0.24884018301963806, 0.049940548837184906,
        0.08523648977279663, 0.05120640620589256, -0.6184905171394348, -0.041225798428058624,
        0.00993739441037178, 1.0751221179962158, 0.14834891259670258, 0.6446769833564758,
        0.3579716980457306, 0.060171302407979965, -0.6878096461296082, 0.012672921642661095,
        -0.1686793565750122, -0.10438256710767746, 0.17405222356319427, -0.04695409908890724,
        -0.0054736812599003315, 0.23659183084964752, -0.08944873511791229, 0.02963671274483204,
        -0.17376117408275604, 0.10289448499679565, -0.04118435084819794, 0.14645034074783325,
        0.003745063440874219, 0.13478699326515198, -1.317854404449463, -0.07246388494968414,
        0.03309591859579086, 0.13126318156719208, 0.14219026267528534, 0.19209024310112,
        0.2256481945514679, 0.10318687558174133, 0.0273237694054842, 0.010065237991511822,
        -0.06766286492347717, 0.036923862993717194, 0.031054342165589333, 0.08114881813526154,
        0.08260323107242584, 0.019916314631700516, 0.5071175694465637, 0.16067516803741455,
        0.036237604916095734, 0.19323496520519257, 0.38472822308540344, 0.055609118193387985,
        0.04239591956138611, 0.03510453179478645, -0.020758654922246933, 0.15312443673610687,
        0.06927819550037384, -0.2006172239780426, 0.3123437166213989, 0.20017701387405396,
        0.014843352138996124, -0.26997220516204834, 0.16094577312469482, -0.3364531695842743,
        -0.06013716757297516, 1.1630337238311768, 0.07412268966436386, -0.015256231650710106,
        -0.36660292744636536, -0.051729682832956314, 0.05631616339087486, -0.08700935542583466,
        -0.03236522153019905, -0.17214827239513397, 0.4094117283821106, 0.03782609477639198,
        -0.053225576877593994, -0.6092702150344849, -0.4682243764400482, 0.02963017113506794,
        -0.045876916497945786, -0.07791575789451599, -0.022714948281645775, 0.04629814252257347,
        0.07672597467899323, 0.13035698235034943, 0.0611281543970108, 0.10792974382638931,
        -0.6961732506752014, -0.04825381934642792, -0.069173164665699, -0.04042870178818703,
        1.1922810077667236, -0.04607532545924187, -0.2827231287956238, 0.14062310755252838,
        0.05933639779686928, -0.002489998936653137, -0.30397385358810425, -0.052915461361408234,
        0.2503940165042877, 0.2702692151069641, -0.38032588362693787, 0.6802798509597778,
        0.002626686356961727, -0.1879647970199585, 0.1975778341293335, 0.10833237320184708,
        -0.03499337658286095, 0.016279803588986397, -0.019781174138188362, 0.3255694508552551,
        0.3995306193828583, 0.017926866188645363, 0.11400838941335678, 0.4562470316886902,
        -0.16600489616394043, -0.20945443212985992, -0.28229421377182007, 0.32844778895378113
      ],
      [
        0.3101855218410492, -0.494175523519516, 0.7286211252212524, 0.6185747385025024,
        -0.22973623871803284, 0.018275905400514603, 0.019525622949004173, 0.28416571021080017,
        -0.9730444550514221, 0.10046467930078506, 0.5052400231361389, -0.016389818862080574,
        0.30289411544799805, 0.03389298915863037, 0.5084158182144165, 0.2493230700492859,
        -0.02188347652554512, 0.07976767420768738, 0.6027026176452637, -0.13626985251903534,
        -0.09770214557647705, 0.019769519567489624, 0.24307802319526672, -0.17296302318572998,
        1.28716242313385, 0.3731156289577484, -0.07279409468173981, -0.29506877064704895,
        -0.2491360604763031, -0.45189976692199707, 0.1908702403306961, 0.1538422554731369,
        -0.3353368937969208, -0.07905879616737366, -0.0523381344974041, 0.20983393490314484,
        -0.01534964982420206, -0.26248660683631897, -0.5766040682792664, 0.001228106440976262,
        0.048582904040813446, -0.03257957845926285, 1.527099370956421, -0.5145394206047058,
        0.20626679062843323, -0.18744297325611115, 0.042892489582300186, -0.047750480473041534,
        -0.1282472461462021, -0.46720606088638306, -0.42252853512763977, 0.13724924623966217,
        -0.26813557744026184, 0.002605602378025651, 0.8101681470870972, 0.9236648678779602,
        0.0928393006324768, -0.0035451618023216724, -0.013698436319828033, -0.23469552397727966,
        -0.1702319234609604, 0.0008142349543049932, -0.09472311288118362, 0.15852124989032745,
        -0.08286166191101074, 0.06801094859838486, 0.5447211265563965, 0.6697719693183899,
        -0.10432614386081696, 0.0005281112971715629, 0.6451610922813416, 1.907020092010498,
        -0.06367883086204529, 0.9880061149597168, -0.2161291092634201, -0.020304981619119644,
        0.12116909772157669, -0.06726593524217606, 0.3337257206439972, -0.0828745886683464,
        -0.2106412947177887, -0.10363147407770157, 0.8891729116439819, 0.007501248270273209,
        0.19682066142559052, -0.1559349149465561, 0.005355462897568941, -0.03383304178714752,
        0.32901227474212646, -0.026274219155311584, 0.033867426216602325, 0.055238280445337296,
        1.0623996257781982, 0.15141764283180237, 0.03672674298286438, -0.3106914162635803,
        -0.1712765097618103, 0.03889913856983185, 0.3030221462249756, 0.054792892187833786,
        -0.2723413109779358, 0.08256208896636963, 0.5644108653068542, 0.21240073442459106,
        0.13389405608177185, 0.043261539191007614, 0.2782234251499176, 0.005609608255326748,
        -0.15777842700481415, 0.5023723244667053, 0.14469607174396515, 1.0718501806259155,
        -0.008829005993902683, 0.7255414128303528, 1.333795189857483, -0.006617278791964054,
        0.05170515179634094, -0.09447842836380005, 0.5267525911331177, 0.26339295506477356,
        0.6834936738014221, 0.03427032753825188, -0.11261410266160965, 0.30556151270866394,
        0.2656191885471344, -0.5054380297660828, 0.4100249707698822, 0.0777166411280632
      ],
      [
        0.028498923406004906, 0.003613788401708007, 0.033729445189237595, -0.02510061301290989,
        0.0541212260723114, 0.08754836767911911, 0.06868727505207062, 0.020540527999401093,
        0.02869236283004284, -0.054356832057237625, -0.10482469201087952, -0.014568770304322243,
        -0.0002069438633043319, 0.04798852652311325, -0.06032095476984978, 0.005592848174273968,
        -0.07095697522163391, -0.07926096022129059, 0.03586384281516075, -0.035402972251176834,
        -0.030700059607625008, 0.005843534134328365, -0.05938632786273956, -0.0076560997404158115,
        -0.01953769661486149, 0.009157761000096798, 0.012475169263780117, -0.086888886988163,
        0.03341316059231758, -0.002419824479147792, 0.01762162148952484, -0.00409861421212554,
        0.008222322911024094, -0.011438336223363876, 0.061123136430978775, 0.07560695707798004,
        0.04113834723830223, -0.10540815442800522, -0.044765669852495193, -0.0174440648406744,
        -0.032501108944416046, 0.06413239985704422, -0.039340708404779434, 0.014783916063606739,
        -0.09734964370727539, -0.08353660255670547, -0.008362640626728535, 0.05004087835550308,
        -0.06042375788092613, -0.08715646713972092, -0.05268946290016174, -0.10511061549186707,
        -0.09946266561746597, 0.07535446435213089, 0.03339668735861778, -0.034295808523893356,
        -0.10665680468082428, -0.013716289773583412, 0.03524305671453476, -0.08287815749645233,
        -0.09558165818452835, -0.05990196764469147, -0.02773340418934822, 0.010493651032447815,
        -0.0593983419239521, -0.07204080373048782, -0.08948728442192078, 0.05965080484747887,
        -0.057856347411870956, -0.054137200117111206, 0.03025655262172222, 0.06596432626247406,
        -0.005008794832974672, -0.0788324624300003, -0.03227817639708519, -0.07315144687891006,
        0.05945970490574837, 0.013412528671324253, -0.03227026015520096, 0.07120997458696365,
        0.03420339524745941, 0.054241910576820374, -0.07858297228813171, -0.09405838698148727,
        0.020915590226650238, -0.024905649945139885, 0.04669737443327904, -0.05778837203979492,
        -0.062263865023851395, 0.04283241927623749, 0.018350273370742798, 0.06407878547906876,
        -0.03074515610933304, 0.016707656905055046, 0.0755055844783783, 0.045595765113830566,
        0.022999003529548645, 0.02782617136836052, -0.0618743933737278, -0.015784457325935364,
        -0.0720459595322609, -0.08495071530342102, -0.04819805920124054, 0.02108464017510414,
        -0.08008423447608948, -0.006595749408006668, 0.014961527660489082, -0.03899885714054108,
        -0.04912520572543144, -0.047436852008104324, -0.10625273734331131, 0.003929921425879002,
        -0.040313880890607834, -0.05777394026517868, -0.06522411108016968, 0.01876823790371418,
        -0.06169600039720535, 0.011833729222416878, -0.01909543201327324, -0.06065244600176811,
        -0.05690692737698555, 0.06797988712787628, -0.06670954823493958, 0.010000265203416348,
        0.03084414452314377, -0.019484128803014755, -0.09501810371875763, -0.004422056023031473
      ],
      [
        0.06761731952428818, 0.059906765818595886, 0.011574029922485352, -0.07800702750682831,
        -0.10166607797145844, -0.05682434141635895, -0.06618266552686691, 0.015388069674372673,
        -0.09171988070011139, 0.06857702881097794, 0.03973186016082764, -0.03906509652733803,
        -0.08948411047458649, -0.06109795719385147, -0.06137766316533089, -0.020077617838978767,
        -0.07026778161525726, -0.009096060879528522, 0.033840201795101166, -0.013345952145755291,
        0.002074935007840395, -0.10118784010410309, 0.04877161979675293, -0.06246411055326462,
        -0.04530158266425133, 0.01078141387552023, -0.09566768258810043, -0.09064104408025742,
        -0.09297274798154831, 0.07829071581363678, 0.05685439333319664, 0.06048428267240524,
        0.032980989664793015, 0.02038891613483429, -0.02832523174583912, 0.06701629608869553,
        -0.08803781867027283, -0.003980405628681183, -0.036518726497888565, -0.04862036183476448,
        0.040578920394182205, -0.023318717256188393, 0.05398828163743019, -0.07288707047700882,
        -0.02878396585583687, -0.011803851462900639, 0.06551811099052429, -0.029943343251943588,
        -0.0965949222445488, 0.050712574273347855, -0.04543570429086685, 0.024898122996091843,
        -0.036542534828186035, -0.03165195509791374, 0.0578097403049469, 0.02144433930516243,
        -0.08118539303541183, -0.045228295028209686, -0.04301480948925018, -0.0770048275589943,
        -0.03761129826307297, 0.005178161896765232, -0.0384347066283226, 0.02591686137020588,
        -0.04008952155709267, -0.002454093424603343, 0.06922376900911331, -0.08668873459100723,
        -0.014998795464634895, 0.03304269537329674, 0.03571745380759239, -0.05715438351035118,
        0.07671946287155151, 0.04897918552160263, 0.04305268079042435, -0.0360516756772995,
        -0.04416161775588989, -0.019294794648885727, -0.0987362340092659, 0.007419204339385033,
        0.05567567050457001, -0.05821004509925842, -0.006793289445340633, -0.054662883281707764,
        -0.010029916651546955, -0.030870961025357246, 0.07082575559616089, 0.053569260984659195,
        -0.04697940871119499, -0.05769898369908333, -0.08529003709554672, 0.05057939887046814,
        -0.020375819876790047, -0.06539612263441086, 0.03967621922492981, 0.06032104045152664,
        -0.0026224302127957344, -0.06917547434568405, 0.002263848902657628, -0.05826427787542343,
        -0.03101656772196293, -0.05402175337076187, -0.052791476249694824, -0.1054898127913475,
        0.02257302962243557, 0.020866498351097107, 0.04355049133300781, -0.08140236139297485,
        -0.09740807861089706, 0.056138813495635986, -0.09981641918420792, -0.04747170954942703,
        0.055025819689035416, 0.05585645139217377, 0.06274239718914032, 0.07124339789152145,
        -0.06010318920016289, -0.011985352262854576, -0.005803253967314959, -0.0070898523554205894,
        0.011763853952288628, -0.06293025612831116, 0.0461474247276783, -0.02537713572382927,
        -0.018748579546809196, -0.059643231332302094, 0.037128012627363205, 0.024369947612285614
      ],
      [
        -0.08030594885349274, 0.3338363468647003, -0.3810443878173828, -0.2419460415840149,
        0.037225332111120224, -0.0393497608602047, -0.030170083045959473, 0.11397186666727066,
        0.41926872730255127, 0.11195872724056244, -0.19319824874401093, 0.07284567505121231,
        -0.13383571803569794, 0.031739696860313416, -0.18956051766872406, 0.0965893343091011,
        0.049585167318582535, -0.17422139644622803, -0.25773754715919495, 0.008158043958246708,
        0.3625490963459015, 0.10921267420053482, -0.09984222054481506, 0.11307095736265182,
        -1.1310069561004639, -0.19644004106521606, 0.10910804569721222, 0.47139278054237366,
        0.23745054006576538, 0.108248770236969, 0.19442540407180786, -0.013274800032377243,
        -0.5923598408699036, -0.005429483018815517, 0.01752154529094696, -0.01371729001402855,
        0.024539854377508163, 0.4363999664783478, 0.4103483557701111, 0.036678411066532135,
        -0.011214001104235649, 0.03041159361600876, -1.3740860223770142, 0.1304796189069748,
        0.09952658414840698, 0.011650034226477146, 0.028200330212712288, -0.041569944471120834,
        0.2904030680656433, 0.2631049156188965, 0.1214781403541565, 0.03730927035212517,
        0.06814328581094742, 0.00568870734423399, -0.5066418051719666, -0.4674842655658722,
        0.04804454743862152, 0.2979172468185425, 0.3156125545501709, 0.025346577167510986,
        0.4120465815067291, 0.050684332847595215, 0.018294231966137886, -0.039225608110427856,
        0.06727145612239838, -0.08832411468029022, -0.08683697134256363, -0.32637837529182434,
        0.086849145591259, -0.024003714323043823, -0.3705625534057617, -1.1243044137954712,
        -0.07380209118127823, -0.48143208026885986, 0.29012253880500793, -0.05361460521817207,
        -0.148213192820549, -0.010309319011867046, 0.022288640961050987, 0.029271945357322693,
        0.1809139847755432, 0.06871003657579422, -0.7169977426528931, -0.02738843858242035,
        0.0335102453827858, 0.22393663227558136, 0.18791580200195312, 0.031237080693244934,
        -0.24905993044376373, 0.051302049309015274, 0.034269582480192184, -0.07745911180973053,
        -0.4994184076786041, 0.09273511916399002, 0.06296319514513016, -0.018932458013296127,
        0.22358250617980957, -0.012320872396230698, -0.10011513531208038, 0.027654442936182022,
        0.098734550178051, 0.013934263959527016, -0.16232968866825104, -0.14703236520290375,
        0.09900332987308502, 0.1300053894519806, -0.08281812071800232, -0.026825962588191032,
        0.09486495703458786, -0.24822771549224854, 0.11924078315496445, -0.8726456165313721,
        0.008920201100409031, -0.28268638253211975, -1.0744470357894897, 0.0814116969704628,
        0.052441276609897614, 0.07520691305398941, -0.038031723350286484, 0.13184213638305664,
        -0.7457761764526367, 0.027028720825910568, 0.11121831089258194, -0.06235490366816521,
        0.06317980587482452, -0.8742843866348267, -0.17457178235054016, 0.3130912780761719
      ],
      [
        0.5417723059654236, 0.4673159122467041, 0.12653768062591553, 0.5640274882316589,
        0.28118565678596497, -0.0475911982357502, -0.01605631597340107, 0.07798349857330322,
        0.38663250207901, -0.43936917185783386, 0.07795927673578262, 0.10075581818819046,
        -1.2667316198349, -0.06220707297325134, 0.7731593251228333, 0.15918023884296417,
        0.00011267959780525416, -1.0169597864151, -0.5069748163223267, -0.4124983251094818,
        0.1704346239566803, -0.19090840220451355, 0.8744250535964966, -0.15046577155590057,
        0.512092649936676, 0.4314918518066406, -0.15746824443340302, 0.07205992192029953,
        0.04308266565203667, -0.7579985857009888, 0.3329413831233978, -0.5317245721817017,
        0.0633683055639267, -0.026510652154684067, -0.033419206738471985, -0.32870015501976013,
        0.08453391492366791, 0.2011970430612564, 0.6084291338920593, 0.08621976524591446,
        -0.04454580321907997, -0.2285071611404419, 1.2812191247940063, 0.563457190990448,
        0.0639399066567421, -0.013475575484335423, -0.013000900857150555, -0.030963996425271034,
        -0.3776218593120575, -0.12293834239244461, 0.272483229637146, -0.2026418149471283,
        0.16938844323158264, -0.017458656802773476, 0.1789046972990036, 0.40916550159454346,
        -0.15970781445503235, -0.3062668740749359, 0.19108612835407257, -0.0018607248784974217,
        0.04056785628199577, -0.06978008896112442, 0.09328030049800873, -0.7737137079238892,
        0.06495139747858047, 0.40679872035980225, 0.12858538329601288, 0.2779694199562073,
        0.3384387195110321, 0.24753497540950775, 0.3318163752555847, 0.10547807067632675,
        0.0052716960199177265, -0.2686229348182678, 0.21223074197769165, 0.037919264286756516,
        0.3296108841896057, 0.06029646098613739, 0.011549988761544228, -0.02869316376745701,
        0.286051481962204, 0.496098130941391, 0.1433483362197876, -0.12433452904224396,
        -0.029857058078050613, 0.8363288044929504, 0.2975517511367798, 0.023627031594514847,
        -0.10597851127386093, 0.03220881149172783, 0.08210983872413635, 0.06194673106074333,
        0.1506948322057724, -0.17273610830307007, -0.08718601614236832, 0.3084471523761749,
        0.7848773002624512, 0.03871139511466026, 0.03506883233785629, 0.06235291063785553,
        0.16217118501663208, 0.05625713989138603, 0.44163450598716736, 0.15879134833812714,
        -0.3226153254508972, 0.051533203572034836, 0.2404077649116516, -0.08166921883821487,
        0.05818983539938927, 0.19303008913993835, 0.015620600432157516, 0.14894281327724457,
        0.021877754479646683, 0.37123626470565796, 0.33422598242759705, -0.04580798000097275,
        0.038219697773456573, -0.09818974137306213, 0.43108224868774414, 0.04974033311009407,
        -0.7842575907707214, 0.03291185200214386, -0.08876075595617294, -0.09090147912502289,
        -0.27793943881988525, 0.5352275371551514, 0.2575271427631378, -0.18801286816596985
      ],
      [
        0.14514100551605225, 0.0014087302843108773, 0.4663178026676178, 0.5727649331092834,
        0.07020167261362076, -0.06822516024112701, -0.01808912120759487, -0.022391512989997864,
        -1.5837395191192627, 0.010677861049771309, 0.438795804977417, 0.021967757493257523,
        0.02781076915562153, -0.04456881806254387, 0.031519029289484024, 0.0780329704284668,
        0.05262681841850281, -0.06376590579748154, 0.3387910723686218, -0.05731535330414772,
        -0.030140075832605362, 0.050126612186431885, -0.0005023092962801456, 0.10207729041576385,
        1.0493794679641724, 0.39710289239883423, 0.06645108759403229, -0.03997979685664177,
        0.014931918121874332, -0.2545278072357178, 0.17293688654899597, -0.07773507386445999,
        0.3655482828617096, 0.01474316418170929, -0.04885874316096306, 0.051495183259248734,
        -0.027815233916044235, -0.018108567222952843, -1.5478655099868774, 0.042647942900657654,
        0.03964863717556, 0.001534298644401133, 1.1642447710037231, 0.2527953088283539,
        0.05582094565033913, 0.0653412714600563, 0.011074664071202278, -0.034508608281612396,
        -0.1893012970685959, -0.3321595788002014, 0.1410611867904663, -0.030416706576943398,
        0.10408066213130951, 0.019798723980784416, 0.5242601633071899, 0.5990294218063354,
        0.08962342143058777, -0.046503666788339615, -0.01009925827383995, 0.04540672153234482,
        -0.289967805147171, 0.08071231096982956, -0.015001765452325344, -0.011705663055181503,
        -0.005696462467312813, 0.22165125608444214, 0.19694441556930542, 0.4968058168888092,
        0.004402086604386568, 0.17787016928195953, 0.5656321048736572, -1.4285348653793335,
        -0.025542106479406357, 0.07458324730396271, 0.04665404558181763, 0.0011636745184659958,
        0.06655409932136536, -0.05451711639761925, 0.12227803468704224, -0.001237610587850213,
        -0.08788604289293289, 0.20258378982543945, 0.9055065512657166, 0.10462620854377747,
        -0.028340879827737808, -0.05101586878299713, 0.18832401931285858, 0.04427947849035263,
        0.16393817961215973, 0.06429086625576019, 0.05674427002668381, 0.01179759856313467,
        -1.1214121580123901, 0.08842974901199341, -0.056758813560009, 0.13793101906776428,
        -0.05555156245827675, -0.013544564135372639, 0.07507555186748505, -0.07999321073293686,
        -0.5393351316452026, -0.04733928665518761, 0.10120099782943726, 0.16256913542747498,
        0.0808786079287529, 0.07322929054498672, 0.31649380922317505, 0.010638685896992683,
        0.01044471189379692, 0.5141188502311707, 0.15377545356750488, 1.085837483406067,
        -0.03413774445652962, -1.0864273309707642, 1.0357753038406372, 0.025087730959057808,
        -0.06184130162000656, 0.012779404409229755, 0.3378775119781494, 0.15105600655078888,
        0.6295773983001709, -0.07215890288352966, -0.06450755894184113, 0.18255402147769928,
        -0.017162147909402847, 0.5241761803627014, 0.3685629963874817, -0.08463072031736374
      ],
      [
        0.3167656362056732, 0.279142826795578, -0.3563586175441742, -0.13591960072517395,
        -0.028269855305552483, 0.06868986040353775, 0.033547814935445786, 0.19557899236679077,
        0.711198091506958, -0.041680674999952316, 0.4071226119995117, -0.1711391806602478,
        -0.1394633948802948, -0.07534108310937881, 0.22129201889038086, 0.34141284227371216,
        0.052614882588386536, -0.9566404223442078, -0.03915950283408165, 0.18050777912139893,
        0.08984504640102386, -0.3693895936012268, 0.3513103723526001, -0.2768474519252777,
        -0.9516473412513733, -0.12003989517688751, -0.2456364929676056, 0.23755097389221191,
        0.160902738571167, -0.6796188354492188, 0.09023717790842056, 0.06599528342485428,
        -0.727430522441864, -0.5044755339622498, -0.0065423911437392235, -0.24203956127166748,
        0.01869826950132847, 0.24014447629451752, 0.6963191628456116, 0.025303702801465988,
        -0.03534084931015968, -0.36881905794143677, -3.628446340560913, 0.3036990165710449,
        0.21460214257240295, -0.2886088192462921, -0.06746948510408401, -0.03084774687886238,
        0.582509458065033, -1.0975114107131958, -0.09237295389175415, -0.36292529106140137,
        -0.06250277161598206, -0.036825165152549744, 0.046355027705430984, -0.4281296730041504,
        -0.686159610748291, 0.18741373717784882, 0.06807161122560501, -0.14237317442893982,
        0.9512550234794617, -0.06577259302139282, -0.027937863022089005, -0.3931971788406372,
        0.07886023074388504, 0.15366637706756592, -0.09214017540216446, 0.5077766180038452,
        0.1475338637828827, 0.03518982604146004, -0.1272132694721222, -0.13447241485118866,
        -0.02160189300775528, -0.6208276152610779, 0.19055837392807007, 0.0716196820139885,
        -0.27155107259750366, -0.02224566414952278, 0.1412419229745865, -0.011583123356103897,
        0.364169716835022, -0.5253214240074158, 0.06263014674186707, -0.4426344931125641,
        -0.1721748560667038, 0.6141840815544128, 0.2580954432487488, -0.44363337755203247,
        -0.7449930906295776, 0.04892989993095398, 0.057711098343133926, -0.021207250654697418,
        0.2474462240934372, -0.09244222193956375, -0.05027521401643753, -0.11448076367378235,
        0.345843642950058, -0.02578936144709587, 0.3306906521320343, -0.03502245992422104,
        -1.0347845554351807, -0.06975040584802628, 0.09046118706464767, -0.31003111600875854,
        -0.5867841243743896, -0.29403895139694214, 0.14658747613430023, 0.05955343320965767,
        -0.41310128569602966, 0.03763990476727486, 0.1373634785413742, -0.03085210546851158,
        0.04853380098938942, 0.48502397537231445, -4.264016628265381, -0.4529930651187897,
        -0.015963329002261162, -0.24625474214553833, 0.08957086503505707, 0.29031822085380554,
        -0.47010353207588196, 0.08251979947090149, -0.3061714470386505, 0.10922326147556305,
        0.14292693138122559, -2.2522735595703125, -0.1998889446258545, 0.6383652091026306
      ],
      [
        -0.35778892040252686, 0.1930440217256546, -0.26195910573005676, -0.13008816540241241,
        -0.017372896894812584, 0.07147440314292908, 0.06728198379278183, 0.2209630161523819,
        -1.9506123065948486, 0.08845146000385284, -0.04683571681380272, 0.010169366374611855,
        0.014613829553127289, -0.06168414652347565, -0.16141483187675476, 0.040713150054216385,
        -0.06443807482719421, -0.6289504170417786, -0.29855412244796753, -0.21629028022289276,
        0.30549323558807373, 0.021312996745109558, 0.043401867151260376, 0.12104032188653946,
        -0.21286004781723022, -0.15988968312740326, -0.07742621004581451, 0.19150123000144958,
        0.16091574728488922, -0.22115273773670197, 0.043557532131671906, 0.05222377926111221,
        0.2953696846961975, 0.062200963497161865, 0.02095051109790802, 0.1262856423854828,
        0.015907801687717438, 0.3198086619377136, -1.499872088432312, -0.04712608829140663,
        -0.031060034409165382, -0.04463333263993263, -0.6815671324729919, 0.09557788074016571,
        -0.0042112707160413265, -0.05890260636806488, 0.022349977865815163, 0.05050239711999893,
        0.31225427985191345, 0.3219738304615021, 0.013221743516623974, -0.07144548743963242,
        0.07256413996219635, -0.07937107235193253, -0.14227870106697083, -0.16551338136196136,
        0.08367953449487686, 0.5343073010444641, -0.010269979014992714, 0.059718623757362366,
        0.3186521530151367, 0.038083598017692566, 0.08971905708312988, -0.052922721952199936,
        0.01752813719213009, 0.05890402942895889, -0.04477321356534958, -0.27296191453933716,
        0.16276313364505768, 0.08258823305368423, -0.3528071641921997, -1.2733532190322876,
        0.054081305861473083, -0.4174553453922272, 0.26072075963020325, 0.0816730484366417,
        0.12570086121559143, -0.05055302754044533, 0.1376951038837433, -0.034075990319252014,
        0.23120437562465668, -0.0032799167092889547, -0.5116190910339355, -0.048760950565338135,
        0.15700913965702057, 0.4539634585380554, 0.1649830937385559, -0.011807762086391449,
        0.04585842788219452, -0.04897399619221687, 0.08105428516864777, -0.033629000186920166,
        -0.8156450986862183, -0.00697236368432641, -0.06814349442720413, -0.011529169976711273,
        0.2040511816740036, -0.026129718869924545, 0.15252360701560974, -0.03854420781135559,
        -0.7176259756088257, -0.019692882895469666, -0.09098218381404877, -0.20872054994106293,
        0.05623457580804825, 0.0739089697599411, -0.013213344849646091, 0.033685773611068726,
        -0.11518928408622742, -0.1736249327659607, -0.046129465103149414, -0.6335110068321228,
        0.0823558121919632, -0.988183856010437, -0.5407848954200745, 0.05783400312066078,
        -0.034598808735609055, -0.01962575875222683, -0.17051494121551514, 0.2304510772228241,
        -0.6527825593948364, -0.06555106490850449, 0.03604591265320778, 0.1034446507692337,
        0.0817655399441719, 0.15685294568538666, -0.11287316679954529, 0.25774502754211426
      ],
      [
        0.025669321417808533, 0.3170716166496277, -0.21650941669940948, -0.13810880482196808,
        -0.04852557182312012, 0.05779905989766121, 0.05382618308067322, 0.11876959353685379,
        0.3183942139148712, -0.09235360473394394, 0.47375988960266113, -0.1629858911037445,
        -0.07209252566099167, 0.006981330458074808, 0.0042388057336211205, 0.49448394775390625,
        0.08689294755458832, -1.2087639570236206, 0.018815530464053154, -0.38673481345176697,
        0.28556573390960693, -0.36607396602630615, 0.21514743566513062, -0.07675055414438248,
        -1.1192591190338135, -0.08221833407878876, -0.28223171830177307, 0.3015619218349457,
        0.15776273608207703, -0.026808463037014008, 0.13463588058948517, 0.04546602815389633,
        -0.3875667154788971, -0.20027504861354828, 0.07862308621406555, -0.08959389477968216,
        0.014376827515661716, 0.2957220673561096, 0.44276151061058044, -0.08322848379611969,
        0.06513337790966034, -0.3364574611186981, -3.022456407546997, 0.22111502289772034,
        0.1747579723596573, -0.42263391613960266, 0.02296154946088791, 0.08490652590990067,
        0.5406994223594666, -0.7613654732704163, 0.12075384706258774, -0.4035938084125519,
        -0.05831172317266464, 0.008095555938780308, 0.18484705686569214, -0.30265507102012634,
        -0.2764981687068939, 0.19985133409500122, 0.02043907158076763, -0.1920725405216217,
        0.8479079604148865, -0.03846815600991249, -0.05853520706295967, -0.5854453444480896,
        -0.008564935065805912, 0.23091663420200348, -0.06541364639997482, 0.5008603930473328,
        0.362973690032959, 0.02098306640982628, 0.1326678842306137, -0.6128600835800171,
        0.08362029492855072, -0.6402114033699036, 0.2036535143852234, -0.035852596163749695,
        -0.22525520622730255, -0.06038089096546173, 0.09348312020301819, 0.03812180459499359,
        0.27252230048179626, -0.3476393520832062, 0.20571711659431458, -0.5077918171882629,
        -0.07412764430046082, 0.5018211007118225, 0.32321691513061523, -0.3970681130886078,
        -0.501878023147583, 0.05626789480447769, -0.08253473788499832, -0.07324855774641037,
        -0.21257758140563965, -0.19043023884296417, -0.028195282444357872, -0.10867070406675339,
        0.2515909969806671, -0.054942239075899124, 0.3429655432701111, -0.08542964607477188,
        -1.069732904434204, 0.0047243875451385975, -0.12697288393974304, -0.25083833932876587,
        -0.6067704558372498, -0.23443692922592163, 0.18855853378772736, -0.036240726709365845,
        -0.3557911217212677, -0.0025386717170476913, 0.18815255165100098, 0.08289863914251328,
        -0.025164902210235596, 0.007019678596407175, -1.9663881063461304, -0.481751948595047,
        -0.04988398775458336, -0.16918200254440308, 0.06516814231872559, 0.26748040318489075,
        -0.3398166000843048, 0.037990882992744446, -0.16111984848976135, 0.2853541374206543,
        0.1914040595293045, -0.9649714827537537, -0.030989326536655426, 0.6040966510772705
      ],
      [
        0.0017899153754115105, 0.02717617340385914, 0.5609504580497742, 0.37254437804222107,
        0.2278689295053482, -0.0012760274112224579, 0.04684554785490036, 0.017784368246793747,
        -1.4109452962875366, -0.14394046366214752, 0.24887032806873322, 0.07380811125040054,
        -0.027843834832310677, -0.06974676251411438, 0.04562725871801376, 0.47263088822364807,
        0.0635325163602829, -0.532410204410553, 0.4707074761390686, -0.22488601505756378,
        0.0021175830624997616, 0.04591169208288193, -0.058261726051568985, 0.2740228474140167,
        1.0092933177947998, 0.3670385181903839, 0.023329628631472588, -0.0643351674079895,
        0.23191480338573456, -0.3853182792663574, 0.1357613503932953, -0.09179656207561493,
        0.42933472990989685, 0.2859302759170532, -0.04651409760117531, -0.08065440505743027,
        -0.015240195207297802, 0.0068374318070709705, -1.0181175470352173, -0.049365706741809845,
        -0.04048804193735123, 0.23865467309951782, 1.327643871307373, 0.18548288941383362,
        0.04253539443016052, 0.12407220900058746, 0.03929424285888672, -0.07826752960681915,
        -0.058443278074264526, -0.3115977644920349, 0.11132724583148956, -0.14561069011688232,
        0.22707410156726837, -0.016383269801735878, 0.3093218505382538, 0.6963323950767517,
        0.1773727387189865, 0.11686474829912186, -0.09597525745630264, 0.15102410316467285,
        -0.23518265783786774, -0.08834487199783325, -0.014270750805735588, -0.22627149522304535,
        0.07794757187366486, 0.21432873606681824, 0.11297044903039932, 0.4419800043106079,
        0.2931710481643677, 0.5445476770401001, 0.5092529058456421, -1.121711015701294,
        -0.06651493161916733, -0.24560613930225372, 0.07652944326400757, -0.05112909898161888,
        0.5485404133796692, 0.0596730038523674, 0.09574229270219803, 0.004912015050649643,
        0.2507612109184265, 0.31955811381340027, 0.600487232208252, 0.2095375806093216,
        0.07248687744140625, 0.11089485138654709, 0.08229898661375046, 0.08239556849002838,
        0.1704302728176117, 0.033083390444517136, 0.050644706934690475, -0.015057615004479885,
        -1.1572856903076172, -0.03341793268918991, -0.011071818880736828, 0.1155242994427681,
        0.03479980677366257, -0.020314348861575127, 0.021954329684376717, 0.00877138040959835,
        -0.8369098901748657, -0.012863186188042164, 0.07761341333389282, 0.13182146847248077,
        0.09180654585361481, 0.17267733812332153, 0.30650681257247925, -0.0867294892668724,
        0.20534031093120575, 0.2603502869606018, 0.11414951086044312, 0.8638965487480164,
        0.009349867701530457, -0.8218640685081482, 0.7762404084205627, 0.1765105277299881,
        0.0997501090168953, 0.13194556534290314, 0.07185286283493042, 0.0512106716632843,
        0.31305187940597534, -0.006167832762002945, -0.0745229423046112, 0.14281854033470154,
        -0.08388419449329376, 0.3666819930076599, 0.47362464666366577, -0.26055705547332764
      ],
      [
        -0.03439958393573761, 0.020529730245471, 0.04472603276371956, 0.055768273770809174,
        -0.012350068427622318, 0.02048521116375923, 0.0009496000711806118, 0.004446706734597683,
        0.14758926630020142, 0.02974795736372471, -0.11809875816106796, 0.026300230994820595,
        -0.06247730925679207, 0.07415013760328293, 0.08153476566076279, 0.036209169775247574,
        -0.019263438880443573, 0.01837957836687565, -0.15224018692970276, -0.04613786190748215,
        -0.002782779512926936, -0.15071475505828857, 0.05825575813651085, -0.07641701400279999,
        0.030922677367925644, -0.04734727740287781, -0.005014208611100912, -0.12208697199821472,
        -0.04071418568491936, -0.09647621214389801, -0.006345241796225309, -0.08673656731843948,
        -0.04951674863696098, -0.1277899593114853, 0.06432902812957764, -0.0001389227545587346,
        -0.03972215950489044, 0.08317332714796066, 0.03759866952896118, 0.007935049943625927,
        0.024851225316524506, -0.0927523598074913, -0.07305437326431274, -0.08615736663341522,
        -0.15625204145908356, -0.07366441935300827, 0.05627841129899025, -0.08170714229345322,
        -0.07570712268352509, -0.11178479343652725, 0.035950757563114166, 0.0025105003733187914,
        0.0031589006539434195, 0.06802667677402496, -0.08082034438848495, 0.02760682813823223,
        -0.08007224649190903, -0.10289404541254044, 0.07342980802059174, -0.02923765778541565,
        0.02263452112674713, -0.03986011818051338, -0.09705127775669098, -0.100224569439888,
        -0.028630606830120087, -0.009744775481522083, 0.006360929924994707, -0.11223113536834717,
        -0.11155781894922256, -0.03224032744765282, -0.02186654694378376, 0.09565412998199463,
        0.06761549413204193, -0.1037488579750061, -0.03867447376251221, 0.011954342015087605,
        -0.05751727893948555, 0.02789517492055893, 0.03074420616030693, 0.019936449825763702,
        0.01577659510076046, 0.04342227056622505, -0.09796362370252609, -0.03429049625992775,
        -0.09617199003696442, -0.012195760384202003, 0.11875820904970169, -0.13834069669246674,
        -0.07966893911361694, -0.03253770247101784, -0.025852138176560402, 0.008206739090383053,
        0.005255405325442553, -0.03161238506436348, 0.027727389708161354, 0.044964659959077835,
        0.10591615736484528, 0.03088419884443283, -0.08603301644325256, -0.012197666801512241,
        -0.10747592151165009, -0.03597729653120041, -0.02286958135664463, -0.12502378225326538,
        -0.020180948078632355, 0.0020798640325665474, 0.026143381372094154, 0.05110158771276474,
        -0.10217676311731339, 0.03926887735724449, 0.00935336109250784, -0.10525789856910706,
        -0.07517275959253311, 0.048581019043922424, -0.011416281573474407, -0.1038632020354271,
        0.05887305736541748, 0.019329894334077835, 0.008876108564436436, 0.0543598011136055,
        -0.10409779101610184, 0.06424318253993988, -0.1216084435582161, -0.02541143074631691,
        -6.32026421953924e-5, -0.09069738537073135, -0.12317505478858948, -0.0707414373755455
      ],
      [
        -0.05633016303181648, 0.3018486797809601, -0.288088321685791, -0.26627281308174133,
        0.11255735158920288, -0.06287207454442978, -0.008225083351135254, -0.807130753993988,
        -2.279886245727539, 0.14418013393878937, -0.3456553518772125, 0.11488988250494003,
        -0.030702637508511543, 0.013626855798065662, 0.15542593598365784, -0.013289567083120346,
        -0.08440250903367996, -0.8414419889450073, -0.3909800350666046, -0.16199634969234467,
        0.1261269748210907, 0.03266381844878197, 0.28792497515678406, 0.11670589447021484,
        -1.1837513446807861, -0.16088299453258514, 0.17040890455245972, 0.48202186822891235,
        0.22198644280433655, 0.22319218516349792, 0.2174973040819168, 0.19626638293266296,
        -0.38230788707733154, 0.13648805022239685, -0.05617663264274597, 0.18021191656589508,
        0.058424919843673706, 0.5197686553001404, -2.750915288925171, 0.04566203057765961,
        -0.059873536229133606, 0.15842673182487488, -1.3526524305343628, 0.12169653177261353,
        0.1354331225156784, 0.008235328830778599, 0.001814463990740478, -0.037377916276454926,
        0.17310331761837006, 0.2078767865896225, 0.1299983412027359, 0.12746497988700867,
        0.04182402044534683, 0.026469621807336807, -0.7833104133605957, -0.43107399344444275,
        0.004037455655634403, 0.3282362222671509, 0.05585116147994995, 0.05658528581261635,
        0.24713896214962006, 0.0841827541589737, 0.06310826539993286, 0.13787014782428741,
        -0.029431786388158798, 0.104691281914711, -0.43539339303970337, -0.21549533307552338,
        0.09832289814949036, 0.07199012488126755, -0.5547472238540649, -3.199321985244751,
        0.08262603729963303, -1.059381127357483, 0.2543083429336548, -0.08568106591701508,
        -0.06760138273239136, 0.04188138619065285, 0.0890938863158226, -0.022241555154323578,
        0.2131049484014511, 0.035834889858961105, -1.0082406997680664, 0.01888139359652996,
        -0.006685185246169567, 0.7485129833221436, 0.3103625178337097, 0.09759606420993805,
        -0.06134182959794998, -0.07329726964235306, 0.023496150970458984, -0.0031847527716308832,
        -2.2780659198760986, 0.12924416363239288, -0.02554059959948063, 0.17261335253715515,
        0.47757700085639954, -0.023113025352358818, -0.1991715431213379, -0.051076341420412064,
        -0.17686234414577484, -0.03247526288032532, -0.06254198402166367, 0.034673456102609634,
        -0.005510675720870495, 0.10707554966211319, -0.005352187901735306, 0.08684457838535309,
        0.02881406992673874, -0.5048370957374573, 0.12594756484031677, -1.0859676599502563,
        -0.03673189505934715, -2.2634942531585693, -1.0156859159469604, 0.09719923883676529,
        -0.07352498173713684, 0.10055726766586304, -0.14814366400241852, 0.11140108853578568,
        -0.7074048519134521, -0.0007807703805156052, 0.08935771882534027, -0.030462877824902534,
        0.13804955780506134, -0.6446815133094788, -0.17136691510677338, 0.0872543454170227
      ],
      [
        0.029739636927843094, 0.22884604334831238, 0.0635996088385582, 0.3376016318798065,
        0.22569206357002258, -0.025643976405262947, -0.06953617930412292, -0.02950146049261093,
        -1.429594874382019, -0.35480213165283203, 0.38329949975013733, 0.025846952572464943,
        -0.18244649469852448, -0.00225214846432209, 0.07602386176586151, 0.3174844980239868,
        0.07623214274644852, -1.032517910003662, 0.21158167719841003, -0.6726037263870239,
        0.10037297010421753, 0.03801363706588745, 0.1376895308494568, 0.08331375569105148,
        -0.32283198833465576, 0.3235069513320923, -0.041976090520620346, 0.024794384837150574,
        0.1721758246421814, 0.25312164425849915, 0.16179408133029938, -0.3172409236431122,
        -0.3634553551673889, 0.10856310278177261, 0.03089243918657303, -0.15643014013767242,
        0.012826750054955482, 0.28999781608581543, -1.130722165107727, -0.010216680355370045,
        -0.05939672887325287, 0.01024556066840887, -0.1512686014175415, 0.3754529356956482,
        -0.09039764106273651, 0.09323469549417496, 0.012165392749011517, 0.00040084286592900753,
        -0.2188079059123993, -0.664949893951416, 0.30549755692481995, -0.19472505152225494,
        0.27764782309532166, 0.042642924934625626, 0.2717958390712738, -0.05875609070062637,
        0.14884990453720093, -0.017474623396992683, -0.032117895781993866, 0.07144322246313095,
        0.01698276586830616, -0.0762196034193039, 0.1366797536611557, -0.2973525822162628,
        -0.061199553310871124, 0.34341710805892944, -0.10120517015457153, 0.11652937531471252,
        0.38597846031188965, 0.10899863392114639, 0.22327972948551178, -1.8306878805160522,
        0.006440881174057722, -0.8476176261901855, 0.27403098344802856, 0.012261192314326763,
        -0.5235545635223389, 0.040825407952070236, 0.034653034061193466, 0.02665889263153076,
        0.1635754555463791, 0.07291914522647858, 0.40907883644104004, 0.09813570976257324,
        -0.03145725280046463, 0.38984227180480957, 0.34099024534225464, 0.14737001061439514,
        -0.6090382933616638, 0.0587967187166214, -0.015757326036691666, -0.0713755264878273,
        -1.2432271242141724, -0.09001734852790833, -0.04932818561792374, 0.2465967833995819,
        0.26948755979537964, 0.030757484957575798, -0.10187525302171707, 0.0023887990973889828,
        -1.281520128250122, -0.06433656066656113, 0.0046503571793437, 0.01308342907577753,
        0.011323496699333191, 0.1470748335123062, 0.3081362843513489, -0.057641997933387756,
        0.20803947746753693, 0.12543126940727234, 0.1120169386267662, 0.5245020389556885,
        0.028268691152334213, -1.0982128381729126, 0.05686572566628456, 0.06285707652568817,
        0.042974166572093964, -0.022548677399754524, 0.09627992659807205, -0.0033679676707834005,
        0.20061714947223663, 0.041260603815317154, 0.1694091260433197, 0.3238750994205475,
        -0.1746986359357834, -0.022670762613415718, -0.015800803899765015, 0.10211089253425598
      ],
      [
        0.08941719681024551, 0.38095465302467346, -0.2252473384141922, 0.08464300632476807,
        0.03024086356163025, 0.028176400810480118, 0.016549348831176758, -0.10301965475082397,
        0.2724495232105255, -0.2572559714317322, 0.572064995765686, -0.09003467857837677,
        -0.26011839509010315, 0.03468029201030731, 0.14662966132164001, 0.39676257967948914,
        -0.023337900638580322, -1.0807394981384277, 0.8844044804573059, -0.35412290692329407,
        0.09331458806991577, -0.3121187388896942, 0.1981286108493805, 0.09064492583274841,
        -1.5213977098464966, 0.05502941831946373, -0.23004351556301117, 0.2681334316730499,
        0.19792474806308746, 0.2466346174478531, 0.08437606692314148, -0.017821257933974266,
        -0.46710482239723206, -0.11842339485883713, 0.0033167509827762842, -0.27962005138397217,
        0.010336756706237793, 0.20955400168895721, 0.0828561782836914, -0.06287804991006851,
        -0.040271248668432236, -0.2689894735813141, -3.8169198036193848, 0.38749006390571594,
        0.3577241897583008, -0.27321505546569824, -0.03994334861636162, -0.027969345450401306,
        0.44275957345962524, -1.2771506309509277, 0.002719281706959009, -0.4364296793937683,
        0.02578958496451378, -0.018769456073641777, 0.07106560468673706, -0.31281450390815735,
        -0.13221807777881622, 0.1625029742717743, 0.09551935642957687, -0.10580164939165115,
        0.8648879528045654, -0.01096448116004467, 0.05154329538345337, -0.5443968772888184,
        0.04766158387064934, 0.16235941648483276, -0.2610112130641937, 0.6601197719573975,
        0.3965550363063812, 0.12314734607934952, 0.070975162088871, -0.6219186782836914,
        -0.08503370732069016, -0.8854929208755493, 0.23178501427173615, -0.04966634139418602,
        -0.17279449105262756, 0.036040063947439194, -0.04700063169002533, 0.06167100742459297,
        0.40096884965896606, 0.29922357201576233, 0.031437333673238754, -0.20426008105278015,
        -0.3777877390384674, 0.2446890026330948, 0.20072682201862335, -0.1407579630613327,
        -0.5997108221054077, -0.028776276856660843, 0.06964793056249619, -0.023135574534535408,
        -0.1591465175151825, -0.09137361496686935, 0.07821650058031082, -0.11320637911558151,
        0.1610097438097, -0.05487552285194397, 0.23306412994861603, 0.008804339915513992,
        -0.5209420323371887, 0.034643445163965225, 0.13390405476093292, -0.2845993638038635,
        -0.40757593512535095, 0.020292161032557487, 0.09728523343801498, 0.06508883088827133,
        -0.18164372444152832, -0.0016678888350725174, -0.021041998639702797, -0.06168140843510628,
        0.002354702213779092, -0.11895111203193665, -1.9919979572296143, -0.07747913897037506,
        0.08269637823104858, -0.09486677497625351, -0.06639993190765381, 0.14823654294013977,
        0.26071327924728394, -0.027906881645321846, -0.236812561750412, 1.0447124242782593,
        -0.14941951632499695, -1.135390043258667, 0.03965804725885391, 0.6090808510780334
      ],
      [
        0.03565830737352371, -0.005030055530369282, 0.07201972603797913, 0.0783490240573883,
        -0.07278648018836975, -0.0073994481936097145, 0.07092209160327911, -0.058799464255571365,
        -0.04963158071041107, -0.021573441103100777, 0.06898131966590881, -0.08681584894657135,
        0.059365879744291306, 0.04113328084349632, -0.001861162600107491, -0.022869691252708435,
        -0.00244955369271338, 0.07703975588083267, 0.0813080444931984, -0.07519616931676865,
        -0.0012306907447054982, 0.05471920967102051, 0.06564183533191681, -0.06316035985946655,
        0.06755708903074265, 0.0180628951638937, -0.08588000386953354, 0.024893196299672127,
        0.016104985028505325, 0.011404580436646938, 0.05264440178871155, 0.03996467962861061,
        -0.01809338852763176, 0.02613980509340763, 0.06543201208114624, 0.07672721147537231,
        -0.006619604770094156, 0.043574221432209015, 0.0007213836070150137, 0.0019408728694543242,
        0.062495019286870956, 0.057564783841371536, 0.029701026156544685, 0.004113228525966406,
        -0.06247984617948532, -0.07696205377578735, 0.0011745273368433118, -0.04001908376812935,
        0.014386331662535667, -0.04070662707090378, -0.03276095911860466, -0.04017988592386246,
        -0.04116242006421089, -0.048149529844522476, 0.0035429310519248247, -0.07143303006887436,
        0.06667312234640121, -0.05628856644034386, -0.05508702993392944, -0.025725336745381355,
        0.06401804089546204, 0.07752490043640137, 0.04802902787923813, -0.030277075245976448,
        -0.014901207759976387, -0.010621565394103527, -0.007625676691532135, 0.00014353149163071066,
        -0.08844537287950516, -0.04020628333091736, 0.026052920147776604, -0.08266106247901917,
        -0.04556465148925781, -0.030103733763098717, 0.031626902520656586, 0.008454794995486736,
        -0.04481304809451103, -0.011282405816018581, -0.08680257946252823, 0.01454548817127943,
        -0.006708481349050999, -0.08743640780448914, 0.028723735362291336, -0.08212064951658249,
        0.06004445254802704, 0.0024155094288289547, -0.08560138195753098, -0.02037680521607399,
        -0.017962617799639702, 0.05814420059323311, -0.011319916695356369, 0.017440250143408775,
        0.020242443308234215, 0.04792308434844017, -0.06823758780956268, 0.023858841508626938,
        -0.044092025607824326, 0.07498370110988617, -0.021664615720510483, 0.030873240903019905,
        -0.07089803367853165, -0.06747087836265564, -0.03886030241847038, -0.06432795524597168,
        0.05425421893596649, -0.09340152889490128, 0.015538779087364674, -0.0013637139927595854,
        -0.03381848707795143, 0.013720644637942314, 0.06253162026405334, 0.04341140389442444,
        0.04671914875507355, 0.04538583382964134, 0.08547729253768921, -0.027188537642359734,
        -0.022647324949502945, -0.006309593562036753, -0.04859992116689682, 0.07506830245256424,
        -0.0790216326713562, -0.04846677929162979, -0.07155157625675201, -0.06489185988903046,
        -0.010192235000431538, -0.051777034997940063, -0.05053203925490379, -0.04977923259139061
      ],
      [
        0.07328944653272629, 0.48263514041900635, -0.25000718235969543, -0.053245123475790024,
        0.14688660204410553, 0.08749794960021973, 0.0016189342131838202, 0.04851208254694939,
        -0.6280099749565125, 0.022323016077280045, -0.1482950896024704, 0.06942680478096008,
        -0.10812956094741821, 0.0763060674071312, -0.029094107449054718, 0.137221097946167,
        -0.06325503438711166, -0.6031691431999207, -0.3136771023273468, -0.08674958348274231,
        0.24596884846687317, 0.11878985166549683, 0.08595337718725204, 0.2013879120349884,
        -0.9372942447662354, -0.13502372801303864, 0.05405488982796669, 0.17588575184345245,
        0.2466297298669815, -0.03950703889131546, 0.16789470613002777, 0.11329519748687744,
        -0.4345731735229492, 0.1141229197382927, -0.04337194189429283, 0.09278256446123123,
        0.060515519231557846, 0.4274578392505646, -0.3472307026386261, 0.06910577416419983,
        0.051715951412916183, 0.14325179159641266, -1.1773091554641724, 0.139106884598732,
        0.059459179639816284, 0.03464973345398903, -0.03682957962155342, -0.07350709289312363,
        0.2677549421787262, 0.24480627477169037, 0.08750072866678238, 0.10555403679609299,
        0.057391975075006485, -0.06484349071979523, -0.37494999170303345, -0.3515704870223999,
        0.08087385445833206, 0.2877197563648224, 0.13133978843688965, 0.08166252076625824,
        0.33184880018234253, 0.006502268370240927, 0.13144320249557495, -0.033498845994472504,
        -0.001580253941938281, 0.04879768192768097, -0.09360849112272263, -0.23617985844612122,
        0.2526658773422241, 0.36606091260910034, -0.1505475491285324, -1.049316644668579,
        0.03124317340552807, -0.5012752413749695, 0.3048090934753418, -0.0006781849078834057,
        0.13132065534591675, -0.07147922366857529, 0.10374897718429565, -0.0781443640589714,
        0.20904821157455444, 0.1386810839176178, -0.5436630845069885, -0.040862295776605606,
        -0.030578654259443283, 0.2628447711467743, 0.16179703176021576, 0.09607875347137451,
        -0.1969611942768097, -0.024828381836414337, -0.06383247673511505, 0.08634596318006516,
        -0.7344467639923096, 0.05600831285119057, -0.030335919931530952, 0.1636306643486023,
        0.24582715332508087, -0.04291082173585892, 0.026082972064614296, -0.05089389905333519,
        -0.4882490038871765, 0.027891382575035095, -0.10882695764303207, 0.03248618543148041,
        0.08533183485269547, -0.005271329078823328, 0.0799325630068779, 0.07121042907238007,
        0.09753602743148804, -0.17261087894439697, 0.2899983823299408, -0.7885850667953491,
        0.018331054598093033, -0.28621092438697815, -1.0204522609710693, 0.1024184450507164,
        -0.04601367190480232, 0.11528807133436203, 0.044827330857515335, 0.11539579927921295,
        -0.7566974759101868, 0.038923077285289764, 0.0039027726743370295, -0.016257038339972496,
        0.07983099669218063, -0.9197805523872375, -0.028156308457255363, 0.17774251103401184
      ],
      [
        0.07108146697282791, -0.09143435955047607, -0.01352849043905735, -0.0638965517282486,
        -0.04282291233539581, 0.014060514979064465, -0.03955072909593582, 0.000820578308776021,
        0.07795410603284836, -0.08191234618425369, -0.007998851127922535, -0.0520906038582325,
        0.011486479081213474, 0.032728251069784164, 0.03695227950811386, -0.07150354981422424,
        0.042028963565826416, -0.12473517656326294, 0.03375043347477913, 0.019135015085339546,
        -0.06610338389873505, 0.0005941328126937151, -0.01333865337073803, 0.003119588131085038,
        -0.05191439390182495, -0.02712010033428669, -0.04899395629763603, 0.06478274613618851,
        -0.07318852841854095, -0.032986968755722046, -0.031005853787064552, -0.03453931212425232,
        -0.0033191696275025606, -0.05156002193689346, 0.07068932801485062, -0.07586478441953659,
        -0.06891932338476181, 0.03562803938984871, 0.07235490530729294, -0.03645424172282219,
        -0.04157908633351326, -0.010354315862059593, -0.06802381575107574, -0.08846956491470337,
        0.007090841885656118, -0.02019723504781723, -0.008215917274355888, 0.04175717756152153,
        -0.053388070315122604, -0.08168119937181473, -0.09623004496097565, 0.05216841399669647,
        0.010998768731951714, 0.004574502818286419, -0.10648152977228165, -0.0879923403263092,
        -0.07089260220527649, -0.1060808077454567, -0.10109332203865051, 0.018627455458045006,
        0.020203635096549988, -0.07703148573637009, -0.01938471384346485, 0.048148833215236664,
        0.046060413122177124, 0.07214595377445221, 0.0683135911822319, 0.05458680912852287,
        0.009570362977683544, 0.036335188895463943, -0.059907715767621994, -0.040052060037851334,
        -0.04076936095952988, 0.010920303873717785, -0.10104083269834518, -0.032216787338256836,
        -0.014111373573541641, -0.01906750723719597, 0.052588313817977905, 0.029645586386322975,
        -0.0554160550236702, -0.06150084733963013, -0.07661327719688416, -0.09763836860656738,
        -0.022849688306450844, -0.10195674747228622, -0.0433184877038002, 0.03396265581250191,
        -0.10379127413034439, -0.062010444700717926, -0.05174051225185394, -0.03794776648283005,
        -0.006534857675433159, 0.024351652711629868, -0.03079613298177719, -0.007390915881842375,
        -0.009250565432012081, -0.020140018314123154, 0.0060292999260127544, 0.078691765666008,
        0.051932431757450104, 0.08614782989025116, 0.009128179401159286, -0.04485751688480377,
        -0.08384775370359421, 0.007214599289000034, 0.016143519431352615, -0.008421488106250763,
        -0.059586651623249054, -0.00027810517349280417, 0.05232499539852142, -0.09235169738531113,
        -0.0060555958189070225, 0.008561248891055584, 0.024375474080443382, -0.0030135847628116608,
        0.08236163854598999, -0.013678917661309242, -0.10485318303108215, 0.003778223181143403,
        -0.06972923874855042, 0.029739564284682274, 0.06833868473768234, -0.015292235650122166,
        0.03772978112101555, 0.08996730297803879, -0.09136560559272766, -0.039310529828071594
      ],
      [
        0.010334527119994164, -0.09863098710775375, 0.09817200154066086, -0.09870313853025436,
        -0.031190235167741776, 0.00029558638925664127, 0.0713941752910614, 0.3403964936733246,
        0.015673447400331497, -0.18377935886383057, 0.36417582631111145, -0.17568930983543396,
        0.3060367703437805, -0.0593688078224659, 0.071628637611866, 0.3868281841278076,
        -0.08811595290899277, -0.6638733148574829, -0.05618511140346527, -0.20430932939052582,
        0.1090022623538971, -0.1675836592912674, 0.09848165512084961, -0.30055174231529236,
        1.3550735712051392, -0.05612808093428612, -0.1623121052980423, 0.04530518501996994,
        -0.06931757926940918, -0.6306400299072266, 0.13008633255958557, -0.055288128554821014,
        -0.5554555654525757, -0.13590727746486664, 0.07476837188005447, -0.1329382359981537,
        -0.08384935557842255, 0.1252164989709854, 0.32115742564201355, 0.07296989858150482,
        0.02278953790664673, -0.20851761102676392, 2.3591206073760986, -0.17828622460365295,
        0.4722622036933899, -0.2799685597419739, 0.052617136389017105, 0.0705176591873169,
        0.0007522968808189034, -0.14808577299118042, -0.06909643858671188, -0.19516801834106445,
        -0.0860111340880394, -0.0342494435608387, 0.26282957196235657, 0.6011385321617126,
        -0.10022253543138504, -0.26958799362182617, 0.019882021471858025, -0.3092873990535736,
        0.12583540380001068, -0.028470100834965706, -0.13298432528972626, -0.25051063299179077,
        0.057074882090091705, 0.13134507834911346, 0.15708816051483154, 0.832857608795166,
        -0.09602536261081696, -0.046956755220890045, 0.12641090154647827, 0.24646244943141937,
        -0.008567959070205688, 0.5699387192726135, 0.12107354402542114, 0.04736732318997383,
        -0.09779076278209686, -0.01752825267612934, 0.28175559639930725, 0.0018837533425539732,
        -0.1920786201953888, -0.17372283339500427, 0.4957006275653839, -0.052718255668878555,
        -0.021878555417060852, 0.003858319716528058, 0.13741205632686615, -0.3585021495819092,
        0.43008899688720703, 0.009401697665452957, -0.022075369954109192, 0.0759330689907074,
        0.1346115618944168, -0.1390056610107422, 0.07973863184452057, -0.22720399498939514,
        -0.03886766731739044, -0.01807091385126114, 0.35565224289894104, 0.05636652931571007,
        0.3144051730632782, 0.008280981332063675, 0.05498645454645157, -0.08185850828886032,
        -0.1242852434515953, -0.23527762293815613, 0.23600199818611145, -0.03894412890076637,
        -0.13850702345371246, 0.20981138944625854, 0.00026733166305348277, 0.7500750422477722,
        -0.06452958285808563, 0.2295641452074051, 2.07030987739563, -0.1849593073129654,
        0.013457045890390873, -0.15871085226535797, 0.06869052350521088, 0.35228797793388367,
        0.4252832233905792, -0.08520220965147018, -0.28822314739227295, -0.12284047901630402,
        0.19887325167655945, -0.2581653892993927, 0.1581815630197525, 0.35370180010795593
      ],
      [
        -0.031175626441836357, -0.04411816596984863, -0.08688622713088989, 0.0714249536395073,
        -0.07286112755537033, 0.02941397950053215, 0.00497237965464592, 0.07676282525062561,
        0.036818210035562515, -0.02698373980820179, -0.0283941850066185, 0.04699866846203804,
        -0.08595143258571625, 0.07306285947561264, 0.04089362546801567, -0.014213173650205135,
        0.05420262739062309, -0.02687114104628563, 0.005494866520166397, -0.08878578245639801,
        -0.025114456191658974, -0.0595269501209259, -0.11630156636238098, 0.029091330245137215,
        0.06743135303258896, -0.07738828659057617, -0.042561739683151245, -0.008122178725898266,
        0.005695406813174486, 0.06222676858305931, -0.04070796072483063, -0.012608997523784637,
        -0.03269364312291145, 0.04840491712093353, -0.033777832984924316, 0.053260330110788345,
        0.05683230608701706, -0.1108778715133667, 0.034320589154958725, -0.084380142390728,
        -0.053029026836156845, -0.04904710128903389, -0.03478920832276344, -0.028540151193737984,
        0.04885182902216911, 0.031622514128685, 0.039766278117895126, -0.03427755832672119,
        0.04194464161992073, -0.10705538094043732, -0.08538051694631577, 0.04204998165369034,
        -0.06178857758641243, 0.08188698440790176, -0.09122835844755173, 0.004253118298947811,
        -0.07127153128385544, -0.05211217328906059, -0.02379786968231201, -0.04070553928613663,
        0.05538830906152725, -0.010177136398851871, 0.04725128784775734, -0.031632404774427414,
        0.0433821827173233, -0.059042904525995255, -0.03684398531913757, -0.004181175958365202,
        -0.08708836138248444, 0.014869840815663338, -0.06759434193372726, -0.10582048445940018,
        -0.07882678508758545, 0.058624185621738434, 0.002653414849191904, 0.08561452478170395,
        -0.03061385080218315, 0.044659338891506195, -0.04288048669695854, -0.057460471987724304,
        -0.08032488822937012, 0.01776399277150631, 0.047123488038778305, 0.05468984320759773,
        0.04631390422582626, -0.10154838114976883, -0.010290139354765415, 0.033054158091545105,
        0.07029210776090622, -0.03384573012590408, 0.046787016093730927, 0.04518524557352066,
        0.0023286156356334686, -0.01253107562661171, 0.04491119459271431, -0.06544029712677002,
        -0.0396682545542717, 0.041739001870155334, -0.0182486679404974, 0.04436979815363884,
        0.032680559903383255, 0.07507029920816422, -0.04299599677324295, 0.0008164483588188887,
        -0.04316355288028717, -0.04382438212633133, -0.0014829145511612296, 0.02647641859948635,
        -0.0018456331454217434, -0.07238069921731949, 0.05836779251694679, -0.017766764387488365,
        0.041855622082948685, 0.008006837218999863, 0.0772806704044342, 0.029896287247538567,
        0.052331674844026566, -0.059168051928281784, -0.09226123988628387, 0.012869521044194698,
        0.005290542263537645, 0.05582590401172638, -0.009730465710163116, -0.03878181055188179,
        -0.02236982248723507, -4.561778769129887e-5, -0.03782351315021515, 0.0431450717151165
      ],
      [
        0.09014157950878143, 0.006567217875272036, 0.04685920849442482, -0.03665149584412575,
        0.046641502529382706, -0.03789057582616806, -0.03792490437626839, -0.012058751657605171,
        0.07607193291187286, 0.014001396484673023, -0.09992177784442902, -0.02589762583374977,
        -0.04555630683898926, 0.028179297223687172, 0.0020314091816544533, -0.08906286209821701,
        -0.06310158967971802, 0.06389600783586502, -0.04675040766596794, 0.013191957026720047,
        -0.01230685692280531, -0.03212347999215126, -0.024692118167877197, 0.0037612018641084433,
        -0.05761490762233734, -0.05669818073511124, -0.08522587269544601, -0.10371266305446625,
        -0.07249264419078827, -0.021937565878033638, -0.061039939522743225, 0.0019507318502292037,
        -0.06823092699050903, 0.0012050109216943383, 0.03110915794968605, -0.07564728707075119,
        -0.046052973717451096, 0.08147011697292328, 0.06565634161233902, 0.08567722886800766,
