{
  "model_type": "NeuralController",
  "input_features": 7,
  "output_classes": 6,
  "model_state_dict": {
    "shared_layers.0.weight": [
      [
        -0.2282230108976364, -0.41730883717536926, -0.3962208926677704, 0.059284061193466187,
        0.01765909418463707, 0.03379298374056816, -0.5190305709838867
      ],
      [
        6.425698280334473, -0.1938392072916031, -1.353283166885376, -0.24355800449848175,
        0.12105738371610641, 0.231723353266716, 0.3600901961326599
      ],
      [
        0.08431252092123032, -0.1600455492734909, 0.31050407886505127, -0.17428350448608398,
        -0.11549533158540726, -0.2993071377277374, -0.007553194649517536
      ],
      [
        -0.4939436614513397, -0.8624314069747925, 0.08502406626939774, 0.22214162349700928,
        0.030369123443961143, -0.16979679465293884, -0.297746866941452
      ],
      [
        2.104255199432373, 0.1633729636669159, -1.171507477760315, -0.5431292653083801,
        -0.08907569944858551, 0.2800579071044922, -0.14831070601940155
      ],
      [
        -0.5935473442077637, -0.2359728068113327, 0.017826106399297714, 0.08872649818658829,
        -0.00034961701021529734, -0.23681902885437012, -0.24418842792510986
      ],
      [
        -0.019654439762234688, 0.36467885971069336, -0.21276794373989105, -0.09361471235752106,
        0.20436514914035797, -0.2580796480178833, 0.07412365078926086
      ],
      [
        1.5647900104522705, 0.20547907054424286, -1.1926558017730713, -0.3429986834526062,
        -0.2291019856929779, -0.15467692911624908, 0.3625049889087677
      ],
      [
        0.09529794752597809, 0.05975492298603058, -0.23125319182872772, 0.2359497845172882,
        -0.2996167838573456, -0.29106593132019043, 0.12977470457553864
      ],
      [
        -0.11306370049715042, 0.04383295774459839, 0.24253425002098083, -0.20344218611717224,
        0.27019616961479187, -0.4015667140483856, -0.12904559075832367
      ],
      [
        -0.010165371932089329, -0.2940509617328644, -0.17536108195781708, 0.12026513367891312,
        0.2788330316543579, -0.1939719170331955, -0.06775707006454468
      ],
      [
        -0.072159044444561, -0.26261165738105774, 0.17539915442466736, -0.23480531573295593,
        0.16561444103717804, 0.10629943013191223, -0.38540586829185486
      ],
      [
        -0.36959588527679443, -0.16702628135681152, -0.1657204031944275, -0.0762702077627182,
        0.14793771505355835, -0.1576261669397354, 0.3733746111392975
      ],
      [
        -2.2805705070495605, 0.10741166025400162, 0.13165222108364105, 0.6870009899139404,
        0.06568694859743118, 0.10296330600976944, 0.1496298611164093
      ],
      [
        -2.5793204307556152, -0.0548953041434288, 0.20422808825969696, 0.491428405046463,
        0.11104556173086166, -0.2093188762664795, 0.39921465516090393
      ],
      [
        -0.23771633207798004, -0.09091614186763763, 0.07909604907035828, -0.36198312044143677,
        0.06323592364788055, -0.03520898520946503, -0.6133902668952942
      ],
      [
        0.006614619866013527, -0.16024306416511536, -0.09810355305671692, -0.14292441308498383,
        -0.17918016016483307, -0.01665383204817772, -0.03784029558300972
      ],
      [
        -0.2787417471408844, 0.19257205724716187, 0.12149437516927719, -0.2578778564929962,
        -0.20891034603118896, -0.269241064786911, 0.3435445725917816
      ],
      [
        0.06441398710012436, 0.0848785936832428, 0.2998476028442383, -0.08622836321592331,
        0.25172144174575806, -0.31446582078933716, -0.08768915385007858
      ],
      [
        0.48009324073791504, -1.7883069515228271, 0.3041875958442688, -0.22756582498550415,
        0.02108040452003479, 0.10340367257595062, 0.11357814073562622
      ],
      [
        0.3376734256744385, 0.13695965707302094, -0.03634585067629814, 0.007250687573105097,
        0.267134428024292, -0.3441089689731598, -0.2958349883556366
      ],
      [
        0.5852620601654053, -1.507714033126831, 0.15176545083522797, -0.03163755312561989,
        -0.08456959575414658, 0.11975982785224915, 0.1394069939851761
      ],
      [
        -0.9598650932312012, -0.0957932323217392, 0.3349066376686096, 0.34378582239151,
        0.17392727732658386, -0.01670023798942566, -0.04591765254735947
      ],
      [
        -0.7739580273628235, -0.3090149760246277, -0.024924561381340027, 0.18516026437282562,
        -0.06349005550146103, -0.1022544577717781, -0.22182434797286987
      ],
      [
        0.05043911933898926, -0.31911975145339966, -0.04218250513076782, -0.2742955684661865,
        0.2246067374944687, 0.16310647130012512, 0.15873496234416962
      ],
      [
        -0.29819488525390625, -0.21504618227481842, -0.0380423329770565, -0.11197760701179504,
        -0.12596142292022705, -0.054367948323488235, -0.01329237874597311
      ],
      [
        -0.172942116856575, -0.2156079113483429, 0.23290471732616425, 0.07377621531486511,
        -0.23973384499549866, -0.33378443121910095, 0.1728270947933197
      ],
      [
        0.03742653876543045, 0.10958390682935715, -0.29393407702445984, -0.0525268092751503,
        -0.3719315826892853, 0.14381961524486542, -0.1967260241508484
      ],
      [
        0.2664697468280792, -1.352285385131836, -0.08506496250629425, 0.37630710005760193,
        0.24311192333698273, 0.08443313837051392, -0.1135803684592247
      ],
      [
        0.007279118523001671, -0.3575456738471985, -0.3310677707195282, 0.02404063753783703,
        -0.19540874660015106, -0.24341094493865967, 0.06520464271306992
      ],
      [
        -0.2388741672039032, 0.34380072355270386, 0.041920602321624756, -0.13130848109722137,
        0.15961456298828125, -0.2695847451686859, 0.28302502632141113
      ],
      [
        0.22237618267536163, -0.058487024158239365, 0.24399681389331818, -0.24692456424236298,
        -0.2290673553943634, -0.047123365104198456, -0.15318350493907928
      ],
      [
        0.261814147233963, 0.2988653779029846, 0.027276892215013504, 0.026509977877140045,
        -0.2707219421863556, -0.20565472543239594, -0.106702521443367
      ],
      [
        -1.6964149475097656, 0.1661517322063446, 0.40699899196624756, 0.5012488961219788,
        0.2651509642601013, -0.34799280762672424, -0.3311094045639038
      ],
      [
        -1.3753283023834229, -0.2984175980091095, -0.10042005032300949, 0.47349828481674194,
        -0.24180462956428528, -0.2806408107280731, 0.3048177659511566
      ],
      [
        3.9729201793670654, -0.08843858540058136, -1.45808744430542, -0.6546249985694885,
        0.0607922226190567, 0.2478114664554596, 0.3421861231327057
      ],
      [
        5.104562282562256, 0.19523949921131134, -1.3172060251235962, -0.7284395694732666,
        0.15761366486549377, 0.3538658916950226, 0.4730793535709381
      ],
      [
        0.040060728788375854, -0.11653051525354385, -0.18919382989406586, 0.19373923540115356,
        0.07036194950342178, 0.21492347121238708, -0.1650427281856537
      ],
      [
        1.0909744501113892, 0.368833065032959, 0.6796725392341614, 0.10417093336582184,
        -0.30456921458244324, -0.393919438123703, -0.45038002729415894
      ],
      [
        0.24313104152679443, 0.2417955994606018, -0.27031418681144714, 0.055135782808065414,
        0.0727391466498375, -0.37340015172958374, 0.12655805051326752
      ],
      [
        0.28496748208999634, -0.24919578433036804, 0.01901138760149479, -0.24375386536121368,
        -0.3665858507156372, 0.07379203289747238, -0.327729731798172
      ],
      [
        -1.5156015157699585, -0.0021992004476487637, -0.2454919070005417, 0.4086091220378876,
        -0.0092926025390625, -0.3087475001811981, 0.19338548183441162
      ],
      [
        -1.221325397491455, -0.14149855077266693, -0.14572414755821228, 0.24669963121414185,
        0.10894712060689926, -0.11049722135066986, -0.4873484969139099
      ],
      [
        0.23627692461013794, 0.11006275564432144, -0.4363800585269928, -0.38662007451057434,
        -0.1354309469461441, 0.2072596400976181, -0.3476075232028961
      ],
      [
        -2.4154560565948486, -0.5736702680587769, -0.046153631061315536, 0.519977867603302,
        0.07973749190568924, 0.22623032331466675, 2.396045601926744e-7
      ],
      [
        -0.5051392912864685, -0.05102783441543579, 0.008237290196120739, -0.003136626910418272,
        0.003096349537372589, -0.0484774112701416, 0.04928821697831154
      ],
      [
        4.671255588531494, 0.40148237347602844, -1.4392677545547485, -0.6207238435745239,
        0.20678775012493134, 0.16855551302433014, 0.45182710886001587
      ],
      [
        -1.4644280672073364, -0.20099084079265594, 0.5615845322608948, 0.8711707592010498,
        -0.14693178236484528, -0.15584999322891235, -0.036445945501327515
      ],
      [
        -0.166703000664711, -0.1101955994963646, -0.32978466153144836, -0.31884637475013733,
        -0.0021356057841330767, -0.06148857623338699, 0.3323715925216675
      ],
      [
        -0.7006059288978577, -0.45568591356277466, 0.4674888551235199, 0.1400568038225174,
        -0.01429255772382021, 0.044546425342559814, -0.16787075996398926
      ],
      [
        3.569775342941284, -0.2647486627101898, -1.063248872756958, -0.6680078506469727,
        0.294418066740036, -0.04066792130470276, 0.2861228585243225
      ],
      [
        -2.2105600833892822, -0.9107480049133301, -0.07052856683731079, 0.4968940019607544,
        0.006678170058876276, -0.031177477911114693, -0.21569015085697174
      ],
      [
        -0.10307630151510239, 0.06128149479627609, -0.011276744306087494, -0.36996766924858093,
        -0.19495831429958344, -0.1668434888124466, -0.04909662902355194
      ],
      [
        -2.1828606128692627, -0.04749620705842972, 0.1958315372467041, 0.3129824101924896,
        -0.2158210575580597, 0.2081586867570877, 0.14222504198551178
      ],
      [
        3.530223846435547, -0.08851979672908783, -0.8004782199859619, -0.7512299418449402,
        0.24957455694675446, -0.12289658933877945, -0.11055009812116623
      ],
      [
        -1.082376480102539, -0.8076683878898621, -0.24469690024852753, 0.21311700344085693,
        0.08012253046035767, -0.4212481379508972, 0.025807060301303864
      ],
      [
        1.6416313648223877, 0.15857166051864624, 0.9453305602073669, 0.08999370783567429,
        -0.30856990814208984, -0.3417856693267822, 0.025918884202837944
      ],
      [
        -0.35987740755081177, -0.1512608826160431, 0.27582043409347534, -0.26576802134513855,
        -0.36491888761520386, -0.325600802898407, 0.18052032589912415
      ],
      [
        0.16823896765708923, 0.4458065330982208, 0.5082675814628601, -0.21440166234970093,
        -0.3580150008201599, -0.43329161405563354, -0.5851554274559021
      ],
      [
        -0.2310846894979477, -0.1494443267583847, -0.27224671840667725, 0.35096800327301025,
        -0.058810289949178696, -0.10805854946374893, 0.12387140095233917
      ],
      [
        1.8197729587554932, -0.2826424837112427, -1.1841497421264648, -0.7755935788154602,
        0.15858450531959534, -0.140256866812706, 0.12435279786586761
      ],
      [
        0.28871646523475647, 0.008677499368786812, -0.05023965239524841, -0.058738403022289276,
        0.3654101490974426, -0.2898032069206238, 0.10187370330095291
      ],
      [
        0.09532255679368973, -0.23152460157871246, -0.3513355851173401, 0.1384010761976242,
        -0.064686119556427, 0.036587029695510864, -0.13780654966831207
      ],
      [
        -0.013163714669644833, 0.09922003000974655, -0.17865848541259766, -0.06039075925946236,
        -0.3508947193622589, 0.10243875533342361, 0.2875882089138031
      ],
      [
        0.3674693703651428, -0.23156651854515076, -0.20360571146011353, 0.1584068238735199,
        -0.19195061922073364, -0.24682103097438812, 0.32663631439208984
      ],
      [
        -2.1615426540374756, 0.10753520578145981, -0.05112336948513985, 0.502964973449707,
        -0.07593771070241928, 0.2066875696182251, -0.2749892473220825
      ],
      [
        0.2606250047683716, -0.26038819551467896, -0.12266247719526291, -0.13196082413196564,
        -0.22890916466712952, -0.1295546442270279, -0.20490524172782898
      ],
      [
        -2.4054148197174072, 0.5020654797554016, 0.33631327748298645, 0.19967864453792572,
        -0.09737738966941833, -0.2948039174079895, 0.37836208939552307
      ],
      [
        0.38066205382347107, -0.315050333738327, -0.5048930644989014, -0.4360642731189728,
        0.0212072916328907, 0.12197167426347733, -0.059899792075157166
      ],
      [
        0.3435189723968506, -1.1821682453155518, -0.0566360168159008, 0.49426543712615967,
        -0.08093159645795822, 0.011378354392945766, 0.2569023668766022
      ],
      [
        -2.460871696472168, 0.17680492997169495, 0.291187584400177, 0.7065759897232056,
        -0.23627346754074097, 0.03296992555260658, -0.1481090784072876
      ],
      [
        0.2963514029979706, -0.08561545610427856, -0.3034851849079132, 0.1613123118877411,
        -0.30256012082099915, -0.27189022302627563, 0.35633307695388794
      ],
      [
        -0.22784419357776642, 0.12192624807357788, -0.3164924681186676, -0.06567998975515366,
        0.3066839873790741, -0.18696828186511993, -0.2525629699230194
      ],
      [
        -0.3963955044746399, 0.10982855409383774, -0.01844203658401966, 0.08164507150650024,
        -0.21657316386699677, 0.10401630401611328, 0.27967485785484314
      ],
      [
        4.129086494445801, 0.30147063732147217, -1.217284083366394, -0.7155547142028809,
        0.10033399611711502, 0.21784096956253052, 0.059048861265182495
      ],
      [
        0.21458882093429565, 0.21658042073249817, -0.3189004361629486, -0.2521987855434418,
        -0.28633207082748413, -0.028734572231769562, -0.08453232795000076
      ],
      [
        -0.16595987975597382, -0.03370119258761406, 0.009724490344524384, -0.05490914732217789,
        -0.1544746607542038, -0.37621361017227173, 0.2800852656364441
      ],
      [
        0.3769356608390808, -1.166977882385254, 0.2977438271045685, 0.11785812675952911,
        0.1731840968132019, 0.2069791853427887, -0.46720993518829346
      ],
      [
        -2.440983295440674, -0.415199339389801, 0.07449579983949661, 0.40662047266960144,
        0.25008639693260193, 0.04682011157274246, -0.11280779540538788
      ],
      [
        -1.147172212600708, -0.40087831020355225, 0.502923309803009, 0.8905789852142334,
        -0.12808768451213837, -0.03767631947994232, 0.21747644245624542
      ],
      [
        0.37517938017845154, -0.31255435943603516, 0.1441022902727127, -0.009948918595910072,
        -0.23830337822437286, 0.10486172139644623, -0.23050931096076965
      ],
      [
        -1.7041071653366089, -0.30835309624671936, 0.1471562534570694, 0.2176569551229477,
        -0.23366740345954895, -0.07733151316642761, -0.039069369435310364
      ],
      [
        -2.7880101203918457, -0.25356799364089966, 0.07180730998516083, 0.28681740164756775,
        -0.2710469365119934, 0.06568176299333572, -0.04566529020667076
      ],
      [
        -0.1605350375175476, -0.35900893807411194, -0.3139278292655945, 0.19308894872665405,
        -0.3133213222026825, -0.37188565731048584, 0.01463028322905302
      ],
      [
        0.8441964387893677, -0.9977594017982483, -0.24260054528713226, 0.12384394556283951,
        0.16569122672080994, -0.05539235845208168, -0.28964829444885254
      ],
      [
        0.09891041368246078, -0.9704497456550598, -0.21584804356098175, 0.1991259604692459,
        -0.11751951277256012, -0.1312543898820877, -0.2799977958202362
      ],
      [
        0.011761466972529888, -0.19203010201454163, -0.1092907264828682, 0.06900915503501892,
        0.056715838611125946, -0.29794737696647644, 0.20747916400432587
      ],
      [
        0.2068088948726654, 0.036753252148628235, -0.22848603129386902, 0.11914754658937454,
        -0.08710494637489319, 0.014775726944208145, 0.21309302747249603
      ],
      [
        -1.7563356161117554, 0.21392488479614258, 0.008642188273370266, 0.056301165372133255,
        -0.07704859972000122, -0.0820639356970787, -0.24538730084896088
      ],
      [
        -2.077583074569702, -0.21397213637828827, -0.1522253304719925, 0.6448131203651428,
        -0.1101820096373558, -0.08613443374633789, -0.3898654282093048
      ],
      [
        -1.5289719104766846, -0.29054340720176697, 0.5431563854217529, 0.9254927039146423,
        0.025052683427929878, -0.18539012968540192, 0.13871259987354279
      ],
      [
        -2.268235683441162, -0.23978319764137268, 0.002669605426490307, 0.186219722032547,
        0.2768135368824005, 0.22025936841964722, 0.0021677911281585693
      ],
      [
        -0.316640704870224, -0.07990533858537674, -0.6146441698074341, -0.646672248840332,
        0.08642159402370453, 0.1129586324095726, -0.08185549825429916
      ],
      [
        0.10382567346096039, 0.005487208254635334, 0.327862024307251, -0.3468880355358124,
        -0.0009269118891097605, 0.3154733180999756, 0.23731450736522675
      ],
      [
        -2.3750646114349365, 0.2079320102930069, -0.08520755171775818, 0.5816490650177002,
        -0.11615502089262009, -0.32334601879119873, -0.12904392182826996
      ],
      [
        0.3308005928993225, -0.01847214810550213, 0.08600001037120819, -0.3262602686882019,
        -0.2962232828140259, 0.06865586340427399, 0.2276107519865036
      ],
      [
        -0.24569950997829437, -0.020714493468403816, -0.0265246219933033, -0.15051239728927612,
        -0.3373488783836365, 0.29063645005226135, -0.19180986285209656
      ],
      [
        0.07945883274078369, -0.3157268166542053, -0.1947985738515854, 0.06449522078037262,
        0.31753018498420715, -0.0968620553612709, -0.23609118163585663
      ],
      [
        -0.041656505316495895, -0.9484208822250366, -0.047885071486234665, 0.4647783041000366,
        0.01854093186557293, 0.12016785889863968, -0.0895511731505394
      ],
      [
        -0.060938071459531784, -0.4699938893318176, -0.07521238178014755, 0.11482344567775726,
        0.12577523291110992, 0.06786013394594193, -0.06357720494270325
      ],
      [
        1.424185872077942, 0.12920786440372467, -0.7967267036437988, -0.5985528230667114,
        0.11467255651950836, -0.18162764608860016, -0.06078644096851349
      ],
      [
        -0.9073100686073303, 0.013425078243017197, -0.12806959450244904, 0.24972793459892273,
        -0.3328489065170288, 0.13404172658920288, 0.31785041093826294
      ],
      [
        -0.009227455593645573, 0.08161907643079758, -0.27636685967445374, 0.27160558104515076,
        -0.07806216925382614, -0.019369464367628098, 0.15067492425441742
      ],
      [
        5.1112494468688965, -0.21609888970851898, -1.1473031044006348, -0.7637502551078796,
        -0.02307961881160736, 0.14251841604709625, 0.014499424956738949
      ],
      [
        -0.1275998055934906, 0.002497727982699871, 0.2180067002773285, 0.04452899098396301,
        -0.3427881598472595, 0.22501620650291443, 0.13863463699817657
      ],
      [
        -0.11257149279117584, -0.08974487334489822, -0.11348889768123627, -0.3736068904399872,
        -0.1758962720632553, -0.2801453471183777, -0.13379323482513428
      ],
      [
        -0.018375592306256294, 0.10655469447374344, 0.0015814866637811065, 0.03180871531367302,
        -0.3575461804866791, -0.011492431163787842, -0.23093539476394653
      ],
      [
        0.3145661950111389, -0.0625673308968544, 0.005832252092659473, -0.028128692880272865,
        -0.2236570566892624, -0.25819131731987, 0.08657494187355042
      ],
      [
        -1.902178406715393, 0.21414577960968018, -0.33406662940979004, 0.5352806448936462,
        0.2331956923007965, -0.007207503076642752, 0.08655133843421936
      ],
      [
        -0.12448452413082123, -0.40387728810310364, -0.013090111315250397, 0.06249893084168434,
        -0.05339991673827171, -0.20502351224422455, 0.1726672500371933
      ],
      [
        0.5617671012878418, -0.27826425433158875, 0.08889973163604736, -0.2639508843421936,
        0.08087942749261856, -0.09982168674468994, -0.16558599472045898
      ],
      [
        -0.3534574508666992, -0.11448997259140015, -0.26720601320266724, -0.2347741276025772,
        -0.044700611382722855, 0.05385423079133034, -0.3150753080844879
      ],
      [
        -0.24806763231754303, -0.18323476612567902, 0.23062044382095337, -0.38129180669784546,
        -0.14115764200687408, -0.06442251056432724, 0.09168562293052673
      ],
      [
        -0.7823032736778259, -0.15956725180149078, 0.12055706977844238, -0.12336169183254242,
        0.055081482976675034, -0.017988312989473343, 0.11237174272537231
      ],
      [
        0.24243663251399994, 0.1408459097146988, 0.08690661191940308, -0.16839918494224548,
        -0.04943840205669403, -0.10812056064605713, 0.36252638697624207
      ],
      [
        -0.282626211643219, 0.10447505861520767, 0.17760616540908813, -0.21931983530521393,
        0.14019547402858734, -0.2909703552722931, -0.25529149174690247
      ],
      [
        0.18563461303710938, -0.5996267199516296, 0.060871001332998276, -0.3606266379356384,
        0.12732018530368805, 0.13638924062252045, 0.06786604970693588
      ],
      [
        -0.20081840455532074, -0.15664522349834442, 0.6362853050231934, 0.10428740829229355,
        -0.016441715881228447, -0.05449848249554634, 0.01051305327564478
      ],
      [
        -0.13166199624538422, -0.2597559988498688, -0.35256972908973694, 0.20059680938720703,
        -0.12681157886981964, -0.21790726482868195, 0.03740301728248596
      ],
      [
        -2.585211992263794, -0.15994404256343842, -0.16649408638477325, 0.4896281659603119,
        -0.1797868013381958, -0.060644395649433136, -0.18731528520584106
      ],
      [
        0.14411911368370056, 0.19147267937660217, -0.03457354009151459, -0.1885698437690735,
        0.0910876989364624, -0.216177299618721, 0.08065181225538254
      ],
      [
        0.31826213002204895, -0.28152337670326233, 0.17437654733657837, -0.20525971055030823,
        -0.1442844569683075, -0.23780284821987152, 0.27301764488220215
      ],
      [
        0.3746480941772461, -0.4063592255115509, 0.09167783707380295, 0.2861207127571106,
        -0.13924729824066162, 0.1299801468849182, -0.32267406582832336
      ],
      [
        -0.2775827944278717, -0.31286606192588806, -0.0247099120169878, 0.3603575825691223,
        -0.3714527487754822, -0.29206812381744385, 0.01611269824206829
      ],
      [
        0.20175838470458984, 0.22453247010707855, 0.23985986411571503, 0.008828624151647091,
        -0.2469174861907959, -0.30133557319641113, 0.20489704608917236
      ],
      [
        -0.033146001398563385, -0.3024199306964874, 0.21377860009670258, -0.3373483121395111,
        0.2896188199520111, -0.2663274109363556, 0.044090766459703445
      ],
      [
        -1.109391450881958, -0.3223862051963806, 0.2017209827899933, 0.29383811354637146,
        -0.017440548166632652, -0.24470514059066772, 0.06016501784324646
      ],
      [
        0.24808147549629211, -0.11335752159357071, 0.010553344152867794, -0.09426422417163849,
        -0.07446439564228058, -0.008440160192549229, -0.05145293101668358
      ]
    ],
    "shared_layers.0.bias": [
      -0.003983478993177414, -0.06110124662518501, 0.2437548190355301, 0.22457502782344818,
      -0.16100820899009705, 0.14384956657886505, -0.3018631339073181, 0.24444369971752167,
      0.23131808638572693, 0.031930066645145416, -0.18652847409248352, -0.1775793731212616,
      -0.20458020269870758, -0.1314198523759842, -0.06743011623620987, 0.10674060881137848,
      0.15252400934696198, -0.22022074460983276, -0.29179489612579346, 0.10328315198421478,
      -0.26521486043930054, -0.024993205443024635, -0.1826406717300415, 0.03847186267375946,
      -0.3271327018737793, 0.19842354953289032, 0.10648291558027267, 0.18055523931980133,
      -0.3600162863731384, -0.14648760855197906, -0.23679113388061523, 0.27331864833831787,
      0.08562455326318741, -0.17197878658771515, 0.3140958845615387, 0.34443801641464233,
      -0.12200342863798141, -0.30092093348503113, 0.13918304443359375, -0.0947888046503067,
      -0.31655874848365784, 0.11607474833726883, -0.05210044980049133, -0.02002410776913166,
      -0.3108421266078949, -0.006122541148215532, -0.10759437084197998, 0.19937965273857117,
      -0.19838795065879822, -0.26972827315330505, -0.12371160089969635, 0.08511976152658463,
      -0.20308543741703033, -0.06286419928073883, 0.05126405879855156, 0.24584276974201202,
      0.19829361140727997, -0.29903802275657654, 0.11740903556346893, 0.03296738862991333,
      0.1465950310230255, -0.10995586216449738, 0.018405968323349953, 0.15349139273166656,
      -0.36883458495140076, -0.12223886698484421, -0.13006770610809326, 0.026913436129689217,
      -0.02112671360373497, 0.2271626889705658, -0.010608324781060219, -0.2837226986885071,
      -0.23513007164001465, -0.05452048406004906, 0.03454712778329849, 0.04989422857761383,
      -0.3403286337852478, -0.08267427235841751, -0.31742778420448303, 0.10763605684041977,
      -0.3636835515499115, 0.2733534574508667, 0.17271588742733002, -0.233713299036026,
      0.04183385148644447, 0.21853116154670715, -0.3339040279388428, -0.13456672430038452,
      0.20047132670879364, 0.06011704355478287, 0.04733523726463318, -0.45883432030677795,
      -0.02694147638976574, -0.3019482493400574, 0.15700165927410126, -0.18021173775196075,
      -0.06945868581533432, -0.326357364654541, -0.017805568873882294, -0.2349441796541214,
      0.07034803181886673, 0.06203758344054222, -0.0567474439740181, 0.34780117869377136,
      -0.2178558111190796, 0.10702922940254211, 0.26413851976394653, 0.3519030809402466,
      -0.2067500352859497, 0.16492345929145813, 0.08174192160367966, -0.33359065651893616,
      0.26900315284729004, -0.026044601574540138, 0.024483317509293556, 0.10419085621833801,
      -0.18072126805782318, -0.21756967902183533, -0.0010933050652965903, 0.17570576071739197,
      -0.02783658541738987, -0.017182528972625732, 0.1482965499162674, 0.0674067959189415,
      -0.19817405939102173, 0.01687406748533249, -0.07793232798576355, 0.09282451868057251
    ],
    "shared_layers.2.weight": [
      [
        0.29360252618789673, -0.16483719646930695, 0.039921365678310394, 0.007119906600564718,
        -0.38744255900382996, -0.04411419481039047, 0.056432414799928665, -0.47601795196533203,
        0.07117564976215363, 0.026914631947875023, 0.03711545094847679, 0.05975785851478577,
        -0.034280527383089066, -0.05859936773777008, -0.12913553416728973, 0.11862140148878098,
        0.018152447417378426, -0.0048333266749978065, 0.08421634882688522, -0.26086023449897766,
        -0.025812268257141113, -0.24956455826759338, -0.03223225474357605, -0.1785764992237091,
        0.03030502051115036, 0.0877435952425003, -0.008532218635082245, 0.05182129889726639,
        -0.3018529713153839, 0.042277827858924866, -0.06512787938117981, -0.007210229989141226,
        0.0715443342924118, -0.12026716768741608, 0.016868257895112038, -0.3593140244483948,
        -0.49686792492866516, 0.08351579308509827, -0.37146440148353577, 0.08054380863904953,
        0.07323507219552994, -0.09039740264415741, -0.025355687364935875, 0.042065273970365524,
        0.04004552215337753, 0.09531215578317642, -0.8375449180603027, -0.05742707848548889,
        0.0582062304019928, -0.46777018904685974, -0.08682940155267715, -0.012350896373391151,
        -0.04022425785660744, -0.10153784602880478, -0.008993703871965408, -0.1381996124982834,
        -0.685521125793457, -0.06628352403640747, -0.15786443650722504, 0.027709662914276123,
        -0.003338088747113943, 0.1523093581199646, 0.13448525965213776, 0.06278092414140701,
        0.07432514429092407, -0.025750789791345596, 0.006021309178322554, -0.31885936856269836,
        -0.00490755308419466, 0.5939525365829468, -0.1734413206577301, 0.06616704165935516,
        0.03184366226196289, -0.035795241594314575, -0.6582035422325134, 0.01768193021416664,
        -0.06373637169599533, 0.38174960017204285, -0.015302106738090515, 0.11762551218271255,
        0.08047229051589966, 0.16362598538398743, -0.01741412840783596, 0.06969558447599411,
        0.06931161880493164, -0.12359681725502014, 0.06868482381105423, -0.02583531104028225,
        0.0726756677031517, -0.09023533761501312, 0.10560362040996552, 0.04869497939944267,
        -0.02999822050333023, 0.03688504546880722, -0.2469814419746399, 0.06570537388324738,
        0.039137985557317734, 0.028914066031575203, 0.3959304988384247, 0.0031039095483720303,
        -0.4243333637714386, -0.017429839819669724, 0.052414193749427795, -0.318271666765213,
        -0.040569745004177094, 0.0019343085587024689, -0.03556490316987038, -0.07220606505870819,
        0.015865694731473923, 0.18708379566669464, 0.17331333458423615, 0.011779917404055595,
        0.18895064294338226, 0.12972258031368256, 0.16135095059871674, 0.09544564038515091,
        0.10883665829896927, -0.631966233253479, -0.03839866444468498, -0.12451068311929703,
        0.03756246715784073, -0.06356745958328247, 0.14018356800079346, -0.060311898589134216,
        0.05040298402309418, 0.05325815826654434, -0.15283146500587463, 0.04146125167608261
      ],
      [
        -0.07352133095264435, -0.6043092012405396, -0.08508966863155365, 0.15475721657276154,
        -0.2408425360918045, 0.022914182394742966, -0.05344727262854576, -0.2990686893463135,
        -0.0006295896018855274, 0.039449092000722885, 0.08345596492290497, 0.03178268298506737,
        -0.07116780430078506, 0.19987201690673828, 0.22622595727443695, -0.06596317887306213,
        -0.08014079928398132, 0.011638788506388664, -0.008667520247399807, -1.0353621244430542,
        0.02069433405995369, -0.5165385007858276, 0.0032478116918355227, 0.1071685180068016,
        -0.07603417336940765, -0.06280877441167831, -0.03555696830153465, -0.01326188538223505,
        -0.512152910232544, 0.06312578916549683, -0.030913585796952248, 0.019292982295155525,
        0.0063451132737100124, 0.22543109953403473, 0.1697840690612793, -0.7405862808227539,
        -0.5127667784690857, -0.11593201011419296, -0.5151190757751465, -0.0394110344350338,
        -0.05592770874500275, 0.1313260942697525, 0.2865138351917267, -0.0981094241142273,
        0.2728026807308197, -0.010304473340511322, -0.40844935178756714, 0.17197322845458984,
        0.06774380803108215, 0.027905084192752838, -0.534652829170227, 0.2956888675689697,
        0.0545840859413147, 0.16463486850261688, -0.5218098163604736, 0.19211991131305695,
        -0.3817528486251831, 0.06229708716273308, -0.1887408345937729, 0.14896948635578156,
        -0.3075917065143585, -0.11317741870880127, -0.04951292648911476, 0.03179064020514488,
        -0.06280310451984406, 0.0639938935637474, -0.06656558066606522, -0.00021404909784905612,
        -0.20318831503391266, 0.16219761967658997, 0.17998835444450378, -0.08700528740882874,
        -0.04488262161612511, 0.1244564801454544, -0.41651850938796997, -0.05020773783326149,
        -0.017045849934220314, 0.021869122982025146, 0.1433776319026947, 0.16452939808368683,
        -0.05797954276204109, 0.0580366849899292, 0.1729668825864792, -0.02316979691386223,
        0.02029256708920002, 0.17390240728855133, 0.08074764162302017, 0.07656804472208023,
        0.043160051107406616, 0.1806313693523407, 0.18117141723632812, 0.059374820441007614,
        -0.08168572187423706, -0.0031656711362302303, 0.3344767689704895, -0.05943863466382027,
        -0.024821974337100983, 0.0863763839006424, -0.0023048510774970055, -0.1365358531475067,
        -0.3041956126689911, 0.12072436511516571, -0.14531119167804718, -0.6277795433998108,
        0.03139399737119675, 0.032618120312690735, 0.12568387389183044, -0.07953724265098572,
        0.23285692930221558, -0.23859728872776031, -0.17883531749248505, -0.06872007995843887,
        -0.10968809574842453, 0.0049051097594201565, -0.03862897679209709, -0.022461922839283943,
        -0.12878623604774475, -0.3853713572025299, -0.00806121714413166, 0.2137269675731659,
        -0.1275346428155899, 0.03439301997423172, -0.1077236533164978, 0.08441764861345291,
        -0.031982261687517166, -0.09263265877962112, 0.005717155057936907, 0.025602035224437714
      ],
      [
        -0.029487282037734985, 0.09017505496740341, -0.011088410392403603, -0.14450271427631378,
        -0.03828730806708336, -0.19381067156791687, -0.06896261870861053, 0.06842648237943649,
        -0.04670413210988045, 0.026410885155200958, -0.07144906371831894, -0.10565933585166931,
        0.018658019602298737, -0.028672518208622932, -0.04276237636804581, -0.06529530882835388,
        -0.05330805107951164, -0.05549151822924614, 0.020230812951922417, 0.05732210725545883,
        -0.06677689403295517, -0.21516527235507965, -0.1178702637553215, -0.01827382482588291,
        0.12049633264541626, -0.13191033899784088, 0.02037252113223076, -0.02042754366993904,
        -0.27893027663230896, 0.04968269541859627, -0.009206736460328102, 0.08693522959947586,
        -0.08553580194711685, -0.08776377141475677, -0.005357659421861172, 0.05396420881152153,
        0.026484008878469467, -0.01331277471035719, -0.02893229015171528, 0.019067391753196716,
        -0.05751528590917587, -0.10942735522985458, -0.028606468811631203, 0.08656272292137146,
        -0.11665242165327072, -0.15768054127693176, -0.012012054212391376, -0.03318651393055916,
        -0.001134730177000165, 0.015562922693789005, -0.05873114615678787, -0.08997868001461029,
        -0.009760767221450806, -0.10864486545324326, 0.07666195929050446, -0.19487115740776062,
        0.0923636257648468, -0.08815563470125198, 0.023432686924934387, -0.07298775017261505,
        -0.03965117782354355, 0.06433139741420746, -0.08095990121364594, -0.0066347885876894,
        -0.012734153307974339, -0.08748405426740646, 0.021888501942157745, -0.053359322249889374,
        0.024040328338742256, -0.16023996472358704, -0.13373713195323944, 0.011061587370932102,
        -0.04996277019381523, -0.10718239098787308, -0.050354234874248505, -0.05816596746444702,
        0.00757632777094841, -0.019176188856363297, -0.03957055136561394, -0.02149904891848564,
        0.0076770903542637825, 0.042227789759635925, -0.017369495704770088, 0.042797088623046875,
        -0.17442917823791504, -0.06349007785320282, 0.024027107283473015, -0.08496985584497452,
        -0.014545555226504803, -0.17303051054477692, -0.07139786332845688, -0.06900221854448318,
        -0.04618019610643387, 0.04290355369448662, -0.06408057361841202, 0.04214802756905556,
        -0.013760176487267017, -0.06295423209667206, -0.061454664915800095, -0.12706071138381958,
        -0.027594778686761856, 0.01722238026559353, -0.1954977959394455, 0.025021834298968315,
        -0.011193802580237389, -0.013833796605467796, -0.1090887114405632, -0.08097638934850693,
        -0.022274456918239594, -0.18100875616073608, -0.0016691680066287518, 0.08418585360050201,
        -0.08649139851331711, -0.053541917353868484, -0.06852614134550095, -0.069504514336586,
        0.036302100867033005, 0.037742868065834045, 0.000176237037521787, -0.07797442376613617,
        0.005723107606172562, 0.02730058878660202, -0.08575902134180069, -0.06410036981105804,
        -0.01216009259223938, 0.039458129554986954, 0.04411415755748749, -0.048740584403276443
      ],
      [
        -0.08473922312259674, 0.07503814250230789, 0.026052631437778473, 0.0284243356436491,
        -0.052709322422742844, -0.035339295864105225, 0.06377628445625305, -0.05768721178174019,
        0.02201024256646633, -0.04459038004279137, -0.08006399869918823, -0.018229113891720772,
        -0.08436156064271927, -0.020470157265663147, 0.037948813289403915, 0.053173404186964035,
        0.07195309549570084, -0.06556115299463272, -0.0011687215883284807, -0.009065313264727592,
        0.08515167981386185, 0.04869760572910309, 0.013507640920579433, 0.015859389677643776,
        0.015938883647322655, -0.09601471573114395, 0.08671965450048447, -0.040497757494449615,
        0.06329263746738434, -0.007767579983919859, 0.08796017616987228, -0.0642630085349083,
        0.03250279650092125, -0.09596357494592667, -0.05188165605068207, -0.08117794990539551,
        -0.014844045974314213, 0.04961727187037468, 0.05937589704990387, -0.04238661006093025,
        0.030083345249295235, 0.06928151100873947, -0.08871623128652573, -0.07073008269071579,
        0.026727676391601562, -0.06480482220649719, -0.07806690037250519, -0.03551199287176132,
        -0.08752427250146866, -0.024905268102884293, 0.05299533158540726, -0.046599969267845154,
        -0.0007676732493564487, -0.030109615996479988, 0.085476353764534, -0.0698426142334938,
        -0.07064252346754074, 0.037980809807777405, -0.033407051116228104, 0.021492818370461464,
        -0.013361330144107342, -0.08083357661962509, -0.037809085100889206, 0.030472634360194206,
        -0.03238031640648842, 0.04983433336019516, -0.06674140691757202, -0.020705003291368484,
        0.06919438391923904, -0.06886814534664154, 0.031869854778051376, -0.03401409834623337,
        0.0168822780251503, -0.014618988148868084, -0.012014401145279408, -0.03431026265025139,
        0.034516360610723495, -0.04831636697053909, 0.016290204599499702, -0.05016249790787697,
        0.07942379266023636, -0.05726659670472145, 0.06431788951158524, -0.0046729156747460365,
        -0.05997641757130623, -0.06781569123268127, 0.07403342425823212, 0.06677325814962387,
        -0.07787906378507614, -0.08534612506628036, 0.06092723086476326, -0.07541117817163467,
        0.03918541967868805, 0.03248370811343193, 0.06063921004533768, -0.052106063812971115,
        0.015006311237812042, -0.02014639414846897, -0.04817550629377365, -0.02676681987941265,
        -0.020894352346658707, -0.0543656125664711, 0.05354269593954086, 0.05737779289484024,
        -0.022434093058109283, 0.0826684832572937, 0.06304055452346802, 0.03461761772632599,
        -0.04789212718605995, -0.07098575681447983, -0.03964666649699211, -0.0035397240426391363,
        -0.07899836450815201, 0.015730394050478935, -0.059194911271333694, -0.00026704242918640375,
        0.037925418466329575, -0.06184836104512215, 0.016565533354878426, -0.01117386668920517,
        0.019487326964735985, -0.08420976996421814, 0.03670043498277664, 0.023109791800379753,
        -0.058671265840530396, 0.07390500605106354, 0.025252507999539375, -0.0301551204174757
      ],
      [
        0.07972580939531326, 0.08280183374881744, 0.008438291028141975, -0.14080767333507538,
        0.031107444316148758, 0.02528250776231289, -0.08291582763195038, 0.09330504387617111,
        -0.02682025171816349, 0.04870936647057533, -0.02315923012793064, 0.035218093544244766,
        -0.08836568146944046, -0.09682963788509369, -0.02529529295861721, 0.029824936762452126,
        -0.06598273664712906, 0.057240381836891174, 0.0023606871254742146, -0.2294851541519165,
        0.0005150134093128145, -0.012187727726995945, -0.005687282886356115, 0.015149790793657303,
        -0.029651295393705368, 0.03411818668246269, -0.06215060502290726, -0.05062147229909897,
        -0.064228355884552, 0.009500162675976753, 0.03502938151359558, 0.06640669703483582,
        0.08363507688045502, -0.14364255964756012, -0.14296182990074158, -0.03954579308629036,
        -0.200692281126976, -0.06707850843667984, -0.146595761179924, -0.013089440762996674,
        0.0470423623919487, -0.1563636213541031, 0.10473356395959854, -0.034480344504117966,
        -0.10930836945772171, 0.006551848724484444, -0.22590859234333038, 0.040020786225795746,
        -0.04746101796627045, -0.2508033215999603, -0.07259593904018402, -0.027073238044977188,
        -0.018605927005410194, -0.17822161316871643, -0.03211354464292526, -0.09971777349710464,
        -0.2494402974843979, -0.06721419841051102, -0.0429794006049633, -0.009998812340199947,
        0.026806170120835304, 0.04655338078737259, 0.12767423689365387, 0.014963730238378048,
        0.061327435076236725, -0.11564136296510696, -0.01874297671020031, -0.1794678121805191,
        -0.06273303180932999, 0.1734667718410492, -0.14292801916599274, 0.07377616316080093,
        0.08113592863082886, 0.053383033722639084, -0.18524089455604553, 0.026865370571613312,
        -0.060074515640735626, 0.12225858867168427, -0.06807899475097656, 0.019013602286577225,
        -0.04958087578415871, 0.019732270389795303, -0.11398480832576752, -0.08775989711284637,
        0.15845011174678802, 0.06140711531043053, 0.06094081327319145, -0.06551114469766617,
        -0.1500307023525238, -0.09922193735837936, -0.05451468378305435, -0.16356050968170166,
        0.069764144718647, 0.04963573068380356, -0.1386343389749527, -0.08798190206289291,
        0.08065620064735413, 0.04492173343896866, 0.19218352437019348, 0.06905090808868408,
        0.03377430886030197, -0.22116994857788086, 0.005475830752402544, -0.13651007413864136,
        0.0007451457204297185, 0.07791399210691452, -0.1329953968524933, 0.010233255103230476,
        -0.2044195532798767, -0.01642119511961937, 0.14332593977451324, -0.057161472737789154,
        0.056690484285354614, -0.09206879884004593, -0.02424728125333786, -0.022576330229640007,
        -0.03565630689263344, -0.2129107266664505, 0.046992767602205276, -0.32241466641426086,
        0.0833253413438797, -0.023333031684160233, 0.005537127144634724, 0.006583274342119694,
        -0.052027229219675064, -0.0351482555270195, -0.17717652022838593, 0.058837614953517914
      ],
      [
        -0.03599836677312851, -0.3116523325443268, 0.015602915547788143, 0.3056182563304901,
        -0.12932883203029633, 0.05662265419960022, -0.0851975753903389, -0.09119028598070145,
        -0.05775405839085579, -0.09476367384195328, -0.08030740171670914, -0.03369823470711708,
        0.025473397225141525, -0.08858610689640045, -0.11679635941982269, -0.00813762005418539,
        0.08527871966362, -0.04407913237810135, -0.009099124930799007, 1.0027079582214355,
        0.0058425539173185825, 0.5004934072494507, -0.10940973460674286, 0.13701976835727692,
        0.09847520291805267, -0.020319031551480293, 0.018874095752835274, 0.08667086064815521,
        0.4566412568092346, -0.024129660800099373, 0.07473039627075195, 0.002565257251262665,
        0.02786382846534252, -0.14573027193546295, 0.026847245171666145, -0.1796257197856903,
        -0.294464111328125, 0.11772246658802032, 0.12185252457857132, -0.026895979419350624,
        0.0644727274775505, -0.06684830784797668, -0.011786051094532013, 0.009053321555256844,
        0.04765433445572853, -0.06383199244737625, -0.2269170880317688, -0.0412895493209362,
        -0.031048012897372246, 0.04445386305451393, -0.2376999408006668, 0.08806047588586807,
        0.03696213290095329, -0.030243253335356712, -0.11123320460319519, 0.22537758946418762,
        0.21786244213581085, -0.055834248661994934, -0.16008111834526062, 0.02395978569984436,
        0.019286703318357468, -0.06408639252185822, -0.10900529474020004, -0.04655452072620392,
        0.029533570632338524, -0.3002105951309204, 0.0772281140089035, -0.18454650044441223,
        0.06207140535116196, 0.19283679127693176, -0.08930779993534088, 0.06762886047363281,
        0.07323462516069412, -0.11820697039365768, -0.16265152394771576, -0.0016201037215068936,
        -0.08823210746049881, 0.12016987055540085, 0.017455365508794785, -0.00784700270742178,
        0.0777890756726265, -0.0905706137418747, -0.05622230842709541, -0.043869633227586746,
        0.16575300693511963, 0.4100746214389801, 0.07796886563301086, -0.07804996520280838,
        -0.1798829734325409, -0.1481873095035553, -0.12930406630039215, -0.007561173755675554,
        -0.009540833532810211, 0.039234574884176254, -0.22487714886665344, 0.06798389554023743,
        -0.010741619393229485, 0.06751278042793274, -0.011981445364654064, 0.043464839458465576,
        -0.14867819845676422, -0.008750502951443195, 0.07004664093255997, -0.15237842500209808,
        -0.04733169078826904, -0.07659324258565903, -0.2244662195444107, -0.07705297321081161,
        -0.2608725428581238, 0.14757995307445526, -0.10087281465530396, 0.07527710497379303,
        0.02147693932056427, -0.06572066992521286, 0.029327228665351868, 0.04893510788679123,
        -0.037708599120378494, 0.19192999601364136, 0.05685591697692871, 0.006540440488606691,
        -0.06242132559418678, 0.0061929733492434025, 0.03800800442695618, 0.08176270127296448,
        -0.08746564388275146, -0.01760643720626831, 0.09562024474143982, -0.025052426382899284
      ],
      [
        -0.09589201211929321, 0.0820179432630539, 0.06168698891997337, -0.09279673546552658,
        -0.08342496305704117, -0.08767750859260559, 0.03059927560389042, 0.08443664014339447,
        -0.07595464587211609, 0.04086601734161377, -0.07351385802030563, -0.09704635292291641,
        0.057020995765924454, -0.005890571046620607, -0.037777192890644073, -0.08877357840538025,
        0.015597916208207607, -0.021237090229988098, -0.004528879188001156, 0.0273070577532053,
        -0.01358870230615139, -0.09412932395935059, -0.04472682252526283, -0.01757359690964222,
        -0.006100555881857872, -0.04144592583179474, 0.060280222445726395, -0.08043117821216583,
        -0.06860686093568802, -0.061263635754585266, -0.03370722755789757, -0.0023459778167307377,
        0.005885480437427759, 0.010040956549346447, 0.009376270696520805, -0.00844228733330965,
        0.040459077805280685, 0.07395540177822113, -0.07869887351989746, 0.008935394696891308,
        -0.03987456485629082, -0.020615791901946068, -0.04981721565127373, 0.0439474992454052,
        -0.002771207131445408, 0.040748853236436844, -0.030281182378530502, -0.0015208881814032793,
        0.08303078263998032, -0.09176820516586304, 0.008732595480978489, -0.027916742488741875,
        -0.056796301156282425, 0.0076255942694842815, -0.08059850335121155, -0.06740179657936096,
        -0.034036748111248016, 0.039862290024757385, 0.0174078531563282, -0.08202333748340607,
        0.03207723796367645, -0.06411605328321457, -0.07242852449417114, 0.08197014778852463,
        -0.06402285397052765, -0.030784865841269493, 0.07282736897468567, -0.047706879675388336,
        0.017099134624004364, 0.018180707469582558, 0.008496853522956371, -0.074726901948452,
        -0.011946060694754124, 0.07121618092060089, 0.008001094684004784, 0.04824972152709961,
        0.06864486634731293, -0.03590613976120949, 0.045217856764793396, 0.03227952495217323,
        -0.0007443976355716586, -0.015813132748007774, -0.06748590618371964, -0.016974294558167458,
        -0.0762789249420166, -0.07074318826198578, 0.04837682470679283, -0.08708030730485916,
        -0.05819341540336609, -0.07669497281312943, 0.006758163217455149, 0.01624949462711811,
        0.07823410630226135, -0.025338899344205856, -0.028481444343924522, 0.052345793694257736,
        -0.04755915701389313, -0.052316565066576004, -0.014501727186143398, 0.03749219328165054,
        -0.0380919948220253, -0.08740674704313278, 0.03201454132795334, -0.05768000707030296,
        -0.0284071434289217, 0.03866707906126976, 0.04646855592727661, -0.00418164161965251,
        -0.016379650682210922, 0.029845373705029488, -0.009820889681577682, 0.0865510106086731,
        -0.02518373169004917, 0.05778798833489418, 0.06277332454919815, -0.037137556821107864,
        0.08678360283374786, 0.034581102430820465, 0.028954895213246346, -0.045525193214416504,
        0.01891314797103405, 0.05946948751807213, 0.008424529805779457, 0.06824417412281036,
        -0.06934233009815216, -0.08052349835634232, -0.07243432104587555, -0.04855814203619957
      ],
      [
        -0.06652845442295074, -0.0843743234872818, 0.03248466178774834, -0.009138782508671284,
        0.009173724800348282, -0.06060684472322464, -0.003750236937776208, -0.07701203227043152,
        -0.05210178717970848, 0.0654839351773262, -0.05353488400578499, 0.04279669374227524,
        -0.04574103653430939, -0.0644209161400795, -0.028401240706443787, 0.012178802862763405,
        0.034679871052503586, -0.03423727676272392, -0.08252092450857162, 0.02810634672641754,
        0.06519686430692673, -0.001235287869349122, -0.01785420812666416, -0.010978147387504578,
        0.06415034085512161, 0.058794211596250534, -0.01041634101420641, -0.03702087327837944,
        -0.09020161628723145, -0.040271177887916565, 0.032637495547533035, -0.0032660856377333403,
        -0.057478491216897964, 0.04483669996261597, -0.08276116847991943, -0.036212801933288574,
        0.05406545475125313, -0.015105368569493294, 0.07273029536008835, 0.07036179304122925,
        -0.0012662071967497468, 0.004266852978616953, -0.11260976642370224, -0.04990456625819206,
        -0.02619275078177452, -0.0039399839006364346, -0.04824553057551384, -0.0662585198879242,
        0.007099626120179892, -0.004474027082324028, -0.059208307415246964, -0.08801501244306564,
        -0.01595355197787285, -0.00742659205570817, 0.026229819282889366, -0.029107412323355675,
        -0.02548094466328621, -0.07028937339782715, 0.04555414244532585, -0.007987317629158497,
        0.05701247602701187, 0.08337031304836273, -0.1272311508655548, 0.06218047812581062,
        0.012788185849785805, -0.09704827517271042, -0.025192150846123695, -0.0467102974653244,
        0.04805796965956688, -0.08377820253372192, 0.0195212010294199, -0.07433028519153595,
        -0.02865172177553177, 0.01956482045352459, -0.06037404015660286, 0.05109668895602226,
        -0.07143250852823257, -0.041344333440065384, 0.0018856882816180587, -0.07450466603040695,
        0.033572934567928314, -0.10738632082939148, 0.032028891146183014, 0.04690948501229286,
        -0.08420845121145248, -0.0910748764872551, 0.05073112994432449, -0.06089865416288376,
        -0.045252725481987, -0.01623181812465191, -0.10946489125490189, -0.07639918476343155,
        -0.0879337266087532, -0.02496444620192051, -0.029116688296198845, -0.028025219216942787,
        0.04026222974061966, 0.05574176833033562, 0.03860299289226532, -0.0802759900689125,
        0.06422912329435349, 0.03043792024254799, 0.015620008111000061, -0.006616334896534681,
        -0.006549409590661526, 0.018327703699469566, -0.027738232165575027, 0.014265738427639008,
        -0.1101498082280159, -0.09228667616844177, -0.11183352023363113, 0.0252583846449852,
        -0.016679037362337112, -0.06398699432611465, 0.07120061665773392, -0.02772367000579834,
        0.049674924463033676, 0.054176151752471924, -0.0872194692492485, -0.01542856264859438,
        0.08226316422224045, 0.01305962260812521, 0.02134772017598152, 0.03253212943673134,
        0.08138763904571533, -0.011082549579441547, -0.02286665514111519, 0.03799569979310036
      ],
      [
        -0.01465526781976223, -0.11087595671415329, 0.05679472163319588, 0.0473470501601696,
        0.008327015675604343, 0.06362099945545197, 0.03478539362549782, -0.05171838030219078,
        0.07461290061473846, 0.0475839264690876, -0.06588432192802429, 0.09383082389831543,
        0.06955479830503464, -0.1233074814081192, -0.061575450003147125, -0.01952030509710312,
        -0.037446893751621246, -0.01598706841468811, -0.010403664782643318, -0.03890446200966835,
        0.032353565096855164, -0.031732071191072464, 0.07990210503339767, 0.07219347357749939,
        0.12371695041656494, -0.050331685692071915, 0.07812950760126114, 0.07448194175958633,
        0.005131242796778679, -0.02125081978738308, 0.07299721240997314, 0.05804184824228287,
        0.04842311516404152, -0.11331251263618469, 0.007763688452541828, -0.07113219052553177,
        -0.13823005557060242, -0.05700525641441345, -0.09700316935777664, -0.04146892577409744,
        0.07187659293413162, 0.024587122723460197, 0.005422921851277351, -0.011158188804984093,
        -0.03580956161022186, -0.03298050910234451, -0.0324116125702858, -0.017316190525889397,
        0.0036755106411874294, -0.04128288850188255, -0.05457745119929314, 0.05118867754936218,
        -0.008593120612204075, -0.18899738788604736, -0.09073221683502197, -0.06983333826065063,
        -0.19648541510105133, 0.04704660922288895, -0.082506462931633, -0.041669853031635284,
        -0.1500535011291504, 0.09535547345876694, -0.05807382985949516, -0.05857956036925316,
        0.03223520517349243, -0.09215953946113586, 0.07672885060310364, -0.12065263092517853,
        0.09844067692756653, 0.08561652153730392, -0.04447499290108681, 0.06006624549627304,
        -0.06658488512039185, 0.019315386191010475, -0.16385315358638763, -0.04746044799685478,
        -0.06385336071252823, 0.11524320393800735, -0.04128730669617653, -0.05160120129585266,
        -0.0794081836938858, -0.05054515600204468, -0.021007701754570007, 0.03918575868010521,
        0.04347594454884529, 0.05542990565299988, 0.00782803911715746, 0.00864990334957838,
        -0.2154005914926529, -0.11498189717531204, -0.09809533506631851, -4.753851953864796e-6,
        -0.028124989941716194, 0.011439751833677292, -0.05625579133629799, 0.050141409039497375,
        -0.06255674362182617, -0.005813725758343935, 0.014236385002732277, 0.07303419709205627,
        0.05773293226957321, 0.03629356250166893, 0.09112837165594101, -0.08683852851390839,
        -0.01781897060573101, -0.0511307530105114, 0.0739036500453949, -0.02011636458337307,
        -0.10854287445545197, -0.01530617754906416, -0.06022761017084122, -0.0006547723314724863,
        0.01451566070318222, -0.03778452426195145, 0.0009942256147041917, 0.054360561072826385,
        -0.0221072006970644, -0.0011982698924839497, -0.0599178671836853, -0.06324184685945511,
        0.042447637766599655, 0.04467249661684036, -0.026599150151014328, -0.05372331291437149,
        -0.05224815011024475, 0.025501009076833725, -0.06731928139925003, 0.03533124178647995
      ],
      [
        -0.29301631450653076, 0.08848247677087784, 0.04343608766794205, -0.09898516535758972,
        0.013770301826298237, -0.02148146741092205, 0.008202914148569107, -0.13667815923690796,
        0.06584852933883667, 0.13786646723747253, 0.08568987250328064, -0.1754227727651596,
        0.02210172265768051, -0.04646891728043556, -0.005831664893776178, -0.21879102289676666,
        -0.013389547355473042, -0.022731449455022812, -0.007802266627550125, 0.22251588106155396,
        -0.07606340944766998, 0.03606564551591873, -0.29377731680870056, 0.014211379922926426,
        0.17084433138370514, 0.1563073992729187, 0.046766962856054306, 0.0291903056204319,
        0.31367477774620056, 0.07451564818620682, 0.08365856111049652, 0.004248802550137043,
        -0.0777362659573555, -0.11865629255771637, 0.011544371023774147, 0.03582250699400902,
        -0.029965141788125038, 0.16114984452724457, 0.06317665427923203, -0.06126274913549423,
        -0.038547202944755554, -0.09277598559856415, -0.24930419027805328, 0.027082160115242004,
        -0.0875939354300499, 0.0008981914725154638, -0.05112705007195473, -0.06931668519973755,
        0.03349015861749649, -0.01468290202319622, 0.12163766473531723, -0.08683773130178452,
        0.06808444112539291, -0.11113490909337997, 0.00179012818261981, -0.11380466818809509,
        0.0474628247320652, 0.03621920943260193, 0.16225004196166992, -0.07199505716562271,
        0.04336453601717949, 0.0848485603928566, -0.206342414021492, -0.040279511362314224,
        -0.015915080904960632, -0.11557157337665558, -0.027573542669415474, -0.1448308378458023,
        0.29456326365470886, -0.2511064112186432, -0.05221208557486534, -0.009623442776501179,
        0.016316603869199753, 0.03364694491028786, -0.05538015812635422, -0.08684905618429184,
        -0.013279997743666172, -0.1837349385023117, -0.04066086933016777, -0.13094878196716309,
        0.006225131452083588, -0.08088173717260361, -0.07836244255304337, -0.020556746050715446,
        -0.1848369985818863, 0.11231869459152222, 0.07432103157043457, 0.05585867166519165,
        -0.033042602241039276, -0.1654156744480133, -0.0813366025686264, -0.01204338576644659,
        0.11920350790023804, -0.01244425680488348, -0.19136734306812286, -0.08702457696199417,
        0.020443696528673172, -0.08819844573736191, -0.2696334421634674, 0.08955638855695724,
        -0.035871390253305435, -0.11272595822811127, -0.1739448457956314, 0.007944433949887753,
        -0.07478806376457214, 0.0007407835219055414, 0.3639020621776581, 0.032201267778873444,
        -0.10747211426496506, 0.12415695935487747, -0.13405780494213104, -0.0747489184141159,
        0.1689019501209259, -0.06472042948007584, -0.06570999324321747, -0.07449863851070404,
        0.15296681225299835, 0.07792769372463226, -0.06220585107803345, -0.06930409371852875,
        -0.07187119871377945, -0.047068946063518524, -0.08988004177808762, 0.029611574485898018,
        -0.054842542856931686, 0.06157000735402107, -0.1309797316789627, 0.030283784493803978
      ],
      [
        0.013877262361347675, -0.09503373503684998, 0.008320978842675686, -0.11048196256160736,
        -0.02379455417394638, 0.017375638708472252, -0.019420677796006203, -0.05990036949515343,
        0.03650234267115593, -0.16830679774284363, 0.07875631749629974, -0.0970129445195198,
        0.02672959491610527, -0.013588170520961285, -0.02572055719792843, -0.0025383704341948032,
        -0.05426359176635742, 0.08141659200191498, -0.0844838097691536, -0.16381463408470154,
        0.07193823903799057, -0.00606133509427309, -0.10427781194448471, -0.11120443791151047,
        -0.04107813537120819, 0.035885415971279144, 0.03680578991770744, 0.08124775439500809,
        -0.1384236067533493, 0.07975971698760986, 0.07817557454109192, 0.013465001247823238,
        0.03186241537332535, -0.05834832414984703, -0.19546271860599518, -0.17876482009887695,
        -0.0265096053481102, -0.02246101386845112, -0.4210168421268463, -0.038548991084098816,
        -0.04145396500825882, 0.07677651196718216, -0.0270223505795002, 0.06839683651924133,
        -0.1189490482211113, -0.03167577087879181, -0.07951948046684265, -0.11000749468803406,
        0.0251508466899395, -0.3072760999202728, -0.08656872063875198, -0.090021051466465,
        -0.02018466219305992, -0.12902332842350006, -0.09342249482870102, -0.012156249023973942,
        -0.27076780796051025, 0.004860142711549997, -0.2277827262878418, -0.09425205737352371,
        -0.0863514319062233, -0.04090733081102371, 0.05680287256836891, -0.017251094803214073,
        -0.032196830958127975, 0.02803206630051136, 0.06696868687868118, -0.2616289258003235,
        -0.09715469181537628, 0.2533666789531708, 0.039309728890657425, 0.06782858818769455,
        0.035857558250427246, -0.04416815564036369, -0.08968858420848846, -0.03140254318714142,
        0.0725911483168602, 0.16138271987438202, -0.15055713057518005, 0.03718375787138939,
        0.06263110786676407, -0.07211704552173615, -0.1267109364271164, 0.03632112964987755,
        0.20062315464019775, 0.17484202980995178, -0.06648804247379303, -0.056202054023742676,
        -0.16326260566711426, -0.03196009621024132, 0.009001278318464756, -0.3711130917072296,
        -0.0815730094909668, 0.04988684132695198, -0.11437053978443146, -0.07057689875364304,
        -0.06294529139995575, -0.08391603082418442, 0.11647293716669083, -0.043881624937057495,
        -0.012103809043765068, 0.008820624090731144, -0.015033169649541378, -0.07005244493484497,
        0.04915532097220421, -0.040161531418561935, -0.31279078125953674, 0.039790816605091095,
        -0.2590303421020508, -0.0811857283115387, 0.08298936486244202, -0.08663342148065567,
        -0.17291079461574554, -0.14477622509002686, -0.0008635151316411793, -0.022837048396468163,
        -0.04575253278017044, -0.30537962913513184, 0.02276768535375595, -0.19166603684425354,
        -0.027629809454083443, 0.05139762908220291, -0.049324821680784225, 0.0340212844312191,
        -0.0810193419456482, 0.060050882399082184, -0.3172830045223236, -0.07563608884811401
      ],
      [
        -0.06446921080350876, 0.01058241631835699, -0.08586174994707108, -0.0003891988017130643,
        0.0264301560819149, 0.044275980442762375, -0.0011981400894001126, 0.01804669387638569,
        0.06240256875753403, -0.07574758678674698, 0.0765865296125412, 0.05577884986996651,
        0.059622544795274734, -0.027314918115735054, 0.02059684880077839, -0.07486091554164886,
        -0.029884032905101776, 0.014214719645678997, 0.01432141475379467, -0.0867372453212738,
        -0.05078302323818207, -0.04672161862254143, -0.027263769879937172, -0.0031254400964826345,
        0.008518590591847897, -0.014217984862625599, 0.045524802058935165, -0.05289167910814285,
        0.04745672270655632, -0.049657657742500305, -0.0699404925107956, 0.06355133652687073,
        0.06629875302314758, -0.05261358618736267, -0.018080828711390495, 0.04217176139354706,
        -0.02230701968073845, 0.007341891061514616, -0.06928666681051254, 0.013411801308393478,
        -0.03970712423324585, -0.0025660134851932526, -0.07148923724889755, -0.027155814692378044,
        0.0701165720820427, -0.01454545371234417, 0.07125386595726013, -0.09294959902763367,
        0.028948457911610603, -0.07993921637535095, 0.016195887699723244, 0.040508169680833817,
        -0.010156452655792236, -0.06728053092956543, 0.06432857364416122, 0.04283154383301735,
        0.06576944142580032, -0.07210139185190201, 0.008297418244183064, -0.07249103486537933,
        0.03915511816740036, 0.07762701064348221, -0.012279748916625977, -0.045477185398340225,
        -0.0758056566119194, -0.09591975808143616, 0.015318303368985653, -0.04592616483569145,
        -0.011605696752667427, -0.005133568309247494, 0.06338927894830704, -0.068882055580616,
        0.04579206556081772, 0.038519587367773056, -0.05163441225886345, 0.02631470002233982,
        0.02811064012348652, 0.027478771284222603, -0.00416140491142869, -0.09817267209291458,
        0.056389953941106796, -0.03782178461551666, 0.06076672300696373, 0.08125686645507812,
        0.0003251922025810927, 0.027683310210704803, 0.01442862581461668, -0.009876365773379803,
        0.012928229756653309, -0.07994647324085236, 0.05680683255195618, -0.011552919633686543,
        -0.08084133267402649, 0.02752336673438549, -0.04609345644712448, 0.04309475049376488,
        -0.011014224961400032, -0.0331590436398983, -0.04352675750851631, -0.06800113618373871,
        -0.010801629163324833, -0.09554007649421692, 0.030860843136906624, -0.06165698543190956,
        0.08202620595693588, 0.05730237066745758, 0.002130133332684636, 0.023502368479967117,
        0.0034297313541173935, 0.035931240767240524, -0.021806294098496437, -0.023251984268426895,
        0.03079167753458023, 0.026896130293607712, -0.030737854540348053, -0.0198172889649868,
        0.019779078662395477, -0.06395433098077774, 0.043016474694013596, -0.07024434953927994,
        0.059569817036390305, 0.000809588236734271, -0.08351672440767288, 0.0398324690759182,
        -0.015800610184669495, 0.03609402850270271, -0.013104831799864769, 0.06626643240451813
      ],
      [
        -0.018551688641309738, 0.10581274330615997, -0.03436717018485069, -0.31367063522338867,
        -0.012656822800636292, 0.23887059092521667, -0.018161918967962265, -0.08414124697446823,
        0.0060078538954257965, -0.005675479304045439, 0.07865400612354279, 0.08297475427389145,
        0.08456691354513168, -0.06286443769931793, -0.2264205813407898, 0.14600872993469238,
        -0.07316718995571136, 0.043272726237773895, -0.07915187627077103, 0.22243395447731018,
        0.050824861973524094, 0.0693749263882637, -0.2148703932762146, 0.0873715952038765,
        0.04702068120241165, 0.09490466117858887, -0.0287934523075819, -0.0587870329618454,
        0.20430554449558258, 0.02086169831454754, -0.06221172958612442, -0.020332777872681618,
        -0.08727660775184631, -0.18946760892868042, -0.0480952225625515, -0.15075041353702545,
        -0.13667786121368408, 0.008097109384834766, 0.4691324830055237, 0.0017318244790658355,
        -0.007282058708369732, -0.07890524715185165, -0.207422137260437, 0.009077969938516617,
        -0.29050636291503906, 0.06271285563707352, -0.14470548927783966, 0.019251219928264618,
        -0.010434158146381378, -0.04779457673430443, 0.08925380557775497, -0.1400018334388733,
        -0.03706291690468788, -0.22824829816818237, 0.212401881814003, -0.2921781539916992,
        0.3810575604438782, -0.021964261308312416, 0.3110308349132538, -0.12146570533514023,
        0.1520257294178009, 0.09099335223436356, 0.029834013432264328, 0.0020696104038506746,
        0.0231817364692688, -0.09631117433309555, -0.0018348946468904614, -0.18824535608291626,
        0.1506771743297577, 0.09061814844608307, -0.1431724578142166, -0.036010973155498505,
        0.04394703358411789, 0.14259786903858185, -0.05123642832040787, -0.03423863276839256,
        -0.07656960934400558, 0.08815669268369675, -0.31466129422187805, -0.028270728886127472,
        -0.0736151933670044, 0.04950423538684845, -0.31640762090682983, -0.033845700323581696,
        0.09500009566545486, 0.1765306144952774, -0.003969021141529083, 0.008395704440772533,
        0.0044249058701097965, -0.16912324726581573, 0.01878889463841915, -0.3331957161426544,
        0.10236110538244247, 0.169549360871315, -0.21637192368507385, 0.023219889029860497,
        -0.05805626139044762, -0.03374781459569931, 0.07058390229940414, 0.22628153860569,
        0.08285608887672424, -0.0036545756738632917, 0.03488197550177574, 0.0803898498415947,
        0.013258786872029305, -0.0460604652762413, 0.2512737512588501, -0.048983003944158554,
        -0.03075745701789856, 0.10721304267644882, 0.019822074100375175, 0.039147909730672836,
        0.21499396860599518, -0.0368269607424736, -0.033120106905698776, 0.0009997206507250667,
        0.002043206011876464, 0.19219903647899628, -0.03223997727036476, -0.2881271541118622,
        0.09191105514764786, -0.04405619576573372, -0.11846617609262466, -0.08562763035297394,
        -0.03107629343867302, 0.19193154573440552, -0.19641731679439545, -0.008003138937056065
      ],
      [
        -0.06342804431915283, -0.036502692848443985, -0.06988691538572311, -0.06052869185805321,
        0.03482683375477791, -0.034170109778642654, -0.0738772302865982, -0.05686496943235397,
        0.07173480838537216, -0.02825615368783474, 0.04611143469810486, 0.04524465650320053,
        0.010102610103785992, -0.005568627268075943, -0.035663243383169174, -0.08400087058544159,
        -0.0682542696595192, -0.020975779742002487, -0.05735079571604729, -0.08855102211236954,
        0.08747652918100357, -0.10647660493850708, -0.07535548508167267, -0.07847173511981964,
        -0.017734579741954803, -0.024835912510752678, 0.06208402290940285, 0.081658273935318,
        -0.0455363504588604, 0.01993049681186676, 0.008131865411996841, 0.003682222682982683,
        0.0784439966082573, 0.03189278393983841, 0.026457808911800385, 0.04553605616092682,
        0.014273948036134243, 0.0007097212946973741, -0.01680012419819832, 0.04697052389383316,
        -0.06592480093240738, -0.06897076219320297, 0.00022334919776767492, 0.07308986037969589,
        0.06434287875890732, -0.0843309760093689, -0.11235582083463669, -0.052050963044166565,
        -0.02707650512456894, -0.044901881366968155, -0.020316844806075096, 0.012554063461720943,
        0.0014260913012549281, -0.0873282328248024, 0.029407724738121033, -0.04793873056769371,
        0.0061831846833229065, 0.009494852274656296, -0.010353573597967625, 0.01978733018040657,
        0.004771376959979534, -0.007434967439621687, -0.05866333469748497, 0.021302977576851845,
        0.07540277391672134, -0.0517534539103508, 0.06733814626932144, -0.07450331002473831,
        -0.0965953916311264, -0.09517695754766464, 0.027950817719101906, -0.07760278880596161,
        0.01255340687930584, 0.017116962000727654, 0.031591907143592834, -0.064415842294693,
        0.06643263250589371, -0.004768392536789179, 0.052837878465652466, -0.0738830417394638,
        -0.0004087717388756573, 0.04137924313545227, 0.027494966983795166, -0.02322545275092125,
        0.03663564473390579, 0.00014948473835829645, -0.039637792855501175, 0.006107678636908531,
        -0.02319895476102829, 0.041203584522008896, -0.031081968918442726, -0.07380618900060654,
        -0.011697594076395035, 0.035434361547231674, -0.04580235853791237, -0.06628623604774475,
        -0.032471153885126114, -0.0538749024271965, 0.06573448330163956, -0.06593303382396698,
        -0.10145189613103867, -0.009034819900989532, -0.061317604035139084, -0.000670847250148654,
        -0.08259383589029312, -0.049759674817323685, 0.07266209274530411, -0.013800184242427349,
        0.07572194933891296, 0.079987533390522, -0.011856749653816223, -0.0077452631667256355,
        0.04565116763114929, -0.08212712407112122, 0.05978115275502205, -0.08345495909452438,
        -0.038167793303728104, 0.02073807269334793, 0.022397151216864586, -0.06693843752145767,
        0.0170757956802845, -0.06219733506441116, -0.09483743458986282, 0.05500609427690506,
        0.03213100880384445, 0.00877346657216549, -0.058418598026037216, 0.011058015748858452
      ],
      [
        -0.06516267359256744, -0.07714367657899857, -0.05237358435988426, -0.040439996868371964,
        0.07561548054218292, 0.06357414275407791, -0.024783864617347717, 0.05009467899799347,
        0.028308836743235588, 0.045422498136758804, 0.07083357125520706, -0.07749554514884949,
        -0.01087340246886015, 0.061197053641080856, 0.0047082058154046535, 0.00959024764597416,
        -0.0428166463971138, 0.08781871199607849, 0.043390560895204544, 0.021230299025774002,
        0.07363507151603699, -0.02334788255393505, 0.07122394442558289, 0.006944372784346342,
        -0.055673997849226, 0.04288968816399574, -0.06092327833175659, -0.018147241324186325,
        0.0008337219478562474, -0.02022910676896572, -0.03309938311576843, -0.017256900668144226,
        0.00521157355979085, -0.08863671869039536, -0.07531185448169708, -0.006520781200379133,
        -0.055095870047807693, -0.06349256634712219, -0.09786363691091537, -0.007764555513858795,
        -0.04447972774505615, -0.09354846179485321, -0.015615828335285187, -0.0591844767332077,
        0.06479743123054504, 0.07729172706604004, 0.0030341832898557186, -0.07516873627901077,
        -0.006088733673095703, -0.02480599284172058, -0.025801774114370346, 0.0009636060567572713,
        0.002212709514424205, -0.05885457247495651, -0.07700002193450928, 0.0686068907380104,
        -0.08271725475788116, 0.06347467005252838, 0.006746103521436453, 0.01330371294170618,
        -0.07317396253347397, -0.0737215057015419, -0.09138243645429611, -0.08016349375247955,
        -0.040529072284698486, 0.015517429448664188, -0.07204171270132065, 0.06339545547962189,
        -0.001248915446922183, 0.053160421550273895, -0.05170298367738724, -0.014691822230815887,
        -0.05197172984480858, -0.08860782533884048, -0.029105864465236664, -0.025510074570775032,
        0.030176090076565742, 0.0485856719315052, -0.043078143149614334, -0.010748357512056828,
        0.08012653887271881, 0.07597772032022476, -0.055230408906936646, 0.059295978397130966,
        -0.06721153110265732, -0.08300983905792236, -0.021853182464838028, -0.04339789226651192,
        -0.07612717151641846, -0.04612492397427559, 0.03737853839993477, -0.05700281262397766,
        -0.052374884486198425, 0.016991931945085526, 0.06288352608680725, 0.04618077352643013,
        0.06521398574113846, 0.03529607877135277, 0.05519356578588486, -0.09142410010099411,
        0.05392224341630936, -0.018848927691578865, 0.06581903994083405, 0.05937361717224121,
        -0.022466007620096207, -0.07482438534498215, -0.03338519483804703, -0.053256284445524216,
        0.025997929275035858, -0.008795536123216152, -0.02037799172103405, 0.07880689948797226,
        0.07396251708269119, 0.054537754505872726, -0.0838848203420639, 0.053729213774204254,
        -0.046130985021591187, -0.09855654835700989, -0.03679485246539116, -0.0840655192732811,
        -0.09218429774045944, -0.029137443751096725, 0.035931773483753204, -0.01995503529906273,
        -0.06546516716480255, 0.014310888946056366, 0.010538528673350811, 0.0035830207634717226
      ],
      [
        0.029496261849999428, 0.03827400878071785, 0.07247816026210785, 0.25581762194633484,
        0.05974646657705307, -0.2018427848815918, -0.06129685789346695, 0.0026985034346580505,
        -0.023297429084777832, 0.09834252297878265, 0.017804598435759544, 0.053169574588537216,
        0.04545908421278, -0.4368135333061218, -0.18037192523479462, 0.05314367264509201,
        0.05088800936937332, 0.07200676947832108, 0.01125409360975027, 0.2163160890340805,
        0.051822733134031296, 0.1327541321516037, 0.008253519423305988, -0.14401601254940033,
        0.1800447255373001, 0.12137249112129211, 0.020331311970949173, 0.03490186855196953,
        0.04092254862189293, 0.006560494191944599, 0.007225950714200735, -0.020122801885008812,
        0.06300677359104156, -0.17672407627105713, -0.19657401740550995, 0.12017171829938889,
        0.13360442221164703, 0.04396071285009384, -0.029280198737978935, 0.06815794110298157,
        -0.06643141806125641, -0.08427225798368454, 0.009869575500488281, 0.0754203200340271,
        0.07612763345241547, -0.03176702558994293, 0.01161910966038704, -0.078623928129673,
        0.0797613114118576, -0.034677550196647644, -0.007175416685640812, -0.021647779271006584,
        -0.005396988242864609, -0.103753462433815, 0.08330994099378586, 0.035136740654706955,
        -0.09832676500082016, -0.07364420592784882, -0.08645951002836227, -0.05123606324195862,
        0.06475231796503067, -0.07063393294811249, 0.14705438911914825, -0.009467625990509987,
        0.034468114376068115, -0.3909693956375122, -0.06762618571519852, -0.20876039564609528,
        0.16328677535057068, -0.1666351556777954, -0.28672733902931213, 0.07945235818624496,
        -0.029318707063794136, 0.03229920566082001, -0.046401847153902054, -0.05192103981971741,
        0.06388521194458008, -0.041254252195358276, -0.02216433919966221, -0.17337898910045624,
        0.022740110754966736, -0.1432618647813797, -0.12513743340969086, 0.02713298238813877,
        0.16747649013996124, 0.24908113479614258, -0.03696369007229805, -0.06682758778333664,
        -0.369006484746933, -0.17132654786109924, -0.19480501115322113, 0.06282245367765427,
        -0.006765064317733049, -0.03045727126300335, -0.2192031294107437, -0.007137305103242397,
        -0.03285914659500122, 0.0028702635318040848, -0.016261961311101913, -0.00207297271117568,
        -0.005266644526273012, -0.08030190318822861, -0.08906400948762894, 0.05931409075856209,
        -0.04243088513612747, 0.04008980840444565, 0.047301940619945526, 0.06941718608140945,
        -0.5370479226112366, -0.004393633455038071, 0.02155175432562828, 0.06208258122205734,
        -0.01848910003900528, -0.09012731909751892, 0.009647244587540627, -0.03611096739768982,
        0.09961941093206406, -0.0006635032477788627, 0.057447049766778946, -0.15122634172439575,
        0.020596416667103767, -0.058232296258211136, -0.19352291524410248, 0.08691481500864029,
        0.08049138635396957, -0.07823412865400314, 0.05694754421710968, 0.08223932236433029
      ],
      [
        -0.09899505972862244, 0.020005734637379646, 0.010397474281489849, 0.12370330095291138,
        0.0786367803812027, 0.041939545422792435, -0.030270962044596672, 0.11457186937332153,
        -0.00749203423038125, 0.08967394381761551, -0.010940352454781532, 0.08784779906272888,
        0.059327632188797, -0.04361337423324585, -0.1000288650393486, 0.006474136374890804,
        -0.009547768160700798, -0.0768258199095726, 0.05988794192671776, -0.10280376672744751,
        0.02143518067896366, -0.17011483013629913, -0.2842397093772888, -0.003277844749391079,
        0.1984284222126007, 0.15184056758880615, 0.07999679446220398, -0.010255181230604649,
        0.04816469922661781, -0.0567244291305542, -0.055069029331207275, 0.05543835088610649,
        0.0026494984049350023, -0.09768936783075333, -0.04534151032567024, 0.0866231694817543,
        0.032344840466976166, 0.16457609832286835, -1.083571195602417, -0.07576380670070648,
        -0.07895272970199585, -0.01883785054087639, -0.25468137860298157, 0.12571656703948975,
        -0.20346523821353912, 0.1356908679008484, -0.02906561642885208, -0.07188396155834198,
        -0.006320794578641653, -0.48949941992759705, 0.05540244281291962, -0.17418959736824036,
        0.07581158727407455, -0.09943542629480362, 0.05304800719022751, -0.14324979484081268,
        -0.5953059196472168, 0.06280988454818726, 0.16008985042572021, 0.10357818752527237,
        0.13338255882263184, 0.1389095038175583, 0.07474973052740097, 0.010601201094686985,
        -0.05918539687991142, 0.21083299815654755, -0.02706475555896759, -0.277278333902359,
        0.1730699986219406, -0.040213264524936676, -0.021872952580451965, -0.034801822155714035,
        0.07457632571458817, 0.08024781942367554, 0.016269249841570854, 0.04515582695603371,
        -0.006221264600753784, 0.08571609109640121, -0.275391548871994, -0.030857887119054794,
        -0.029940204694867134, 0.011526123620569706, -0.36299261450767517, 0.06059933826327324,
        0.32099220156669617, 0.2521972358226776, 0.045897599309682846, -0.06005970016121864,
        -0.09597676992416382, -0.004534558393061161, -0.0959792211651802, -0.16265417635440826,
        0.16990946233272552, 0.1675707846879959, -0.09286364912986755, 0.04495193064212799,
        -0.08586709946393967, 0.034666940569877625, 0.06713725626468658, 0.1505487710237503,
        0.07401342689990997, 0.02919534035027027, 0.10453847050666809, 0.23968829214572906,
        0.04326320067048073, 0.021813249215483665, -0.062113989144563675, 0.04807952418923378,
        -0.14895601570606232, 0.1685953587293625, 0.10785741358995438, -0.0717720165848732,
        0.11258907616138458, 0.03564291074872017, 0.13858547806739807, 0.027880743145942688,
        0.16380473971366882, -0.8070493340492249, 0.0650004893541336, 0.11856026947498322,
        0.08819754421710968, 0.010243253782391548, -0.19412003457546234, -0.038086116313934326,
        -0.020507538691163063, 0.17669281363487244, -0.10533285140991211, 0.11053823679685593
      ],
      [
        0.011681920848786831, -0.030040143057703972, -0.08120346814393997, 0.0002149834472220391,
        0.0033877731766551733, 0.06385282427072525, -0.05338812991976738, 0.06596862524747849,
        -0.02837531268596649, -0.10110656172037125, -0.0022141318768262863, 0.053118955343961716,
        -0.046589113771915436, 0.07158616185188293, 0.06956559419631958, -0.004914551042020321,
        0.018771816045045853, -0.07415053248405457, -0.05365215614438057, 0.03775116056203842,
        -0.05470358580350876, -0.018715308979153633, -0.07268531620502472, -0.09723617881536484,
        0.06042246147990227, 0.009712976403534412, 0.030297303572297096, 0.023968491703271866,
        0.013417558744549751, 0.02709202468395233, 0.06145016849040985, 0.06443546712398529,
        -0.05190984904766083, -0.046513743698596954, -0.07933718711137772, 0.0007188218296505511,
        -0.07122824341058731, 0.025838909670710564, -0.06045078858733177, 0.0033602628391236067,
        -0.031882572919130325, -0.062226295471191406, -0.05665767192840576, -0.0330323800444603,
        0.022973252460360527, -0.025353632867336273, -0.06625702232122421, -0.06443283706903458,
        -0.05841733142733574, -0.09422744810581207, -0.06974527984857559, -0.029627302661538124,
        0.08083716779947281, 0.044740717858076096, 0.09702949225902557, 0.027163658291101456,
        -0.027974698692560196, 0.07155394554138184, -0.06809275597333908, -0.0261077843606472,
        0.09490074962377548, -0.03163385018706322, 0.04511221870779991, -0.024916205555200577,
        -0.0816442146897316, 0.06468330323696136, 0.05390602722764015, 0.0478215366601944,
        0.0680873766541481, -0.03734387829899788, -0.06565123051404953, -0.05395074561238289,
        -0.05996892601251602, -0.00623248890042305, -0.04477325454354286, -0.0024635358713567257,
        -0.025376342236995697, -0.02018936537206173, 0.02957194857299328, -0.03205227851867676,
        -0.023124288767576218, -0.03312208876013756, -0.09115871787071228, 0.08517848700284958,
        0.07357040792703629, -0.05663220211863518, -0.03875035047531128, -0.07212678343057632,
        -0.07275793701410294, 0.07551597058773041, 0.009944599121809006, -0.08385785669088364,
        -0.017984239384531975, -0.0643109604716301, -0.06333547830581665, -0.087483249604702,
        0.01535353809595108, -0.034671418368816376, 0.031638361513614655, -0.0139862559735775,
        0.012331757694482803, -0.07920896261930466, 0.001613325672224164, -0.012309969402849674,
        -0.025951910763978958, -0.08795594424009323, -0.03567511960864067, -0.04181494191288948,
        0.029101498425006866, -0.04362241551280022, -0.06294839829206467, 0.04828469455242157,
        -0.037180446088314056, -0.08704810589551926, 0.08072493970394135, 0.02541421167552471,
        -0.05021824315190315, -0.010135839693248272, 0.07753270864486694, 0.021360579878091812,
        0.04220874235033989, -0.04961150884628296, -0.02354913018643856, -0.023229477927088737,
        0.03492085635662079, 0.09529536962509155, 0.05244181305170059, -0.03237957879900932
      ],
      [
        0.06284604221582413, 0.03629422187805176, 0.03132341802120209, 0.0338573232293129,
        -0.0035270415246486664, -0.022623037919402122, -0.0009285793639719486, 0.020250074565410614,
        -0.0019114332972094417, 0.07129835337400436, -0.07738994807004929, 0.000848953437525779,
        0.07791782915592194, -0.07824418693780899, 0.05896177515387535, 0.008627854287624359,
        0.06792621314525604, -0.06686221063137054, 0.023793740198016167, -0.028906671330332756,
        -0.085110142827034, 0.03883508965373039, 0.05831322818994522, -0.010212310589849949,
        -0.036003392189741135, 0.04662484675645828, 0.05329302325844765, 0.06959906965494156,
        0.0008189293439500034, 0.08043521642684937, 0.044883083552122116, -0.00898465421050787,
        0.01362187135964632, 0.017267700284719467, -0.021248696371912956, 0.0032099587842822075,
        -0.027586566284298897, 0.04351525753736496, -0.06457623839378357, -0.08237729221582413,
        -0.022898530587553978, 0.05185478553175926, -0.06972306221723557, 0.06825991719961166,
        -0.03915756195783615, -0.08022556453943253, -0.07633650302886963, -0.06847632676362991,
        0.08335527777671814, 0.005483046639710665, 0.0686657577753067, 0.03585348650813103,
        -0.009571422822773457, 0.0023097465746104717, -0.06135179474949837, -0.026239408180117607,
        0.02615039423108101, -0.08729562908411026, -0.07987518608570099, -0.039441339671611786,
        0.03909226134419441, 0.09000907093286514, -0.06976281106472015, -0.0021022274158895016,
        0.023535357788205147, 0.028773730620741844, 0.07752149552106857, -0.08482837677001953,
        -0.03903007507324219, -0.040565282106399536, -0.023016301915049553, 0.08062777668237686,
        -0.04403538629412651, 0.05596082657575607, -0.0609322227537632, -0.02573806792497635,
        -0.088074691593647, -0.08426851034164429, 0.06193791702389717, -0.014772044494748116,
        0.06441731750965118, 0.053886301815509796, -0.004037435632199049, 0.06578917801380157,
        0.014105894602835178, 0.054440297186374664, 0.00033634237479418516, 0.0810655951499939,
        -0.05771389976143837, -0.07279743254184723, 0.030689986422657967, -0.06331881135702133,
        -0.06266358494758606, 0.07442478090524673, -0.014582183212041855, 0.05269816517829895,
        0.019114164635539055, 0.052176207304000854, -0.08854606747627258, 0.07460308820009232,
        -0.0664871409535408, -0.07353784888982773, 2.6422450901009142e-5, -0.027642514556646347,
        -0.05578376725316048, -0.03004775196313858, 0.0029342155903577805, 0.00936994981020689,
        -0.011325703002512455, -0.009519106708467007, 0.042290493845939636, -0.01131546963006258,
        0.03574213758111, 0.02980039082467556, 0.028308304026722908, -0.05635172501206398,
        -0.03853875771164894, -0.033232782036066055, 0.05833318829536438, -0.029066240414977074,
        -0.03075694665312767, -0.0763074979186058, 0.05683547630906105, 0.017619868740439415,
        -0.03715994954109192, 0.03157046437263489, 0.06127320975065231, -0.07689369469881058
      ],
      [
        0.036929793655872345, 0.02562614344060421, 0.058153629302978516, -0.011725177057087421,
        -3.6023549910169095e-5, 0.020229918882250786, -0.06792423874139786, -0.07809878140687943,
        0.003507249988615513, -0.04589470848441124, -0.06884607672691345, -0.053903378546237946,
        -0.03347387909889221, 0.04768999293446541, -0.0590934231877327, -0.09091230481863022,
        0.03498538210988045, -0.035509247332811356, -0.08625360578298569, 0.062323909252882004,
        -0.07302945852279663, 0.05882576107978821, -0.02536211535334587, 0.05142264813184738,
        -0.07890067249536514, 0.07921870052814484, -0.010684436187148094, 0.08463562279939651,
        0.04025883600115776, 0.007196985185146332, 0.007258762139827013, -0.03691241890192032,
        0.04409661516547203, -0.039701465517282486, -0.0930505022406578, -0.042295217514038086,
        -0.016345348209142685, -0.053019892424345016, 0.004131521563977003, -0.08071524649858475,
        0.05272660404443741, 0.024133678525686264, -0.05157334357500076, 0.006301812827587128,
        0.033195268362760544, -0.01361220981925726, 0.03360366448760033, 0.022754359990358353,
        -0.00010839115566341206, 0.07476526498794556, -0.10328163951635361, 0.03224675729870796,
        -0.07607398182153702, -0.054147928953170776, -0.0375816710293293, 0.05614233389496803,
        0.0776461660861969, 0.04179217293858528, 0.014027438126504421, -0.06837978959083557,
        -0.009066082537174225, 0.045659806579351425, 0.0700867548584938, -0.008713360875844955,
        0.024334199726581573, -0.07143384963274002, 0.05741605907678604, -0.03884118050336838,
        0.03990352898836136, 0.0008013007463887334, 0.055265188217163086, 0.05283769965171814,
        0.0269620344042778, 0.03523281216621399, 0.003320002928376198, 0.046691425144672394,
        0.027753224596381187, -0.050641387701034546, -0.08694466203451157, 0.03304407373070717,
        -0.005320681259036064, -0.01001669466495514, -0.011759568937122822, -0.006533678155392408,
        -0.06202502176165581, 0.06978090107440948, -0.006791785359382629, -0.06395631283521652,
        0.048971112817525864, -0.014614240266382694, -0.06820637732744217, 0.013903752900660038,
        -0.08240371197462082, -0.038652509450912476, -0.08496367186307907, 0.08254645764827728,
        0.010570081882178783, -0.061034347862005234, -0.013969920575618744, 0.020316170528531075,
        -0.018679354339838028, 0.02096669003367424, -0.039533209055662155, -0.03292589262127876,
        0.03290054574608803, -0.028767984360456467, 0.04769770801067352, -0.005583540536463261,
        -0.09050583839416504, 0.05662626773118973, 0.03534362092614174, 0.04300432652235031,
        -0.03089718334376812, -0.02963372878730297, -0.0822828859090805, 0.060686662793159485,
        0.06261833757162094, -0.09568921476602554, 0.022764313966035843, 0.04373424872756004,
        -0.033607274293899536, -0.037719499319791794, 0.040003832429647446, 0.03796705976128578,
        -0.00592053635045886, -0.07646841555833817, -0.009978600777685642, -0.017211850732564926
      ],
      [
        0.11552269756793976, -0.07324796915054321, 0.05979709327220917, 0.07507780194282532,
        -0.1120738834142685, -0.06636287271976471, -0.06020272523164749, -0.03360313922166824,
        -0.07724913209676743, -0.052056752145290375, 0.027725661173462868, -0.0016358199063688517,
        -0.027092384174466133, -0.11732718348503113, -0.15743893384933472, 0.12223690748214722,
        0.07719497382640839, 0.022164100781083107, -0.07346488535404205, -0.08186251670122147,
        -0.07732907682657242, 0.05544668436050415, -0.16603626310825348, 0.029261596500873566,
        0.0825265422463417, -0.01580093242228031, -0.008971705101430416, -0.0500917062163353,
        0.10665438324213028, -0.06210312619805336, -0.07859110832214355, -0.06678491830825806,
        0.051269322633743286, -0.23943929374217987, -0.0006154270959086716, -0.0564822293817997,
        -0.1101032942533493, -0.009549243375658989, -0.20890069007873535, 0.023755723610520363,
        0.031103678047657013, 0.08244337141513824, 0.016672031953930855, -0.004348416812717915,
        -0.1134653389453888, 0.02750919573009014, -0.10118594765663147, -0.08398331701755524,
        0.0638604536652565, -0.21856366097927094, 0.029564928263425827, 0.010678377002477646,
        0.04402151703834534, 0.06573954224586487, 0.054220087826251984, 0.07428982108831406,
        -0.1726183146238327, -0.04229908064007759, -0.22394360601902008, 0.025535663589835167,
        -0.07564657181501389, -0.08042667806148529, 0.1602923423051834, -0.07682178914546967,
        -0.05217002332210541, -0.24754910171031952, -0.03187683969736099, -0.07034525275230408,
        -0.025357570499181747, 0.13579241931438446, -0.012249049730598927, -0.00330134155228734,
        -0.02805679850280285, -0.1553070992231369, 0.0020825406536459923, -0.07813920080661774,
        0.01539261918514967, 0.048255883157253265, -0.16968895494937897, -0.06549399346113205,
        0.026660136878490448, 0.005784361157566309, -0.123348668217659, 0.04695740342140198,
        0.1583484709262848, 0.15495653450489044, 0.04309907183051109, -0.04887022823095322,
        0.061081916093826294, -0.12560240924358368, -0.11632412672042847, -0.15589772164821625,
        0.023176709190011024, 0.024409515783190727, 0.15357504785060883, -0.01711217872798443,
        -0.08128446340560913, 0.08662880957126617, 0.22706802189350128, -0.030821682885289192,
        -0.10852600634098053, -0.09085296094417572, -0.07133937627077103, -0.06000494211912155,
        0.00012494433030951768, -0.06133922562003136, -0.19089263677597046, 0.0827619805932045,
        0.13809873163700104, -0.08471067994832993, 0.03547871485352516, -0.031830742955207825,
        0.059530843049287796, -0.05190672352910042, 0.0819493904709816, 0.046872109174728394,
        0.03820266202092171, -0.26529473066329956, -0.08717169612646103, -0.06837332993745804,
        0.04859611764550209, -0.05254613980650902, -0.08499066531658173, -0.01136841718107462,
        -0.048397332429885864, 0.00025324986199848354, -0.20980747044086456, 0.07410160452127457
      ],
      [
        0.02609296515583992, 0.12695994973182678, 0.06475512683391571, -0.19422024488449097,
        -0.0509830117225647, -0.08424308896064758, 0.046924613416194916, -0.04871245101094246,
        -0.08798983693122864, -0.003343251533806324, -0.02650543674826622, 0.053419820964336395,
        -0.01890147104859352, -0.21862752735614777, -0.17549832165241241, -0.04720624163746834,
        0.02462032437324524, 0.06314036250114441, -0.05351004749536514, 0.025813909247517586,
        -0.04536394774913788, -0.027894441038370132, -0.16402551531791687, 0.006115872412919998,
        0.034063246101140976, 0.011434596963226795, -0.03281218558549881, -0.06388413906097412,
        0.07513261586427689, -0.06642500311136246, 0.0761750191450119, -0.06964905560016632,
        -0.0006020888104103506, -0.11735910177230835, -0.08632667362689972, 0.01587676629424095,
        0.04836326837539673, -0.08944050967693329, -0.029986286535859108, 0.08024509996175766,
        0.02239818312227726, 0.028917744755744934, 0.029283029958605766, -0.08027148246765137,
        -0.10346734523773193, -0.0540870726108551, -0.021899359300732613, -0.26236870884895325,
        0.08218452334403992, 0.01028184313327074, -0.05509570986032486, -0.02005208469927311,
        0.08408171683549881, -0.024220319464802742, -0.06656275689601898, -0.03345075249671936,
        0.004830839578062296, 0.08278727531433105, -0.08764732629060745, 0.025477034971117973,
        -0.03506974130868912, -0.0441625751554966, 0.08327684551477432, -0.037985384464263916,
        -0.07626252621412277, 0.18459029495716095, -0.04795995354652405, 0.04735999554395676,
        0.00515327462926507, -0.19172200560569763, -0.08772417902946472, -0.07750347256660461,
        -0.02590702474117279, -0.06258156895637512, -0.061592940241098404, -0.03175389766693115,
        -0.05064588785171509, -0.11573175340890884, -0.16702641546726227, -0.10229694843292236,
        0.06611761450767517, -0.13972683250904083, 0.19566597044467926, 0.04855179786682129,
        -0.052778489887714386, 0.03375165909528732, 0.03847991302609444, -0.042837657034397125,
        0.07974357157945633, -0.073643259704113, -0.13015693426132202, 0.10683177411556244,
        0.03692800924181938, -0.02946268953382969, -0.257981538772583, 0.026251407340168953,
        0.018241429701447487, 0.07843203097581863, -0.1638549417257309, -0.05859878659248352,
        -0.02339981310069561, -0.0785905197262764, 0.05171907693147659, 0.04177317023277283,
        0.014338020235300064, -0.047382425516843796, 0.018120208755135536, -0.014755073934793472,
        0.06660221517086029, 0.08135049790143967, -0.05470670014619827, 0.05540432780981064,
        -0.060130245983600616, 0.08275545388460159, 0.04242251068353653, 0.042283445596694946,
        0.06811785697937012, -0.033432088792324066, -0.05440371111035347, -0.20440222322940826,
        -0.025788120925426483, -0.0350891575217247, -0.12347488105297089, 0.030158882960677147,
        0.03734718635678291, 0.01035998109728098, -0.006770973093807697, -0.04853742942214012
      ],
      [
        0.019425852224230766, 0.035059377551078796, 0.08469801396131516, 0.006712152622640133,
        0.027417417615652084, -0.06906004995107651, -0.060651082545518875, -0.02942945621907711,
        -0.0007687057950533926, 0.07420583814382553, -0.015554831363260746, 0.028554996475577354,
        0.07886111736297607, -0.04471943899989128, -0.07510121166706085, -0.031595274806022644,
        -0.02479688636958599, -0.011296788230538368, 0.07741576433181763, 0.0355830155313015,
        0.006966336630284786, -0.0630248561501503, -0.049462758004665375, -0.06433093547821045,
        0.05958705022931099, -0.058929916471242905, -0.03580963611602783, 0.0833643227815628,
        -0.006310933735221624, -0.028880484402179718, 0.05853290855884552, -0.016302738338708878,
        0.058827631175518036, -0.07285483926534653, -0.0063870674930512905, -0.11804977059364319,
        -0.06659474968910217, -0.06159588322043419, -0.007894710637629032, 0.0073049021884799,
        -0.047942113131284714, -0.051146991550922394, -0.06189093366265297, 0.05028456076979637,
        0.016021931543946266, -0.07921512424945831, 0.030537215992808342, -0.07126940786838531,
        0.04643505811691284, -0.050847575068473816, 0.04340009763836861, -0.032361943274736404,
        0.032599397003650665, -0.07963356375694275, -0.055459942668676376, -0.010995842516422272,
        0.01871347799897194, -0.0728580579161644, -0.11329150944948196, -0.09977023303508759,
        -0.10968496650457382, 0.06095971539616585, 0.0006041877786628902, 0.05356989800930023,
        -0.02066447213292122, -0.1109781488776207, 0.06848658621311188, -0.08813337981700897,
        -0.08018489927053452, -0.008478322066366673, -0.04766590893268585, 0.019942570477724075,
        -0.0764894038438797, -0.06478910893201828, 0.03153196722269058, 0.03190714493393898,
        -0.011436989530920982, -0.04931066930294037, 0.00999105628579855, 0.06551814079284668,
        0.030393345281481743, -0.0668395385146141, -0.05120931193232536, 0.08179403096437454,
        -0.028814192861318588, 0.005859844386577606, 0.06775393337011337, -0.053271204233169556,
        0.023402780294418335, -0.07930286973714828, -0.04295409470796585, 0.007648587226867676,
        0.058222297579050064, -0.001787366927601397, -0.019497422501444817, -0.03063795529305935,
        0.07471174746751785, 0.08806782960891724, -0.01685016043484211, 0.03668205812573433,
        0.023688439279794693, -0.09381286799907684, -0.08187112212181091, -0.01764538511633873,
        -0.03179866820573807, -0.025383519008755684, -0.04637737572193146, 0.07555793225765228,
        -0.010454856790602207, -0.06892826408147812, -0.10779231041669846, 0.06159470975399017,
        -0.0910879597067833, 0.0199597105383873, 0.028866522014141083, -0.024408074095845222,
        0.06607532501220703, 0.057109177112579346, -0.024148890748620033, 0.04999923333525658,
        -0.09669294208288193, -0.030224716290831566, 0.007665150333195925, 0.02725452184677124,
        -0.029618939384818077, -0.0318320170044899, -0.07938416302204132, -0.021541213616728783
      ],
      [
        0.08723660558462143, 0.11412839591503143, 0.02026422508060932, 0.25752004981040955,
        -0.07571044564247131, -0.02240886725485325, 0.035587165504693985, 0.10243356227874756,
        0.05490604788064957, -0.02963477559387684, 0.008763488382101059, -0.007502823602408171,
        -0.07163582742214203, -0.5596891641616821, -0.08014779537916183, -0.058465130627155304,
        -0.07916688174009323, 0.0754266008734703, 0.04300018399953842, -0.022282429039478302,
        0.018199577927589417, 0.03593723848462105, -0.2234732210636139, -0.08713791519403458,
        -0.07051775604486465, 0.003494574222713709, 0.0560031495988369, -0.0734211802482605,
        -0.10107944905757904, -0.04564641788601875, 0.005934560671448708, 0.013368147425353527,
        0.03647690638899803, -0.248540461063385, -0.26409944891929626, 0.09402488172054291,
        -0.0040085758082568645, -0.07588867843151093, -0.07074024528265, 0.06365685909986496,
        -0.030828891322016716, 0.10895941406488419, 0.16394981741905212, 0.013346832245588303,
        0.04510103166103363, -0.013165442273020744, 0.10874684154987335, -0.017281943932175636,
        -0.06508532166481018, 0.031926050782203674, 0.10175401717424393, -0.047630082815885544,
        0.054504893720149994, -0.3851154148578644, 0.022176317870616913, 0.1937107890844345,
        -0.12371533364057541, -0.010938898660242558, -0.11598307639360428, 0.12990835309028625,
        0.08760011196136475, 0.0006351635092869401, 0.06207158789038658, 0.08522969484329224,
        0.058844923973083496, -0.2400602400302887, 0.04170149192214012, -0.39677175879478455,
        -0.06052929162979126, 0.09378425776958466, -0.38895419239997864, -0.0022866560611873865,
        -0.013841446489095688, 0.04211580753326416, 0.04125084728002548, 0.08796918392181396,
        0.030990293249487877, 0.024578049778938293, 0.044167228043079376, -0.15105317533016205,
        0.05654964968562126, -0.046541452407836914, 0.09835938364267349, 0.0039244722574949265,
        0.13617819547653198, 0.2211485654115677, -0.04454128444194794, -0.02861015498638153,
        -0.43613824248313904, -0.3277428150177002, -0.051271285861730576, 0.024261891841888428,
        -0.08651329576969147, -0.04752039164304733, -0.3289862871170044, 0.07853066921234131,
        -0.05570025369524956, -0.039089400321245193, 0.07024180144071579, -0.0649309903383255,
        0.17938371002674103, 0.15505436062812805, 0.008829648606479168, 0.11007185280323029,
        0.012422267347574234, 0.020265933126211166, 0.07964780926704407, 0.04011891037225723,
        -0.45329931378364563, 0.048479072749614716, -0.03400300815701485, -0.05863669514656067,
        0.016130663454532623, 0.05655937269330025, 0.06314657628536224, 0.004540016409009695,
        0.002167264698073268, -0.0056332312524318695, 0.08132553845643997, -0.1936158984899521,
        0.04443145915865898, -0.04893099516630173, -0.11372224241495132, -0.03387666866183281,
        -0.050036244094371796, -0.05020932853221893, -0.06196087226271629, 0.08671015501022339
      ],
      [
        0.08507838845252991, 0.04484487697482109, 0.025071853771805763, -0.05130064859986305,
        0.08367178589105606, -0.01938755065202713, 0.047923240810632706, 0.0687626451253891,
        -0.06618733704090118, -0.07012750953435898, 0.051764242351055145, -0.04434908553957939,
