{
  "model_type": "NeuralController",
  "input_features": 7,
  "output_classes": 6,
  "model_state_dict": {
    "shared_layers.0.weight": [
      [
        -0.07507593184709549, 0.1395665556192398, -0.27463066577911377, -0.2664315402507782,
        0.11048797518014908, -0.36733752489089966, -0.29821595549583435
      ],
      [
        -0.20780175924301147, -0.2778976559638977, 0.576898992061615, 0.2778520882129669,
        -0.07403842359781265, 0.42804405093193054, 0.7092795968055725
      ],
      [
        -0.06087782606482506, -0.26378321647644043, -0.19757600128650665, 0.41914743185043335,
        0.23353232443332672, -0.059592459350824356, 0.6742989420890808
      ],
      [
        -0.17893977463245392, 0.0898953527212143, -0.21356388926506042, 0.25283223390579224,
        -0.01730625331401825, 0.32738763093948364, 0.07980715483427048
      ],
      [
        0.20415495336055756, 0.21176613867282867, 0.04764494299888611, -0.20837871730327606,
        -0.017332660034298897, -0.20016039907932281, -0.3561226427555084
      ],
      [
        -1.6273157596588135, -0.03455095738172531, -1.2937391996383667, -0.508042573928833,
        0.3917469382286072, -0.08637198805809021, -0.19654956459999084
      ],
      [
        1.213589072227478, -0.8730157613754272, 0.328190416097641, -0.05094210058450699,
        0.13861185312271118, -0.2549489438533783, 0.29622527956962585
      ],
      [
        0.1463097780942917, -0.02701539359986782, -0.05691135674715042, -0.27879029512405396,
        0.05517897382378578, -0.19599023461341858, 0.019578931853175163
      ],
      [
        -1.0558587312698364, -0.6200526356697083, 0.12232456356287003, 0.5417944192886353,
        -0.2692578434944153, 0.21569687128067017, -0.10308671742677689
      ],
      [
        -0.2897558808326721, 0.06385017186403275, 0.040866732597351074, 0.2006801962852478,
        0.18318022787570953, 0.19657349586486816, 0.3287924528121948
      ],
      [
        -0.05712486431002617, -0.039617232978343964, 0.12121544778347015, -0.28926554322242737,
        0.1942480206489563, 0.010714923031628132, -1.5125571489334106
      ],
      [
        -2.148862838745117, 0.2107064574956894, -0.9239940643310547, -0.558383584022522,
        -0.13935844600200653, -0.14564450085163116, 0.33907103538513184
      ],
      [
        -0.11110172420740128, 0.032728057354688644, -0.37757188081741333, -0.31861716508865356,
        0.022814743220806122, -0.029198946431279182, 0.8222001194953918
      ],
      [
        0.4854317903518677, -0.08896764367818832, 0.0715172290802002, -0.3565319776535034,
        -0.07315947115421295, 0.017713051289319992, 0.4388355016708374
      ],
      [
        -0.08076472580432892, -0.29114946722984314, -0.04013347998261452, -0.4002576172351837,
        0.19182296097278595, 0.007453203666955233, 0.7642239928245544
      ],
      [
        -1.2070519924163818, -0.5047782063484192, -0.03694190829992294, 0.24557983875274658,
        -0.08104946464300156, -0.02122160606086254, -0.0783241018652916
      ],
      [
        0.035931505262851715, -0.0944109633564949, 0.25492361187934875, -0.020987628027796745,
        -0.1887141913175583, -0.24169418215751648, 0.06023207679390907
      ],
      [
        -0.21673864126205444, 0.02650432474911213, 0.29203474521636963, 0.12994293868541718,
        0.10961902141571045, -0.15734365582466125, 0.4841022491455078
      ],
      [
        0.25991711020469666, -0.19015541672706604, -0.1638285219669342, 0.00920102745294571,
        0.15505938231945038, 0.10882924497127533, -1.7982748746871948
      ],
      [
        -0.05752694979310036, -0.018966421484947205, 0.037896256893873215, -0.16899819672107697,
        -0.2037765234708786, 0.18445970118045807, -0.1364666372537613
      ],
      [
        0.19290123879909515, -0.01300463080406189, -0.22949759662151337, 0.13629597425460815,
        -0.2195877879858017, -0.17583297193050385, -0.10602085292339325
      ],
      [
        1.47808837890625, -0.061952050775289536, 0.5533679127693176, 0.06118805706501007,
        0.08599089086055756, -0.23635567724704742, 0.6487643122673035
      ],
      [
        0.5533702969551086, -0.16879624128341675, -0.41717880964279175, -0.4682058095932007,
        -0.11225439608097076, 0.19470761716365814, -0.42693546414375305
      ],
      [
        0.030855447053909302, 0.23735640943050385, 0.15243332087993622, 0.6407842636108398,
        -0.034046683460474014, 0.09365715831518173, 0.5916043519973755
      ],
      [
        0.5300948619842529, -0.007807563524693251, -0.25439590215682983, 0.3125179409980774,
        -0.1366266906261444, 0.14315171539783478, 0.773714542388916
      ],
      [
        -0.19006147980690002, 0.27509501576423645, 0.005534921772778034, -0.0934176817536354,
        -0.024366216734051704, -0.35286134481430054, -0.2724136412143707
      ],
      [
        0.8620506525039673, -0.02734583057463169, -0.01972062513232231, -0.045147184282541275,
        -0.061379507184028625, -0.2601260542869568, 0.7815400958061218
      ],
      [
        -0.9245860576629639, 0.20766671001911163, -0.05955176427960396, 0.0795372948050499,
        0.13763153553009033, -0.11148624122142792, -0.03425920009613037
      ],
      [
        -0.06931686401367188, -0.07403954863548279, 0.5635859966278076, 0.5813695192337036,
        0.09655406326055527, 0.14653407037258148, 0.8363900780677795
      ],
      [
        0.02615058235824108, 0.05659949779510498, -0.6148910522460938, -0.2841176986694336,
        -0.04577169567346573, -0.17803184688091278, -0.04351219907402992
      ],
      [
        0.17348825931549072, -0.24231867492198944, -0.17251624166965485, -0.2507370114326477,
        -0.1716163605451584, -0.19432899355888367, 0.10999824851751328
      ],
      [
        0.06368649005889893, 0.03178867697715759, 0.2812432050704956, -0.03659403324127197,
        0.0843246728181839, -0.1441963165998459, 0.72617506980896
      ],
      [
        -1.4261761903762817, 0.1938357949256897, -0.7404326796531677, -0.3410608768463135,
        0.08308902382850647, -0.32621532678604126, -0.0028440095484256744
      ],
      [
        -0.8298388719558716, -0.09781166166067123, -0.2364853322505951, 0.39603376388549805,
        0.20743151009082794, -0.4753342568874359, 0.41648930311203003
      ],
      [
        -0.03664182871580124, -0.026125328615307808, -0.11879502236843109, -0.14159636199474335,
        -0.24285313487052917, 0.22243732213974, -0.18873870372772217
      ],
      [
        0.3913107216358185, 0.12174239754676819, -0.5435497164726257, -0.48780354857444763,
        -0.006112538278102875, -0.0886635109782219, -1.0016067028045654
      ],
      [
        0.25873813033103943, -0.3681508004665375, 0.048930730670690536, -0.2538822889328003,
        -0.0026903459802269936, -0.07509259879589081, -0.2520645558834076
      ],
      [
        -0.13149458169937134, -0.0011024681152775884, 0.13759420812129974, -0.1412322223186493,
        0.24336430430412292, -0.03933929279446602, -1.953318476676941
      ],
      [
        -0.12927928566932678, -0.11960356682538986, -0.08904165029525757, 0.05556422472000122,
        -0.04006989300251007, 0.04234876111149788, -2.5165703296661377
      ],
      [
        -0.2816542685031891, 0.11257005482912064, -0.12805533409118652, -0.1136137917637825,
        -0.0033445267472416162, -0.26077303290367126, -0.07736549526453018
      ],
      [
        -0.406229168176651, 0.016666576266288757, 0.2865999639034271, 0.4881877899169922,
        0.24608461558818817, -0.07182563096284866, 0.028130630031228065
      ],
      [
        -1.1473413705825806, 0.04246428608894348, 0.0413699634373188, 0.35098108649253845,
        -0.018402541056275368, 0.006748894229531288, 0.04762250557541847
      ],
      [
        -0.4713696241378784, 0.17150254547595978, 0.03294239193201065, 0.44202548265457153,
        -0.09300900250673294, 0.07462311536073685, -0.9626629948616028
      ],
      [
        -1.1368597745895386, -0.0002425205457257107, -1.2403604984283447, -0.6053797006607056,
        0.028665155172348022, 0.3547101616859436, -0.0006537979934364557
      ],
      [
        0.005984945222735405, 0.05912506580352783, 0.13894027471542358, -0.29479458928108215,
        0.23536373674869537, -0.14109644293785095, -2.1999499797821045
      ],
      [
        -0.4303809404373169, -0.08577904850244522, 0.24170666933059692, -0.2895713448524475,
        0.31251633167266846, -0.287788450717926, -1.8221731185913086
      ],
      [
        0.28953835368156433, -0.2622396945953369, -0.2584749758243561, -0.014034438878297806,
        0.2700173258781433, -0.15992841124534607, 0.02890251763164997
      ],
      [
        0.48797646164894104, -0.0764068216085434, -0.2954186499118805, 0.21296089887619019,
        0.37015947699546814, -0.06636751443147659, -2.3635284900665283
      ],
      [
        -0.7872915267944336, -0.016885999590158463, 0.22279274463653564, 0.2568856477737427,
        0.3057723045349121, -0.29499581456184387, -1.952642560005188
      ],
      [
        0.4126487374305725, 0.5808010697364807, -0.14297892153263092, 0.13335980474948883,
        -0.2131110429763794, -0.20236735045909882, 0.6131277680397034
      ],
      [
        -0.450926810503006, 0.0786171406507492, -0.116239994764328, 0.16607525944709778,
        0.0657852441072464, -0.18731753528118134, 0.06031026691198349
      ],
      [
        0.49557915329933167, -0.0645982101559639, -0.23642519116401672, -0.18550725281238556,
        -0.21423335373401642, 0.1608331948518753, 0.684660017490387
      ],
      [
        1.570013403892517, -0.06727499514818192, 0.6183693408966064, 0.204691544175148,
        -0.5007812976837158, 0.15124136209487915, -0.014174382202327251
      ],
      [
        -0.016579637303948402, -0.2391091287136078, -0.3248048722743988, 0.03308986499905586,
        -0.06109856069087982, 0.3037150502204895, -1.9304395914077759
      ],
      [
        -0.41042855381965637, -0.0943531021475792, 0.3455321490764618, 0.39051732420921326,
        -0.25064268708229065, 0.3991605043411255, 0.6103225350379944
      ],
      [
        0.3657626509666443, 0.3198873698711395, -0.08418191969394684, -0.05976955592632294,
        -0.33965420722961426, 0.24197764694690704, -0.62459796667099
      ],
      [
        -0.005800560116767883, -0.35216113924980164, -0.16642840206623077, 0.297434002161026,
        -0.3154623508453369, 0.15019407868385315, 0.16297493875026703
      ],
      [
        0.21733005344867706, -0.9741569757461548, -0.16656431555747986, -0.019936762750148773,
        0.1689961552619934, 0.33752021193504333, -0.027316413819789886
      ],
      [
        -0.07261858135461807, 0.01786188594996929, 0.4893932044506073, 0.27547889947891235,
        -0.29225096106529236, 0.4798688590526581, -0.11102201044559479
      ],
      [
        0.3511861264705658, -0.15763291716575623, 0.02881612442433834, 0.07855395972728729,
        -0.12023242563009262, -0.07807450741529465, -0.3750836253166199
      ],
      [
        0.37126946449279785, 0.014280349016189575, 0.4910220205783844, 0.4556030035018921,
        -0.21005891263484955, 0.05786491557955742, 0.7742894291877747
      ],
      [
        -0.18593323230743408, 0.25813430547714233, -0.0530519038438797, 0.33300328254699707,
        -0.3608381748199463, -0.36924493312835693, -0.0796925500035286
      ],
      [
        -0.38672900199890137, 0.008838186971843243, 0.12214875221252441, 0.17388713359832764,
        0.11363042145967484, -0.2496127039194107, -2.0758345127105713
      ],
      [
        -0.4296937882900238, -0.0494963712990284, -0.18717119097709656, -0.42819666862487793,
        0.21234585344791412, 0.19949465990066528, -2.04948091506958
      ],
      [
        0.3674669563770294, 0.22557243704795837, -0.3445330560207367, -0.17614318430423737,
        0.13531287014484406, 0.18159818649291992, -1.532166838645935
      ],
      [
        0.04463168606162071, 0.10363353788852692, -0.0063987248577177525, 0.05147693678736687,
        0.3237861394882202, -0.37995368242263794, -0.7995050549507141
      ],
      [
        0.4677998423576355, -0.12610024213790894, -0.19616572558879852, -0.13551141321659088,
        -0.29441970586776733, 0.2735072672367096, 0.8349183201789856
      ],
      [
        -0.250603049993515, 0.21158918738365173, -0.3535281717777252, -0.10068171471357346,
        -0.2257412075996399, -0.1548975110054016, -0.23570086061954498
      ],
      [
        -0.05591666325926781, 0.28345218300819397, 0.04118657857179642, -0.06668242067098618,
        -0.16765311360359192, -0.35810279846191406, -0.14880992472171783
      ],
      [
        -2.5832033157348633, -0.20589891076087952, -1.358754277229309, -0.6007412075996399,
        0.10850004851818085, 0.40620410442352295, 0.3540036082267761
      ],
      [
        -1.9893404245376587, 0.09019390493631363, -1.059788703918457, -0.5258187055587769,
        -0.029421886429190636, -0.03315495327115059, 0.017301863059401512
      ],
      [
        -1.459273099899292, -0.8857695460319519, -0.8196966052055359, -0.6209059953689575,
        0.1778380274772644, -0.03177545592188835, -0.17946623265743256
      ],
      [
        -0.013768968172371387, -0.004656664561480284, 0.0056183417327702045, -0.24033117294311523,
        -0.10332600027322769, 0.1980959177017212, -2.3907692432403564
      ],
      [
        0.5839483737945557, 0.44954976439476013, -0.2460961490869522, 0.22102990746498108,
        -0.3091587722301483, 0.38654735684394836, 0.15019458532333374
      ],
      [
        -0.18295948207378387, -0.20699875056743622, 0.1828938126564026, 0.26614147424697876,
        0.16795724630355835, 0.07876752316951752, -1.5466933250427246
      ],
      [
        -0.09513385593891144, 0.06546507030725479, 0.008875753730535507, -0.18658921122550964,
        -0.3520565927028656, 0.15260609984397888, -0.14239242672920227
      ],
      [
        0.0643119364976883, -0.009020310826599598, -0.17084160447120667, -0.18185608088970184,
        0.089787058532238, -0.12374823540449142, 0.43084874749183655
      ],
      [
        -0.30086594820022583, 0.1995924860239029, -0.20501647889614105, 0.15544798970222473,
        0.17229166626930237, 0.08915538340806961, -1.1949961185455322
      ],
      [
        0.12937036156654358, 0.012413845397531986, 0.25849083065986633, -0.26467570662498474,
        -0.3245503604412079, -0.2877087891101837, -0.17207707464694977
      ],
      [
        0.057774174958467484, -0.0017080084653571248, -0.402544230222702, 0.06956954300403595,
        0.27081575989723206, -0.15271808207035065, 0.7064256072044373
      ],
      [
        -0.38240543007850647, -0.0017429676372557878, -0.08945918083190918, 0.011402977630496025,
        0.1701178252696991, 0.1755412071943283, -1.5071330070495605
      ],
      [
        0.4720565974712372, 0.1554466038942337, -0.07204969227313995, 0.09302645921707153,
        -0.10155273228883743, -0.1288156807422638, 0.7170662879943848
      ],
      [
        0.482094407081604, 0.3675612509250641, 0.1704241782426834, 0.2633388638496399,
        -0.3175089359283447, -0.017965348437428474, 0.6522165536880493
      ],
      [
        0.7228564023971558, -0.19388817250728607, 0.007649356499314308, -0.5201219320297241,
        0.18779870867729187, 0.10576964914798737, 0.19018054008483887
      ],
      [
        0.20642220973968506, -0.3449174761772156, -0.3567962348461151, 0.4144873321056366,
        -0.06626259535551071, -0.036329470574855804, 0.6099058985710144
      ],
      [
        0.09255416691303253, 0.20217590034008026, -0.7644826173782349, -0.16063441336154938,
        0.17318624258041382, -0.375554621219635, -0.08830800652503967
      ],
      [
        0.13310441374778748, 0.15294384956359863, 0.07424066215753555, 0.035108182579278946,
        -0.2055380642414093, -0.2660723328590393, -0.1485922634601593
      ],
      [
        0.3181321918964386, -0.2862211763858795, -0.09993007034063339, 0.3776269853115082,
        -0.010933006182312965, -0.337208092212677, -0.3243876099586487
      ],
      [
        -0.25284478068351746, -0.1512666493654251, 0.06148079037666321, -0.1292036473751068,
        0.3086552619934082, -0.34211984276771545, -1.4955086708068848
      ],
      [
        -0.32369670271873474, 0.05508013814687729, -0.1939772665500641, -0.012780665419995785,
        0.2243345081806183, -0.08303208649158478, -2.5420682430267334
      ],
      [
        1.0956707000732422, -0.06276675313711166, 0.6155847907066345, -0.05866071581840515,
        -0.1287388801574707, 0.08696375042200089, 0.7383143305778503
      ],
      [
        0.15523825585842133, 0.09386425465345383, -0.30963701009750366, 0.2463269680738449,
        0.11859533190727234, -0.20622169971466064, -1.952781081199646
      ],
      [
        0.4367939531803131, 0.20787258446216583, 0.22066305577754974, 0.15882979333400726,
        0.17994309961795807, -0.3711475431919098, 0.7944431304931641
      ],
      [
        0.03553951159119606, -0.34037986397743225, 0.036655526608228683, -0.07761700451374054,
        -0.2592313587665558, 0.37658339738845825, -0.1870442032814026
      ],
      [
        -0.1816795915365219, 0.10568179935216904, -0.22169916331768036, -0.22990436851978302,
        -0.11249012500047684, 0.10627984255552292, -0.07114966958761215
      ],
      [
        0.19828927516937256, -0.093574658036232, -0.23329207301139832, 0.05556076020002365,
        -0.3177039623260498, -0.27235448360443115, -0.14218981564044952
      ],
      [
        -1.880211591720581, -0.07800915837287903, -0.6527183055877686, 0.04040203616023064,
        -0.3152713179588318, 0.030415570363402367, 0.5868600010871887
      ],
      [
        -0.7866535782814026, -0.019819799810647964, -0.07089804857969284, 0.17616289854049683,
        0.20839783549308777, -0.09205446392297745, 0.3663291037082672
      ],
      [
        -0.38861018419265747, -0.03809596598148346, -0.08444660902023315, 0.04388854280114174,
        0.21346524357795715, 0.2076895833015442, -1.973040223121643
      ],
      [
        0.08305156975984573, 0.04813919588923454, -0.17913730442523956, -0.33678653836250305,
        -0.0215438324958086, 0.10486122965812683, -0.7449824213981628
      ],
      [
        0.3447417914867401, -0.047599345445632935, -0.13838958740234375, -0.15288753807544708,
        0.18752293288707733, -0.11378920078277588, -0.257308691740036
      ],
      [
        -0.4259905517101288, 0.06299880146980286, 0.25521713495254517, 0.14240990579128265,
        -0.057042136788368225, 0.11338362097740173, -2.7115728855133057
      ],
      [
        -0.01928398199379444, -0.16457578539848328, 0.23991930484771729, 0.3457868993282318,
        -0.1322997510433197, -0.03553387522697449, 0.562148928642273
      ],
      [
        0.17627862095832825, 0.10883443057537079, 0.11987850069999695, -0.2185407131910324,
        -0.200945645570755, -0.11315750330686569, -0.28245043754577637
      ],
      [
        0.529063880443573, -0.8087213039398193, 0.33860957622528076, -0.3321191668510437,
        0.40538495779037476, -0.1286655068397522, 0.5572291016578674
      ],
      [
        0.3424684405326843, 0.38838687539100647, 0.32455384731292725, 0.027290433645248413,
        0.028092235326766968, -0.27661705017089844, 1.3059200048446655
      ],
      [
        -0.4331868886947632, 0.17251694202423096, -0.059487976133823395, 0.3271867632865906,
        -0.0006873360835015774, 0.016298571601510048, -2.500502347946167
      ],
      [
        -0.7359131574630737, 0.22037187218666077, -0.26508015394210815, 0.30140212178230286,
        -0.3723880648612976, 0.43789583444595337, -0.6944975852966309
      ],
      [
        -0.6968628168106079, 0.15222640335559845, 0.09528638422489166, 0.536510705947876,
        -0.3945985436439514, 0.2993720769882202, -0.0219829510897398
      ],
      [
        -0.4176672101020813, 0.15702487528324127, 0.5300838351249695, 0.6526262760162354,
        -0.2055714875459671, 0.19629564881324768, 0.21928770840168
      ],
      [
        -0.7250750660896301, -0.4647265374660492, -0.19901704788208008, 0.45108261704444885,
        0.26651641726493835, 0.021644989028573036, -0.09495041519403458
      ],
      [
        -0.22373536229133606, -0.18765567243099213, 0.11953836679458618, 0.2305477410554886,
        -0.045850373804569244, -0.3391742706298828, 0.024659808725118637
      ],
      [
        -0.4088417589664459, 0.16737210750579834, -1.054518461227417, -0.515220046043396,
        -0.00575706921517849, 0.05643441900610924, -0.5082964897155762
      ],
      [
        -0.11458935588598251, 0.07984843105077744, -0.30689722299575806, 0.3523021340370178,
        -0.27225765585899353, -0.27236607670783997, -0.10107824951410294
      ],
      [
        0.24856168031692505, -0.07480619847774506, -0.12579470872879028, 0.12923824787139893,
        -0.12744508683681488, 0.1073426902294159, 0.7978954911231995
      ],
      [
        0.2888490557670593, -0.010576155036687851, -0.3340386152267456, 0.1664692908525467,
        -0.09482985734939575, -0.29955652356147766, -0.0728871077299118
      ],
      [
        0.2608090341091156, 0.0010891144629567862, 0.4304790794849396, -0.04499248415231705,
        -0.3558300733566284, 0.1980036497116089, 0.8704372644424438
      ],
      [
        -0.046559303998947144, -0.013886435888707638, -0.5247715711593628, 0.017425358295440674,
        -0.34164613485336304, 0.24697624146938324, 0.7080861330032349
      ],
      [
        -0.6546341180801392, 0.19295375049114227, -0.49572962522506714, -0.4608403444290161,
        0.17766040563583374, -0.27774763107299805, 0.6115476489067078
      ],
      [
        -0.8029929995536804, -0.7433953881263733, 0.0419660285115242, 0.20681734383106232,
        0.0430002324283123, 0.11185625940561295, -0.018249517306685448
      ],
      [
        2.5307323932647705, -0.8578827381134033, -0.2012263685464859, 0.1278059482574463,
        -0.06734616309404373, -0.2714584469795227, 0.2871053218841553
      ],
      [
        -0.4152410924434662, -0.7913981080055237, 0.2725820541381836, 0.19049054384231567,
        0.13615576922893524, -0.1462676227092743, 0.3318522572517395
      ],
      [
        -0.2685346007347107, 0.0352555587887764, 0.089540496468544, -0.3105928897857666,
        0.22789674997329712, -0.24124623835086823, 0.03978477790951729
      ],
      [
        -0.31804051995277405, -0.11774879693984985, 0.27623310685157776, 0.3967527449131012,
        -0.023282714188098907, 0.06104007735848427, 0.5261308550834656
      ],
      [
        -0.8872737288475037, 0.07051784545183182, 0.28710711002349854, 0.5625512599945068,
        0.08674480766057968, -0.10160811990499496, -1.127504587173462
      ],
      [
        -0.04946747422218323, 0.11920129507780075, 0.28866875171661377, 0.4656250774860382,
        -0.008978243917226791, 0.18926027417182922, 0.44046276807785034
      ],
      [
        0.14777877926826477, 0.0014215541305020452, 0.05032934620976448, -0.06516064703464508,
        0.16645552217960358, 0.06939022988080978, -1.7530732154846191
      ],
      [
        -0.018809037283062935, -0.31391963362693787, -0.35483938455581665, -0.3719887137413025,
        0.12873466312885284, 0.29060742259025574, -0.03765813261270523
      ]
    ],
    "shared_layers.0.bias": [
      -0.35020074248313904, -0.25034335255622864, 0.06870753318071365, -0.48195338249206543,
      -0.010978062637150288, 0.36391323804855347, -0.16245439648628235, 0.13317929208278656,
      0.11068088561296463, -0.5240209698677063, 0.09904099255800247, 0.288091242313385,
      0.15726497769355774, 0.08505386114120483, -0.04657694324851036, 0.14916935563087463,
      -0.16843432188034058, -0.025836780667304993, 0.11781493574380875, -0.10252250730991364,
      0.11230187118053436, -0.15130244195461273, 0.06809854507446289, -0.33209294080734253,
      -0.2051587849855423, -0.04341622069478035, 0.15746745467185974, -0.1665724515914917,
      -0.3405216336250305, 0.1947791427373886, -0.2495715618133545, 0.005349938757717609,
      0.4639999270439148, 0.3457770049571991, -0.2878345549106598, 0.09539684653282166,
      -0.2789871394634247, 0.07296513766050339, 0.39660248160362244, 0.05967395752668381,
      -0.2789391875267029, -0.105069100856781, -0.12753447890281677, 0.32751700282096863,
      0.2027169018983841, 0.30287230014801025, 0.13468150794506073, -0.008914463222026825,
      0.08492793887853622, -0.15629783272743225, 0.014898769557476044, 0.012463992461562157,
      0.11751455813646317, 0.2472935914993286, -0.16477735340595245, 0.09017159044742584,
      0.04385945200920105, -0.2704770565032959, -0.18077166378498077, -0.1714700609445572,
      -0.018879491835832596, 0.07147610932588577, 0.28125134110450745, 0.1433338224887848,
      -0.02801993116736412, -0.1477833390235901, -0.06651357561349869, 0.17745961248874664,
      0.11540773510932922, 0.2598210275173187, 0.4829934239387512, 0.1226239949464798,
      0.30399584770202637, -0.34061703085899353, -0.23017185926437378, -0.08733522891998291,
      -0.02478802762925625, -0.22875311970710754, -0.33200398087501526, -0.27526476979255676,
      -0.14698655903339386, -0.09130452573299408, -0.2709304988384247, 0.005536012351512909,
      0.3216361403465271, -0.038287825882434845, -0.08394690603017807, -0.1325521469116211,
      0.2092115432024002, 0.16428932547569275, -0.23785030841827393, 0.23836593329906464,
      0.1534440666437149, -0.32284894585609436, -0.19431579113006592, -0.039458468556404114,
      0.27353814244270325, -0.1646328568458557, -0.15509285032749176, 0.012727629393339157,
      -0.17682620882987976, -0.16337721049785614, 0.1173047423362732, -0.03092595748603344,
      -0.2871500253677368, 0.14955201745033264, 0.1875649243593216, -0.11039615422487259,
      -0.12772098183631897, -0.2339070588350296, -0.3426744043827057, -0.10113484412431717,
      -0.00941548403352499, 0.31990328431129456, 0.12418511509895325, -0.23430904746055603,
      0.09172161668539047, 0.08651547878980637, 0.35718634724617004, 0.015397817827761173,
      0.34844252467155457, 0.16863073408603668, -0.11477354168891907, -0.021421976387500763,
      -0.08501530438661575, -0.3882284164428711, 0.0059151905588805676, -0.3480650782585144
    ],
    "shared_layers.2.weight": [
      [
        0.030395442619919777, 0.1319841891527176, -0.04929311200976372, 0.25175461173057556,
        0.06356284022331238, 0.16721324622631073, -0.4523102939128876, 0.0846908912062645,
        -0.0064328815788030624, 0.0941748172044754, -0.3456783592700958, 0.23828424513339996,
        -0.22716322541236877, 0.04092855751514435, -0.19361557066440582, 0.004440360236912966,
        -0.07476425915956497, -0.004238648805767298, -0.15978284180164337, 0.011067952029407024,
        0.00902651622891426, -0.24005843698978424, 0.14049729704856873, 0.03322174772620201,
        -0.40894192457199097, 0.0030636016745120287, -0.4119497239589691, 0.2343863844871521,
        -0.1381104290485382, 0.08731286227703094, 0.06543301045894623, -0.035237982869148254,
        0.19838261604309082, -0.2693344056606293, -0.05251442268490791, 0.050179313868284225,
        -0.0016213891794905066, 0.5059065818786621, -0.4088986814022064, 0.03534917160868645,
        0.010063867084681988, -0.014794109389185905, 0.1857062727212906, 0.3942050635814667,
        -0.5578460097312927, -0.5489099025726318, -0.11633728444576263, -0.5815572142601013,
        0.20308315753936768, -0.237521693110466, 0.15288704633712769, 0.16253487765789032,
        -0.013709708116948605, -0.04569753631949425, -0.01982671208679676, -0.08049345016479492,
        -0.00018721571541391313, 0.22084426879882812, 0.10816030949354172, -0.06330668181180954,
        -0.14057308435440063, -0.07431963086128235, 0.2999413013458252, -0.10572253167629242,
        -0.10616728663444519, 0.7265540361404419, 0.6384299993515015, -0.04600723460316658,
        -0.0514579601585865, 0.3046078681945801, 0.3196914494037628, 0.3890259861946106,
        -0.3158142566680908, -0.09679026901721954, 0.2644869387149811, -0.006376080680638552,
        -0.20456375181674957, -0.004844979383051395, -0.03092164546251297, -0.26442646980285645,
        -0.2701468765735626, -0.20960232615470886, -0.4734223186969757, -0.055056922137737274,
        -0.08876390755176544, -0.12000032514333725, -0.05954544618725777, 0.015224505215883255,
        -0.02261757105588913, -0.5962033867835999, -0.40437835454940796, -0.5004184246063232,
        -0.14682000875473022, -0.02987872250378132, -0.07136789709329605, 0.037247855216264725,
        0.08509086072444916, 0.1861695498228073, -0.1519930511713028, 0.1360688954591751,
        0.03462737426161766, 0.8868452310562134, 0.047169942408800125, -0.007769592106342316,
        -0.8303893804550171, -0.041864678263664246, 0.575475811958313, 0.2823787331581116,
        0.19278445839881897, 0.02690873108804226, 0.08835821598768234, 0.0362054705619812,
        0.36141377687454224, -0.18001092970371246, 0.05057436600327492, 0.03249671682715416,
        -0.001927220611833036, 0.22807122766971588, -0.03353109955787659, -0.036984436213970184,
        -0.3835149109363556, -0.07999755442142487, -0.05999536067247391, -0.008863386698067188,
        0.12114977091550827, 0.034027114510536194, 1.3808280229568481, 0.0638156607747078
      ],
      [
        0.06922335177659988, -0.0005719197215512395, -0.08523547649383545, -0.020735230296850204,
        -0.034482769668102264, -0.002683616243302822, -0.05131599307060242, 0.060258183628320694,
        0.003099495777860284, -0.05859130993485451, -0.07955572754144669, 0.07776402682065964,
        -0.01832219772040844, 0.0447767935693264, -0.04147922620177269, 0.03638269752264023,
        0.00804702378809452, 0.03055615909397602, -0.07178141176700592, -0.06621550768613815,
        0.055590953677892685, 0.03908739984035492, 0.0117945009842515, 0.04324284940958023,
        -0.06912729889154434, 0.054243940860033035, 0.07519115507602692, -0.08066808432340622,
        -0.06498953700065613, -0.050730299204587936, -0.042331598699092865, -0.02996562048792839,
        -0.06330523639917374, 0.04402028024196625, 0.010070230811834335, -0.08167770504951477,
        -0.05061577260494232, 0.02002161554992199, -0.0422070175409317, 0.08460532873868942,
        -0.0756223127245903, -0.06873616576194763, -0.10422773659229279, 0.0008596586994826794,
        0.03210759907960892, 0.003325514728203416, -0.04981919750571251, -0.04874265566468239,
        -0.02237483114004135, -0.021303286775946617, -0.0979064553976059, 0.033560123294591904,
        0.0020725519862025976, -0.11545872688293457, 0.021326987072825432, -0.030090393498539925,
        -0.021689515560865402, 0.06928636133670807, -0.00012821023119613528, 0.05687597021460533,
        0.052965860813856125, -0.026371292769908905, -0.10184720158576965, 0.010163616389036179,
        -0.12025323510169983, 0.021156296133995056, -0.013281111605465412, 0.026812423020601273,
        0.012159354984760284, -0.04959053918719292, 0.019086653366684914, -0.08585907518863678,
        -0.0918615460395813, -0.07233688235282898, 0.037350136786699295, 0.08553444594144821,
        -0.006410561967641115, -0.09000711888074875, -0.021681349724531174, -0.04988035932183266,
        -0.08344334363937378, -0.053499676287174225, 0.07014863193035126, -0.10524329543113708,
        -0.04161880537867546, 0.022398333996534348, -0.03609567880630493, -0.07415936142206192,
        -0.07399042695760727, -0.01322243083268404, -0.03415379300713539, 0.06428036093711853,
        0.05718469247221947, -0.014699704013764858, -0.08184725046157837, 0.08291243761777878,
        0.07455704361200333, 0.05987289547920227, -0.045906390994787216, -0.1041429191827774,
        -0.04258693382143974, 0.010820108465850353, -0.09979456663131714, -0.08393699675798416,
        -0.08278864622116089, -0.06159225478768349, -0.018410958349704742, 0.04318511113524437,
        0.033458810299634933, -0.061261508613824844, 0.04753145948052406, -0.03254617378115654,
        -0.033429741859436035, -0.03383325785398483, 0.013984053395688534, 0.0838366448879242,
        -0.020991625264286995, -0.003405505558475852, -0.021223019808530807, 0.05674435570836067,
        0.035088952630758286, 0.025837162509560585, -0.09258191287517548, -0.026022756472229958,
        0.03922787308692932, -0.08414088189601898, -0.044627297669649124, 0.008976403623819351
      ],
      [
        0.0502312034368515, 0.11435764282941818, -0.06831096857786179, 0.11780469119548798,
        -0.06807611882686615, -0.33007144927978516, 0.1840280443429947, -0.13215966522693634,
        0.2097814381122589, 0.1249152347445488, 0.10923569649457932, -0.0651758536696434,
        -0.23323805630207062, 0.10684514045715332, -0.22206930816173553, 0.04240676760673523,
        -0.023449620231986046, -0.037019167095422745, 0.1786838173866272, -0.002499908674508333,
        0.07708647102117538, -0.028767364099621773, -0.04386172443628311, 0.07301603257656097,
        0.11371774971485138, -0.026819651946425438, 0.19831210374832153, 0.08695702254772186,
        -0.08471788465976715, 0.08895222842693329, 0.0588228702545166, -0.12314268201589584,
        -0.20739951729774475, -0.12704314291477203, -0.04727369546890259, 0.08377009630203247,
        0.025560230016708374, 0.6102980375289917, 0.7718877792358398, 0.023590771481394768,
        0.05376959592103958, 0.07317329943180084, 0.06953902542591095, -0.17710857093334198,
        0.42356058955192566, 0.24138812720775604, -0.09873516857624054, 0.5157629251480103,
        0.07390639185905457, 0.12827971577644348, 0.08908189833164215, -0.11936584115028381,
        -0.2847624123096466, 0.2990826368331909, 0.07252472639083862, 0.09700720012187958,
        0.1510184407234192, -0.19099654257297516, 0.1722031831741333, -0.015436430461704731,
        -0.0018450607312843204, 0.002197315450757742, 0.0655023530125618, 0.22413478791713715,
        0.19249223172664642, -0.013421469368040562, -0.11699827015399933, -0.04840269312262535,
        -0.006345671601593494, -0.2203984409570694, -0.18243610858917236, -0.26867586374282837,
        0.6785148978233337, 0.1547597497701645, 0.2140958160161972, 0.06499193608760834,
        -0.08440440148115158, 0.23860567808151245, 0.04143731668591499, 0.15329834818840027,
        0.6586244702339172, 0.10767670720815659, 0.017612896859645844, 0.02357250265777111,
        -0.10021447390317917, 0.14271284639835358, -0.05948998034000397, -0.08424162119626999,
        -0.3693784475326538, 0.41479745507240295, -0.008532284758985043, 0.23067951202392578,
        -0.1430521458387375, 0.031642504036426544, -0.04029235616326332, -0.018912892788648605,
        0.07899397611618042, 0.12591274082660675, 0.6761011481285095, 0.2379050999879837,
        0.08252427726984024, 1.1196073293685913, -0.09772889316082001, -0.03247193247079849,
        0.033836834132671356, -0.2343989908695221, 0.7860445976257324, 0.6021478772163391,
        0.08392268419265747, 0.1405152976512909, 0.09844769537448883, -0.058126308023929596,
        0.0932585597038269, 0.12952063977718353, -0.10216442495584488, 0.03848278149962425,
        -0.01341311726719141, -0.15350235998630524, -0.2115231305360794, 0.09471649676561356,
        -0.17633211612701416, 0.08052583038806915, 0.014291828498244286, 0.03217058256268501,
        0.16770802438259125, -0.05065346136689186, 1.0900312662124634, 0.03274427726864815
      ],
      [
        0.02276149019598961, 0.18094666302204132, 0.176397904753685, -0.05777041241526604,
        -0.0692657008767128, -0.2693999707698822, -0.20288731157779694, 0.007553841453045607,
        0.10967980325222015, -0.05481499060988426, -0.5191587209701538, -0.18688204884529114,
        -0.4354093372821808, 0.03098481334745884, -0.22604916989803314, 0.01720920205116272,
        0.037835732102394104, 0.1913025677204132, -0.2954767942428589, 0.012358615174889565,
        0.021131154149770737, -0.19241979718208313, -0.08682386577129364, 0.08136667311191559,
        -0.11303339898586273, -0.012222195975482464, -0.044820696115493774, 0.06417359411716461,
        0.26912742853164673, -0.02376713976264, 0.06017737463116646, 0.13437359035015106,
        0.09011103957891464, 0.43011748790740967, -0.023100635036826134, -0.15196308493614197,
        0.03415185585618019, -1.5357866287231445, -1.1683048009872437, 0.010661129839718342,
        0.12375059723854065, 0.050841111689805984, -0.08716815710067749, -0.3723004460334778,
        -0.7339054346084595, -0.3489423394203186, 0.07945409417152405, -0.791750431060791,
        -0.18522068858146667, -0.26564592123031616, 0.05942005664110184, -0.5237057209014893,
        0.37086841464042664, -0.4996336102485657, 0.15641653537750244, -0.10211741179227829,
        0.0012918395223096013, -0.5292617082595825, -0.03994861617684364, -0.019201556220650673,
        0.1539204716682434, 0.04379105940461159, -0.30475571751594543, -0.5718856453895569,
        -0.3263970911502838, -0.3088851869106293, -0.8710596561431885, 0.048582397401332855,
        -0.029872041195631027, -0.402965784072876, -0.1720905303955078, -0.2249954640865326,
        -1.4503918886184692, -0.09768850356340408, -0.42369964718818665, -0.04019862040877342,
        -0.07085243612527847, -0.11324558407068253, -7.143890798033681e-6, -0.13666096329689026,
        -1.0267400741577148, -0.10899236053228378, -0.05650290846824646, -0.006808225531131029,
        0.2038557529449463, 0.06789227575063705, -0.08380212634801865, -0.06206706166267395,
        -0.012831689789891243, -0.6583535671234131, -0.0722552016377449, -0.36072126030921936,
        0.270190566778183, 0.017640700563788414, 0.03941740840673447, 0.05458062142133713,
        -0.31423696875572205, 0.015872841700911522, -0.8770603537559509, -0.37290897965431213,
        0.07386830449104309, -1.5472943782806396, 0.060381390154361725, 0.012721404433250427,
        -0.18999867141246796, 0.31946930289268494, -0.9723411202430725, -0.3244715929031372,
        -0.07909794896841049, 0.09789008647203445, 0.02654607966542244, -0.039163924753665924,
        -0.339711993932724, 0.03237318992614746, 0.3209230303764343, 0.07882487773895264,
        0.05483410507440567, -0.7626252174377441, 0.31683632731437683, -0.05500045418739319,
        0.07245519757270813, 0.1900469809770584, -0.010717511177062988, 0.03776581585407257,
        -0.02013806253671646, 0.07586353272199631, -2.7166218757629395, -0.051982469856739044
      ],
      [
        -0.06959987431764603, 0.21780447661876678, 0.13178768754005432, 0.19850271940231323,
        -0.016809584572911263, -1.6989330053329468, 0.14464125037193298, 0.05048329755663872,
        0.29316818714141846, 0.28454187512397766, -0.018608473241329193, -1.03786039352417,
        -0.7096214294433594, 0.09145479649305344, -1.0040258169174194, 0.019624827429652214,
        -0.05260388180613518, 0.08327202498912811, 0.47026532888412476, 0.07435958832502365,
        0.058253657072782516, 0.02526499703526497, -0.8568860292434692, 0.36231768131256104,
        -0.04466291889548302, 0.07066468894481659, 0.020103899762034416, 0.17206621170043945,
        0.13750532269477844, -0.7073070406913757, -0.029456431046128273, 0.08213301002979279,
        -1.1489953994750977, -0.09205871820449829, 0.0056836288422346115, -0.4143616557121277,
        0.08777455985546112, 0.3068807125091553, 0.7371835112571716, -0.01608097180724144,
        0.23524446785449982, 0.19201426208019257, 0.207628071308136, -1.4609929323196411,
        0.5145913362503052, 0.17239752411842346, 0.13245820999145508, 0.6104615330696106,
        0.13420450687408447, -0.19067397713661194, 0.09599711000919342, -0.7021375298500061,
        -0.5228257775306702, 0.5223562121391296, 0.2930048108100891, 0.39883801341056824,
        0.2801550328731537, -0.5011321902275085, 0.38856157660484314, -0.035310208797454834,
        0.125484436750412, -0.043018221855163574, 0.2825440466403961, 0.022521844133734703,
        0.4108194410800934, 0.2712610960006714, 0.4792667329311371, 0.001979860942810774,
        0.035903193056583405, -1.581533432006836, -1.3957834243774414, -1.1946518421173096,
        0.5819646716117859, 0.24282990396022797, 0.3506315350532532, 0.05404789373278618,
        -0.09980958700180054, 0.3408404290676117, -0.027592992410063744, -0.29970046877861023,
        0.7379221320152283, -0.18742670118808746, 0.23399336636066437, 0.3823116421699524,
        0.0782587006688118, -0.7718765139579773, 0.009996694512665272, 0.01868607848882675,
        -0.4076714813709259, 0.2898314893245697, -0.1104145273566246, 0.6112418174743652,
        0.0894797220826149, -0.07358616590499878, 0.05756505951285362, -0.06785528361797333,
        -1.0659855604171753, 0.13418586552143097, 0.7728232741355896, 0.21899884939193726,
        -0.0384855717420578, 2.3519678115844727, 0.12041173130273819, 0.08043826371431351,
        0.39332789182662964, -0.16239723563194275, 0.7541580200195312, 0.41466671228408813,
        0.30115848779678345, 0.22774815559387207, 0.1970355361700058, 0.07668393105268478,
        -1.1797910928726196, 0.2826286554336548, 0.21128970384597778, 0.016736607998609543,
        0.05254602059721947, -0.6026796698570251, -0.6348738074302673, 0.07203584164381027,
        -0.17181909084320068, -0.15312506258487701, -0.05330636352300644, 0.2637564241886139,
        0.31093013286590576, 0.23310035467147827, 0.9761027693748474, -0.04770614206790924
      ],
      [
        -0.022734789177775383, -0.07789424806833267, 0.040080998092889786, -0.00405217707157135,
        0.05732963979244232, 0.0876825675368309, 0.004017363768070936, -0.02604721486568451,
        -0.013103391975164413, -0.006949741393327713, 0.01684221811592579, 0.06064951419830322,
        0.0030839797109365463, -0.07518443465232849, 0.01760893128812313, -0.06649905443191528,
        -0.019761012867093086, -0.07847937941551208, 0.004848436452448368, 0.06596818566322327,
        -0.0153184300288558, 0.08035586029291153, -0.013821373693645, 0.009284602478146553,
        0.021777961403131485, -0.040814027190208435, -0.04233025014400482, 0.024595236405730247,
        -0.08267057687044144, 0.01068835612386465, -0.007354435510933399, -0.060016825795173645,
        -0.07590868324041367, -0.06542401760816574, -0.0047105527482926846, -0.006580461282283068,
        0.030716411769390106, 0.06573233753442764, -0.03774060681462288, -0.07739674299955368,
        0.004546096082776785, -0.056659091264009476, 0.07745875418186188, -0.049121223390102386,
        -0.040301185101270676, 0.016359245404601097, 0.018687954172492027, -0.019506225362420082,
        0.009077798575162888, 0.08020730316638947, 0.03311793878674507, -0.08497414737939835,
        0.053745996206998825, 0.00027598810265772045, -0.08045361936092377, 0.0060481359250843525,
        0.03746769577264786, -0.060573503375053406, -0.031156234443187714, 0.07743535190820694,
        0.06071176379919052, 0.016917090862989426, -0.011045224033296108, -0.013014198280870914,
        -0.0716959610581398, -0.020694702863693237, -0.03931381180882454, 0.06865755468606949,
        -0.08385229110717773, -0.062360022217035294, -0.06429633498191833, -0.035622935742139816,
        0.007416201289743185, -0.08368730545043945, -0.05666814371943474, 0.033559828996658325,
        -0.025051211938261986, 0.0027334969490766525, -0.05739200487732887, -0.0015342400874942541,
        0.036580756306648254, -0.077970951795578, 0.025890007615089417, 0.026356562972068787,
        0.04624294117093086, 0.054981574416160583, -0.026733839884400368, 0.06442023813724518,
        0.0023864388931542635, -0.022363517433404922, -0.0038999004755169153, -0.012627342715859413,
        0.08668714016675949, 0.00041948756552301347, 0.04345709830522537, 0.06230442225933075,
        -0.016699129715561867, 0.03572676703333855, 0.07580185681581497, -0.08697308599948883,
        0.018829388543963432, 0.009922917000949383, -0.03983050957322121, 0.07757599651813507,
        -0.08052308857440948, -0.08014391362667084, 0.05761592090129852, -0.03538989648222923,
        -0.07721279561519623, -0.03286638483405113, -0.06307931989431381, 0.029685605317354202,
        0.035319481045007706, 0.0191294327378273, -0.062287867069244385, -0.021452883258461952,
        -0.019988058134913445, -0.0017281260807067156, 0.06103092059493065, -0.030797112733125687,
        -0.039789143949747086, -0.017088955268263817, -0.07729941606521606, 0.01696331612765789,
        0.0865551233291626, 0.012586196884512901, -0.05448972061276436, -0.007550123147666454
      ],
      [
        0.06131651997566223, -0.0811791718006134, -0.24110227823257446, 0.07902778685092926,
        0.026888899505138397, -0.28930410742759705, 0.21703332662582397, -0.02153027430176735,
        0.07861989736557007, -0.05212070047855377, 0.47646188735961914, 0.06355156749486923,
        -0.9969839453697205, -0.2938292920589447, -0.9079667925834656, 0.06980861723423004,
        0.036161869764328, -0.17499326169490814, 0.4202140271663666, 0.050766848027706146,
        -0.06319841742515564, 0.14012522995471954, 0.20834548771381378, -0.18492455780506134,
        -0.12607435882091522, -0.0484597384929657, -0.2397630512714386, -0.05944221094250679,
        -0.2400745302438736, -0.08884996920824051, -0.0488554984331131, -0.2143624871969223,
        -0.19584044814109802, -0.43041086196899414, 0.0880274623632431, 0.18259471654891968,
        0.05369391292333603, 1.34037184715271, 1.2543045282363892, -0.06171829625964165,
        -0.17022058367729187, 0.0035107780713588, 0.09622284024953842, -0.17180876433849335,
        0.984178364276886, 0.5403972268104553, -0.08744564652442932, 1.0620574951171875,
        0.12700019776821136, -0.05372373387217522, -0.11348192393779755, -0.6707035899162292,
        0.34839534759521484, 0.5087693333625793, -0.06776919215917587, 0.3754517734050751,
        0.031698741018772125, -0.09822747111320496, 0.07726774364709854, 0.08830205351114273,
        -0.1143597736954689, 0.04204469546675682, 0.35924166440963745, 0.33226001262664795,
        0.33035606145858765, 0.11187587678432465, -0.8985289335250854, 0.0662350058555603,
        -0.07082326710224152, -0.19126273691654205, -0.17152103781700134, -0.021445780992507935,
        1.3885506391525269, 0.21622201800346375, 0.45436766743659973, 0.0203187745064497,
        0.012651501223444939, 0.18229320645332336, 0.02586032636463642, 0.04866677522659302,
        1.3666319847106934, -0.03234287351369858, 0.29522430896759033, -0.027065740898251534,
        -0.1889844536781311, -0.05782017484307289, -0.06931591033935547, -0.006056344136595726,
        0.18337522447109222, 0.9302113056182861, -0.012143127620220184, 0.6653738617897034,
        -0.2878258228302002, -0.056159473955631256, 0.06248662248253822, 0.08027193695306778,
        -0.2732575535774231, -0.11709001660346985, 1.213498592376709, 0.15079264342784882,
        0.015050871297717094, 1.8364382982254028, -0.12389027327299118, -0.02589598298072815,
        -0.2912119925022125, -0.4230186641216278, 0.9471639394760132, 0.3298555016517639,
        -0.06793097406625748, -0.052968207746744156, 0.07473939657211304, -0.08695260435342789,
        0.15327569842338562, -0.004853901918977499, -0.2871617376804352, -0.023785920813679695,
        -0.11920367926359177, -0.19752275943756104, -0.48259928822517395, 0.0942552238702774,
        -0.5267525315284729, -0.02856934815645218, 0.01985190249979496, -0.18867121636867523,
        0.09539570659399033, 0.000813717080745846, 2.0067148208618164, 0.0557677187025547
      ],
      [
        -0.02295297384262085, 0.08910218626260757, 0.16887667775154114, -0.012228329665958881,
        -0.07101059705018997, -0.14378571510314941, -0.2604854106903076, -0.047942303121089935,
        -0.0007205087458714843, 0.031126365065574646, -0.5212149024009705, -0.11234426498413086,
        -0.2796400189399719, 0.07509971410036087, -0.06987230479717255, 0.08245005458593369,
        0.062241990119218826, 0.17379283905029297, -0.2448047548532486, -0.08444471657276154,
        0.011653108522295952, -0.5684440732002258, 0.024546748027205467, 0.18553568422794342,
        -0.1655368059873581, -0.008445711806416512, -0.2597717344760895, 0.027100810781121254,
        0.0040152366273105145, -0.09714344888925552, -0.03872545063495636, 0.1493804007768631,
        -0.01206422783434391, 0.44321346282958984, -0.0015347563894465566, -0.13908442854881287,
        0.040284011512994766, -1.8005088567733765, -0.7769771218299866, -0.017523109912872314,
        0.05067044869065285, 0.029674405232071877, -0.06310154497623444, -0.07153517007827759,
        -0.7808340191841125, -0.17446719110012054, 0.047789331525564194, -0.5976256132125854,
        0.03073166497051716, -0.3381260931491852, -0.017594056203961372, -0.16742315888404846,
        -0.11307161301374435, -0.37789860367774963, 0.08875778317451477, 0.01801753230392933,
        0.12130188196897507, 0.20537908375263214, -0.10023605823516846, -0.008391279727220535,
        0.035204339772462845, -0.026191504672169685, -0.21730642020702362, -0.27467742562294006,
        -0.2342807948589325, -0.6994768977165222, -0.1415119171142578, 0.05281711369752884,
        -0.024921273812651634, -0.2001972645521164, -0.002724287798628211, 0.06961824744939804,
        -1.4100754261016846, -0.05072438716888428, -0.505528450012207, 0.026952307671308517,
        -0.23072649538516998, -0.12688608467578888, 0.08053895086050034, -0.31363704800605774,
        -1.1482689380645752, -0.17184847593307495, -0.45120003819465637, -0.06862089782953262,
        0.21825020015239716, -0.08040577173233032, -0.050000522285699844, 0.031686726957559586,
        -0.07412544637918472, -0.7930212020874023, -0.5261096954345703, -0.39274951815605164,
        0.253973126411438, -0.037754882127046585, -0.019723355770111084, -0.046491146087646484,
        0.020204514265060425, 0.13733777403831482, -0.9658767580986023, -0.12767478823661804,
        0.019032221287488937, -1.968385934829712, 0.15898416936397552, -0.04783337563276291,
        -0.23478832840919495, 0.2569864094257355, -0.7819440364837646, -0.2593325972557068,
        0.04209046810865402, 0.0462833046913147, 0.14737965166568756, -0.02132943458855152,
        -0.09136701375246048, 0.07901309430599213, 0.12563061714172363, -0.05730726942420006,
        0.10580844432115555, -0.17574730515480042, 0.2477700263261795, 0.1600082516670227,
        -0.20731620490550995, 0.18159645795822144, -0.006716479081660509, 0.10419148206710815,
        0.06673265993595123, 0.1270107924938202, -2.691023826599121, -0.0253284964710474
      ],
      [
        -0.056950800120830536, -0.3536950945854187, 0.15163454413414001, -0.6093868613243103,
        -0.01885256916284561, -0.1097218319773674, -0.05044734105467796, 0.11471094191074371,
        -0.21343542635440826, -0.0830836072564125, 0.1961623877286911, 0.09830372780561447,
        0.015350362285971642, -0.04222676530480385, -0.39671337604522705, -0.06964032351970673,
        0.02423844113945961, 0.35601523518562317, 0.02265079878270626, -0.039037950336933136,
        -0.052515994757413864, -0.29081735014915466, -0.15705648064613342, 0.1348559856414795,
        0.033019568771123886, -0.04481078311800957, -0.10743113607168198, 0.1523457020521164,
        -0.012769665569067001, -0.07090166956186295, -0.07341663539409637, 0.15219883620738983,
        0.11294665187597275, 0.3826221823692322, 0.06837237626314163, 0.051357194781303406,
        -0.043602682650089264, -1.0191667079925537, 0.08662084490060806, 0.08752231299877167,
        0.10014674812555313, 0.11135208606719971, -0.5101262927055359, -0.13005389273166656,
        0.3368079662322998, 0.20073731243610382, 0.1734165996313095, 0.23372328281402588,
        -1.4561784267425537, -0.5226322412490845, 0.21492159366607666, -0.48698103427886963,
        -0.5526447892189026, 0.07405535876750946, -0.15681739151477814, 0.01320724654942751,
        -0.17100557684898376, -0.28489863872528076, -0.6657405495643616, 0.07020518183708191,
        -0.16136065125465393, 0.0012972167460247874, -1.2777434587478638, 0.05072099715471268,
        0.07420962303876877, -0.37266212701797485, -1.0372174978256226, -0.029325952753424644,
        -0.0654759630560875, -0.11237500607967377, -0.07544086128473282, 0.12134364247322083,
        0.016643771901726723, -0.25021418929100037, -0.5392193794250488, 0.037110522389411926,
        0.03953251242637634, 0.11572553962469101, -0.049744438380002975, -0.14823459088802338,
        -0.046755529940128326, -0.08233743160963058, -0.22494986653327942, 0.058574285358190536,
        0.18890616297721863, 0.11571649461984634, 0.03398975729942322, -0.05111891031265259,
        -0.8025851845741272, 0.32574108242988586, -0.16747085750102997, 0.32740625739097595,
        0.1795634925365448, -0.014040368609130383, 0.058448098599910736, -0.03609283268451691,
        -0.11975683271884918, 0.29821157455444336, -0.11851681768894196, -0.046671293675899506,
        -0.08614906668663025, 0.4724414646625519, -0.01168381329625845, -0.015179155394434929,
        0.14936502277851105, 0.009781938046216965, -0.33433645963668823, -0.37146854400634766,
        -0.1756044328212738, -0.08763234317302704, 0.3007776737213135, -0.005392520688474178,
        -0.07713877409696579, 0.1960838884115219, 0.10161088407039642, -0.004382818937301636,
        -0.7396600246429443, -0.49472150206565857, 0.10806691646575928, 0.04890938103199005,
        0.42610979080200195, -0.01013288926333189, -0.015579036436975002, -0.0013537938939407468,
        -0.3554874062538147, -0.14907866716384888, -1.2951805591583252, 0.06153365969657898
      ],
      [
        -0.056336838752031326, 0.008482052013278008, -0.10154324769973755, -0.015240384265780449,
        -0.015559425577521324, 0.05099314823746681, 0.04340127483010292, -0.07966171950101852,
        0.029051443561911583, -0.07923069596290588, -0.035761114209890366, -0.03413254767656326,
        -0.0474059134721756, 0.04113077372312546, -0.0807814821600914, -0.07517457753419876,
        0.03392649441957474, -0.10305871814489365, 0.03728776425123215, -0.023312801495194435,
        0.04792289435863495, -0.03699318319559097, -0.060714222490787506, 0.05359170213341713,
        -0.00336619489826262, -0.013897016644477844, -0.054385956376791, -0.06424925476312637,
        -0.03479481488466263, 0.02100786380469799, 0.07983087003231049, 0.02906937710940838,
        -0.09349731355905533, 0.02984258532524109, -0.059285327792167664, -0.10187925398349762,
        -0.018805501982569695, -0.0462908111512661, -0.0006435522227548063, -0.04870189353823662,
        -0.016181139275431633, -0.01657281443476677, -0.0129872877150774, -0.04061175882816315,
        -0.07289694249629974, -0.08225463330745697, 0.010534168221056461, -0.011320432648062706,
        -0.08535648137331009, 0.07187240570783615, 0.06575768440961838, 0.03843741863965988,
        -0.053353630006313324, -0.0030987397767603397, 0.03370125964283943, -0.07098408043384552,
        -0.09380806982517242, -0.09736316651105881, -0.09172167629003525, -0.007210619747638702,
        -0.08467550575733185, 0.04002925381064415, -0.002692393260076642, 0.05678470432758331,
        -0.051432784646749496, 0.0334063395857811, 0.05147183686494827, -0.0772758275270462,
        -0.0400688610970974, -0.00738203851506114, -0.029927728697657585, 0.058164212852716446,
        0.04388030990958214, -0.023275870829820633, 0.0628179982304573, -0.01368032954633236,
        -0.01706055924296379, -0.0406118705868721, 0.06033622473478317, 0.031468987464904785,
        -0.01959919184446335, -0.04127306118607521, 0.004688057117164135, -0.003149059135466814,
        0.029330911114811897, 0.02860884740948677, -0.05604724586009979, -0.02171689085662365,
        0.01525928732007742, -0.09316607564687729, 0.011039555072784424, -0.06199602782726288,
        -0.044537052512168884, 0.02729133702814579, 0.028361931443214417, -0.06234891712665558,
        -0.06774242222309113, -0.08699021488428116, 0.04341141879558563, 0.039121489971876144,
        -0.05893724411725998, 0.034712132066488266, -0.006969762966036797, -0.04252636060118675,
        0.08803246170282364, -0.030030833557248116, 0.0601559653878212, -0.04335515573620796,
        -0.05500898137688637, -0.06429902464151382, -0.006653116550296545, -0.027690447866916656,
        -0.07928179949522018, 0.045451004058122635, 0.053719814866781235, -0.08525203168392181,
        0.006160618271678686, 0.021916022524237633, -0.06556084007024765, -0.07769681513309479,
        -0.009723509661853313, 0.007412882521748543, -0.019493665546178818, -0.06425316631793976,
        -0.019968301057815552, 0.026030585169792175, -0.10179910808801651, 0.047608163207769394
      ],
      [
        0.0058934567496180534, 0.010006391443312168, -0.03127646446228027, -0.088724285364151,
        -0.022908708080649376, -0.05327098071575165, 0.030084261670708656, 0.07606321573257446,
        -0.03063119575381279, -0.031872086226940155, -0.019653944298624992, -0.03493728116154671,
        0.03865779563784599, -0.047519002109766006, 0.00044254190288484097, -0.006969592068344355,
        0.03232116252183914, 0.0011638466967269778, 0.06826328486204147, 0.06705792248249054,
        0.07992804795503616, -0.05747600272297859, -0.06373576819896698, 0.03931039199233055,
        0.07560189068317413, 0.005113677121698856, 0.08039791136980057, 0.04123041778802872,
        -0.019475970417261124, -0.08164011687040329, 0.04590606316924095, 0.03258775919675827,
        -0.020306983962655067, -0.017303993925452232, -0.08831417560577393, -0.03452111408114433,
        -0.031195789575576782, -0.02343367226421833, -0.05908899009227753, -0.04973939061164856,
        -0.053405310958623886, -0.07317013293504715, -0.00594329135492444, 0.024005938321352005,
        0.00790442992001772, 0.032844942063093185, -0.08835896104574203, -0.09827152639627457,
        -0.07313979417085648, -0.08291342854499817, -0.0620863102376461, 0.04226996749639511,
        0.06323029100894928, -0.011358559131622314, -0.03193258121609688, -0.03449416160583496,
        0.06790600717067719, -0.058638446033000946, 0.026223011314868927, 0.05721297487616539,
        -0.03518417850136757, 0.0021651152055710554, 0.040175825357437134, 0.014830096624791622,
        -0.09717926383018494, 0.01708918809890747, -0.03788575902581215, 0.04203946888446808,
        -0.036117445677518845, 0.058980826288461685, 0.023982800543308258, 0.06546333432197571,
        -0.0647711232304573, -0.0002035587385762483, -0.022542400285601616, 0.014735201373696327,
        0.06510432809591293, -0.04551069810986519, -0.03910259157419205, 0.08030632883310318,
        0.012818577699363232, 0.0282868891954422, -0.014911449514329433, -0.06941643357276917,
        -0.04905270040035248, 0.07514376938343048, 0.028105972334742546, -0.07039861381053925,
        -0.040619198232889175, -0.06925029307603836, -0.005186243448406458, 0.008628441952168941,
        -0.06546735763549805, 0.07579778879880905, -0.0001737503771437332, 0.03208617493510246,
        -0.06645318865776062, 0.0711304321885109, -0.005755768157541752, -0.08848253637552261,
        0.0003231609589420259, -0.08567864447832108, -0.07983288913965225, -0.014886087737977505,
        -0.07074412703514099, -0.09635269641876221, -0.0854915902018547, 0.05209976062178612,
        0.07571280747652054, -0.03609677776694298, 0.006056877784430981, -0.05034595727920532,
        0.07878319174051285, -0.048330795019865036, 0.03220453858375549, 0.06564902514219284,
        -0.013033685274422169, 0.0019485225202515721, -0.060367025434970856, 0.005786436144262552,
        0.0715254545211792, 0.005687119904905558, 0.047494638711214066, -0.039977237582206726,
        0.019617384299635887, -0.011051940731704235, 0.07393182814121246, 0.031088558956980705
      ],
      [
        -0.011406243778765202, -0.3337354362010956, 0.006938435137271881, 0.0025476461742073298,
        0.04526146873831749, 0.18634358048439026, -0.06544695794582367, 0.08022145926952362,
        -0.12796704471111298, -0.061926424503326416, 0.4533637762069702, -0.04041897878050804,
        -0.19267213344573975, -0.040512073785066605, -0.3725548982620239, -0.08287928253412247,
        -0.07440561056137085, -0.03219505771994591, 0.3145562410354614, -0.05032423138618469,
        0.03517111390829086, -0.14461031556129456, 0.14453010261058807, -0.15423092246055603,
        -0.015620886348187923, 0.0069410065189003944, 0.0867348462343216, 0.14549753069877625,
        -0.29074379801750183, 0.07722540944814682, -0.005243362858891487, -0.23274119198322296,
        0.058555953204631805, 0.1799391210079193, 0.031313251703977585, 0.0863887146115303,
        0.030847415328025818, 0.5203840732574463, 1.0360147953033447, 0.05328122153878212,
        0.07647038996219635, 0.16496588289737701, -0.4652130603790283, 0.024857504293322563,
        1.043514609336853, 0.8448700904846191, -0.00014705225476063788, 1.044851303100586,
        0.29356643557548523, -0.4776390492916107, 0.14369553327560425, -0.24971218407154083,
        -0.6384705305099487, 0.28114625811576843, -0.24200019240379333, 0.11098930984735489,
        -0.020650185644626617, -0.13169290125370026, -0.06666452437639236, -0.006318697705864906,
        -0.32543230056762695, 0.038165152072906494, 0.05022406205534935, 0.37332281470298767,
        0.2238757610321045, 0.19426962733268738, -0.5497896075248718, 0.006975768133997917,
        -0.0007055698661133647, -0.017264507710933685, 0.09412935376167297, 0.02105431817471981,
        0.8873123526573181, -0.04832489788532257, -0.14299197494983673, -0.0673607885837555,
        0.10868536680936813, 0.37117549777030945, -0.028661532327532768, 0.14950518310070038,
        0.8853871822357178, 0.08967772126197815, 0.13243281841278076, 0.06195955350995064,
        -0.07507287710905075, 0.04899578168988228, 0.060546696186065674, 0.05091477185487747,
        0.1851082295179367, 1.0602415800094604, -0.0631280392408371, 0.8313442468643188,
        -0.09591829776763916, 0.011724041774868965, -0.05829842761158943, -0.06187349930405617,
        -0.26627057790756226, 0.03917989879846573, 0.9848726987838745, 0.18899114429950714,
        0.05011178180575371, -0.05046897381544113, -0.187260240316391, -0.03408166021108627,
        0.08177600055932999, -0.13094274699687958, 0.7981937527656555, 0.31917184591293335,
        -0.22336024045944214, -0.3187628388404846, 0.0021022192668169737, 0.03733561560511589,
        0.024729682132601738, 0.06178637966513634, -0.06918055564165115, 0.059896666556596756,
        -0.3916482925415039, -0.1611793041229248, 0.1085173636674881, -0.12743991613388062,
        0.07740295678377151, -0.4513087272644043, -0.0551123321056366, -0.05739956721663475,
        -0.2985304892063141, -0.3357638716697693, 0.5769034624099731, 0.041381724178791046
      ],
      [
        0.04094884544610977, -0.08844421803951263, 0.007760657928884029, 0.013986200094223022,
        -0.043466612696647644, 0.024828583002090454, -0.08550696820020676, -0.04629012569785118,
        -0.05618422478437424, -0.0360695943236351, 0.06025727838277817, -0.07921957224607468,
        -0.06241548806428909, -0.08546917885541916, 0.036041710525751114, -0.06952984631061554,
        -0.013702930882573128, -0.07023072242736816, -0.025844531133770943, -0.0865156278014183,
        -0.008981103077530861, -0.001649227226153016, 0.053352437913417816, 0.061613939702510834,
        -0.04394222050905228, -0.03202303871512413, -0.01772327721118927, 0.03719819709658623,
        0.023736270144581795, 0.06644637137651443, 0.04151969030499458, -0.04812582954764366,
        0.005342069081962109, -0.053955480456352234, -0.029475461691617966, -0.015567900612950325,
        0.05507709085941315, 0.015174484811723232, -0.04298848658800125, -0.0773179903626442,
        -0.09775852411985397, -0.006592430640012026, 0.010644987225532532, 0.04714411124587059,
        0.05235978215932846, 0.0305364690721035, -0.08610223233699799, -0.09369190037250519,
        -0.0524614118039608, -0.062185388058423996, -0.00801415741443634, 0.004360080696642399,
        -0.04436178505420685, 0.0666477233171463, -0.0104410694912076, 0.002765549812465906,
        -0.06265415251255035, 0.056658707559108734, -0.07957594841718674, 0.03263922408223152,
        0.029258647933602333, -0.036741483956575394, -0.053557008504867554, -0.03338225930929184,
        -0.09261810034513474, 0.021123778074979782, 0.001892252010293305, -0.042248085141181946,
        -0.00332003366202116, -0.0011648652143776417, -0.07380643486976624, 0.06769101321697235,
        -0.006485705263912678, 0.06818322837352753, -0.048151977360248566, 0.0652889683842659,
        -0.032580312341451645, -0.03960701823234558, 0.05811677128076553, 0.014260838739573956,
        -0.05932117998600006, -0.049693167209625244, 0.015247812494635582, -0.04892566800117493,
        0.033521853387355804, -0.014575869776308537, 0.01065867394208908, 0.0656079351902008,
        -0.10119996964931488, -0.04566426947712898, 0.06284831464290619, -0.04613343998789787,
        -0.034937698394060135, -0.04240245744585991, -0.051019780337810516, -0.08136051893234253,
        -0.019860688596963882, -0.05219158157706261, 0.04021313786506653, -0.026291286572813988,
        0.07013702392578125, 0.006728080566972494, -0.02589881792664528, 0.014729343354701996,
        -0.03709479048848152, -0.05240745469927788, -0.0654548928141594, 0.04211657494306564,
        -0.0222068689763546, 0.00977941695600748, 0.008709768764674664, 0.009027822874486446,
        0.06126907095313072, -0.05025472864508629, -0.09949398040771484, 0.0035185348242521286,
        -0.1024298220872879, -0.021926771849393845, -0.07136163115501404, 0.04052358865737915,
        -0.025583652779459953, -0.02558940462768078, -0.011676489375531673, 0.06836774200201035,
        -0.076540507376194, 0.06806004792451859, -0.004993371199816465, -0.034672029316425323
      ],
      [
        -0.06971831619739532, 0.011887923814356327, -0.0183367058634758, 0.06648244708776474,
        0.02750273607671261, 0.07659921050071716, 0.05832298845052719, -0.07139286398887634,
        -0.07697606831789017, 0.015357643365859985, 0.026301059871912003, -0.015771489590406418,
        -0.055170685052871704, -0.008885970339179039, -0.04400486499071121, 0.022441422566771507,
        -0.06366932392120361, 0.028850894421339035, 0.01663973554968834, -0.025338463485240936,
        0.03990374878048897, -0.06574156135320663, 0.011678749695420265, 0.06711474806070328,
        -0.012269227765500546, -0.05780275911092758, -0.044136613607406616, 0.002916297409683466,
        -0.00226324493996799, -9.26785432966426e-5, 0.008673526346683502, 0.056829266250133514,
        -0.03112228587269783, -0.034016285091638565, 0.008571256883442402, 0.010951071977615356,
        -0.05404463782906532, -0.09073624014854431, 0.07257130742073059, -0.048857688903808594,
        -0.060374241322278976, 0.0010272142244502902, 0.010757229290902615, 0.03170309215784073,
        0.0166813712567091, 0.04734756425023079, 0.009951744228601456, -0.007131641730666161,
        -0.0918978676199913, -0.06021140143275261, 0.003536906559020281, 0.00056988321011886,
        -0.0026516513898968697, -0.04496803879737854, -0.08525620400905609, -0.033051274716854095,
        -0.058109816163778305, -0.07479666918516159, -0.06853386014699936, 0.06947384029626846,
        0.04784930869936943, 0.009977517649531364, 0.03589976578950882, -0.005655622575432062,
        -0.0034614058677107096, 0.06241670995950699, -0.04764170199632645, -0.013279533945024014,
        -0.02678060159087181, -0.06734713912010193, 0.022590531036257744, 0.0635957345366478,
        0.0667957216501236, -0.08818479627370834, -0.016296740621328354, -0.003896160051226616,
        0.0471862368285656, -0.08456146717071533, -0.003813889343291521, -0.056462932378053665,
        -0.0839037150144577, -0.03038538247346878, -0.028635244816541672, -0.01603742502629757,
        0.06090288609266281, -0.05295773595571518, 0.06081700697541237, -0.06230701133608818,
        -0.009469187818467617, 0.06835775822401047, 0.00782692153006792, 0.008422372862696648,
        0.006416111718863249, -0.08282390981912613, -0.08219867944717407, -0.027104774489998817,
        0.046110689640045166, -0.08217708766460419, 0.030955230817198753, -0.08428838104009628,
        0.0444057397544384, -0.08819158375263214, 0.03444478288292885, -0.004637680947780609,
        -0.01195807009935379, 0.03698176518082619, 0.02191624790430069, -0.025182615965604782,
        0.048730555921792984, 0.06383606791496277, -0.021033059805631638, -0.014788854867219925,
        0.02025262452661991, -0.03942658752202988, -0.024182487279176712, -0.08463605493307114,
        0.014676561579108238, 0.07386960834264755, -0.03892207518219948, -0.019226109609007835,
        0.025818780064582825, 0.0573389008641243, 0.03788711875677109, -0.09389492124319077,
        -0.08630582690238953, -0.07715756446123123, 0.052980031818151474, -0.03480156883597374
      ],
      [
        0.047573622316122055, 0.06483257561922073, 0.022037185728549957, 0.00617359671741724,
        0.0776609480381012, 0.08156077563762665, -0.0843428298830986, -0.04292745888233185,
        -0.08444990962743759, -0.029845573008060455, -0.03469108045101166, -0.07212309539318085,
        0.008458251133561134, 0.008413711562752724, 0.06982284039258957, -0.06970556825399399,
        -0.006159171927720308, 0.014723295345902443, 0.050970450043678284, 0.07957831770181656,
        0.05321987718343735, 0.08707643300294876, 0.06416866183280945, 0.017880957573652267,
        0.029516227543354034, 0.06815098226070404, 0.0030073882080614567, -0.0036037873942404985,
        -0.05479485169053078, 0.012367887422442436, -0.0759430006146431, 0.02102556638419628,
        0.018239807337522507, -0.06193729117512703, 0.05341022461652756, 0.08302765339612961,
        0.04850183427333832, -0.012522893026471138, 0.08301759511232376, 0.02745829150080681,
        0.005914087872952223, 0.014182256534695625, 0.010160709731280804, -0.036657486110925674,
        0.02447912096977234, -0.013559757731854916, 0.03469434753060341, 0.04380350187420845,
        0.08146844804286957, -0.013975114561617374, -0.07629864662885666, 0.0254280474036932,
        -0.04938390478491783, -0.02039721980690956, 0.04081191122531891, 0.03870689496397972,
        -0.06170377507805824, -0.006698862183839083, -0.014182193204760551, -0.02409375086426735,
        0.002364775398746133, -0.039488550275564194, 0.06924563646316528, 0.08426746726036072,
        -0.01848546974360943, 0.042531680315732956, -0.023799745365977287, -0.01717781275510788,
        -0.05039423704147339, -0.0560004860162735, -0.057220458984375, -0.0013863573549315333,
        -0.022336764261126518, 0.022848786786198616, 0.003065909259021282, 0.008482074365019798,
        0.018734369426965714, 0.029325313866138458, -0.06492190062999725, 0.018768223002552986,
        0.0630660280585289, 0.039608102291822433, -0.05657743290066719, -0.03697662055492401,
        -0.04084199294447899, -0.04913058131933212, -0.01734607294201851, -0.08379681408405304,
        -0.0857347697019577, -0.06824864447116852, -0.043878134340047836, -0.08181098103523254,
        -0.08775865286588669, 0.025827346369624138, -0.08645499497652054, -0.054223667830228806,
        -0.06764866411685944, 0.002856723964214325, 0.05247790366411209, 0.03783527761697769,
        -0.06230732798576355, 0.013067967258393764, 0.05644585192203522, 0.07844279706478119,
        0.08586961030960083, 0.0554899163544178, 0.07115881890058517, 0.05193092301487923,
        0.029754864051938057, -0.026513338088989258, -0.045496080070734024, -0.018294429406523705,
        -0.000754007080104202, -0.08644536882638931, -0.05504287779331207, 0.06961295753717422,
        -0.032045282423496246, -0.04544804245233536, -0.0018223454244434834, -0.022846026346087456,
        0.022337302565574646, 0.07400025427341461, -0.08109939843416214, -0.013630269095301628,
        -0.027766913175582886, -0.06434247642755508, -0.06581056118011475, 0.02789449132978916
      ],
      [
        0.056740667670965195, 0.04537268728017807, -0.17042918503284454, 0.08464497327804565,
        0.08238375931978226, -0.30015960335731506, 0.15617284178733826, -0.20240339636802673,
        0.14277015626430511, 0.05210729315876961, 0.12017985433340073, -0.14170275628566742,
        -0.5496916174888611, -0.10495670139789581, -0.04309608042240143, 0.049839865416288376,
        -0.08703668415546417, -0.14502274990081787, 0.24392002820968628, 0.023099327459931374,
        -0.07744006812572479, 0.18179652094841003, 0.019313644617795944, -0.1006247028708458,
        0.10438583046197891, 0.006110892631113529, 0.19316160678863525, 0.17000198364257812,
        -0.07951820641756058, 0.15179887413978577, 0.08471163362264633, -0.11574241518974304,
        -0.08553650230169296, -0.18107929825782776, -0.0012194558512419462, 0.2434806078672409,
        -0.07940714061260223, 0.8831422328948975, 0.9637443423271179, 0.012453560717403889,
        0.06058456748723984, 0.0753084197640419, 0.07880844175815582, -0.1310712695121765,
        0.5299390554428101, 0.2098396271467209, -0.20032913982868195, 0.6708036661148071,
        0.24258090555667877, 0.15904253721237183, 0.06513756513595581, -0.1338740736246109,
        -0.21562226116657257, 0.34152886271476746, -0.05734021216630936, 0.08276945352554321,
        -0.015119330957531929, -0.1264258474111557, 0.09149587154388428, 0.05965118110179901,
        -0.03330404683947563, 0.05445872247219086, 0.20352745056152344, 0.1852434128522873,
        0.11516479402780533, 0.06633621454238892, -0.14503851532936096, -0.04616019129753113,
        0.08726636320352554, -0.15172289311885834, -0.061259619891643524, -0.054651256650686264,
        0.8116668462753296, 0.19410617649555206, 0.21348243951797485, -0.05593210086226463,
        0.021262219175696373, 0.1504426747560501, -0.07927712798118591, 0.17370234429836273,
        0.7565950751304626, 0.1770230382680893, 0.13544467091560364, -0.12675875425338745,
        -0.1986614167690277, 0.08156897872686386, 0.0757419541478157, -0.04600920528173447,
        -0.18531152606010437, 0.46655094623565674, 0.1611013412475586, 0.363324910402298,
        -0.09760940819978714, -0.05972614139318466, 0.028762873262166977, -0.08521731197834015,
        -0.05940847471356392, 0.0111569007858634, 0.8293071985244751, -0.012236465699970722,
        -0.008343242108821869, 0.9550623297691345, -0.018655629828572273, 0.07913163304328918,
        0.0006348186871036887, -0.31969669461250305, 0.8936150670051575, 0.4708704948425293,
        0.039791289716959, 0.09384405612945557, -0.01574024371802807, -0.04097423702478409,
        0.1338033378124237, -0.09993010759353638, -0.05164232477545738, 0.011623668484389782,
        -0.09997521340847015, -0.2647850215435028, -0.3736588656902313, -0.005864287260919809,
        -0.02647833339869976, 0.039045024663209915, 0.00348223396576941, -0.08630672097206116,
        0.15888473391532898, 0.026832876726984978, 1.4691649675369263, 0.0358266644179821
      ],
      [
        0.035084933042526245, -0.06349311769008636, 0.050563983619213104, -0.05752470716834068,
        0.055804543197155, -0.01413027010858059, 0.011190515011548996, 0.05652924254536629,
        -0.04099830240011215, -0.04664362967014313, -0.041313257068395615, -0.018756309524178505,
        -0.0619981624186039, 0.05970826745033264, -0.020130662247538567, -0.03770560398697853,
        0.02682233788073063, -0.07007960975170135, 0.046774476766586304, 0.08620196580886841,
        -0.022086402401328087, 0.08345026522874832, -0.03707708418369293, 0.08399740606546402,
        0.02039041370153427, -0.009742275811731815, -0.01950724795460701, -0.03449062258005142,
        0.02271122857928276, 0.012758799828588963, -0.017077798023819923, -0.015006547793745995,
        -0.06556496769189835, -0.0928533747792244, -0.03912179917097092, 0.005422642454504967,
        -0.02330693230032921, 0.015268318355083466, -0.04754769429564476, 0.004089150577783585,
        -0.0872303918004036, 0.04525885358452797, -0.04340018704533577, -0.02640688419342041,
        -0.02438195049762726, 0.0014151884242892265, 0.07008344680070877, -0.00020346954988781363,
        -0.09333903342485428, 0.03595040738582611, 0.01119403075426817, 0.04271119460463524,
        -0.0424216166138649, -0.06602868437767029, -0.016256239265203476, 0.07915009558200836,
        0.010345550253987312, 0.05057569220662117, -0.061066724359989166, 0.05068104714155197,
        0.02986781671643257, -0.007972866296768188, -0.032147109508514404, 0.05584563687443733,
        -0.03841589391231537, 0.04250730946660042, -0.02054070122539997, 0.03892183303833008,
        0.02437206730246544, -0.09242118149995804, 0.07454664260149002, -0.09185674786567688,
        -0.007975170388817787, -0.0425737127661705, -0.0009813730139285326, -0.00843748264014721,
        -0.0538947731256485, 0.0666959285736084, 0.07897834479808807, 0.07261991500854492,
        0.073014996945858, -0.010609341785311699, -0.061499740928411484, 0.010320208966732025,
        0.05028321593999863, 0.058610714972019196, -0.0754631757736206, -0.05486321449279785,
        -0.062388334423303604, -0.028907353058457375, -0.015532493591308594, -0.0811743289232254,
        -0.00394235597923398, -0.027439769357442856, 0.04259062185883522, 0.020801397040486336,
        -0.08063157647848129, 0.04739588126540184, 0.04941209778189659, 0.001084689050912857,
        -0.049551237374544144, -0.022025225684046745, 0.044829413294792175, -0.01665668748319149,
        -0.07558377832174301, -0.08505815267562866, -0.01921139843761921, 0.033375028520822525,
        -0.02844347059726715, -0.0017300965264439583, 0.01885238289833069, 0.009683448821306229,
        -0.005835136864334345, -0.08987189829349518, 0.02282479777932167, -0.006349759642034769,
        -0.007753313984721899, -0.036336999386548996, -0.024758392944931984, -0.027833379805088043,
        0.06738536804914474, 0.02902420051395893, 0.07871322333812714, -0.06770896166563034,
        0.06116403266787529, -0.005528351757675409, -0.04822883382439613, 0.07350906729698181
      ],
      [
        0.027913952246308327, -0.024963263422250748, 0.025494325906038284, -0.08336719870567322,
        -0.036421556025743484, -0.040770310908555984, -0.035553205758333206, -0.08195726573467255,
        -0.028685390949249268, 0.04328501969575882, -0.05459602177143097, -0.031938742846250534,
        0.05062345042824745, -0.07871165871620178, -0.06941109150648117, -0.01397591270506382,
        0.08466767519712448, -0.00022127652482595295, 0.023242127150297165, 0.06683170795440674,
        -0.009299607016146183, 0.049882132560014725, 0.018065087497234344, 0.04374874383211136,
        -0.039438746869564056, -0.015701355412602425, 0.0054887691512703896, -0.08678364008665085,
        0.05709823966026306, 0.026992417871952057, 0.01698065921664238, 0.03811301663517952,
        -0.03371748700737953, 0.04396524652838707, -0.08408253639936447, -0.054892539978027344,
        -0.01710800640285015, 0.03948615863919258, 0.06367341428995132, -0.020027244463562965,
        -0.06355681270360947, -0.028784235939383507, -0.01708955690264702, 0.0008484687423333526,
        0.0008276478038169444, 0.020870724692940712, 0.004416358191519976, 0.02325625531375408,
        -0.055168405175209045, -0.026689380407333374, -0.09180313348770142, -0.08434166759252548,
        -0.04773488640785217, -0.07183656096458435, -0.07196937501430511, -0.029749112203717232,
        -0.05674074590206146, 0.032529573887586594, -0.007546260021626949, -0.014993108808994293,
        0.0428033284842968, 0.01097111962735653, -0.09289871156215668, 0.03585368022322655,
        -0.07831298559904099, -0.0067914691753685474, 0.07267041504383087, -0.02982329949736595,
        -0.015209648758172989, 0.0012695658951997757, 0.04019569978117943, -0.01169248390942812,
        -0.019331738352775574, 0.03747376799583435, -0.10221824049949646, 0.04312945902347565,
        0.023440144956111908, -0.09194429963827133, 0.0005669172387570143, -0.0594574473798275,
        -0.05924953147768974, 0.06292792409658432, -0.05617781728506088, -0.08331822603940964,
        -0.07168293744325638, 0.044491447508335114, -0.0461527481675148, 0.018190810456871986,
        0.051160216331481934, 0.01726863905787468, -0.06323274970054626, 0.018528709188103676,
        -0.01873943954706192, -0.04643196985125542, -0.019657816737890244, 0.08403943479061127,
        0.043742626905441284, -0.06211426854133606, -0.0951039269566536, 0.04468671977519989,
        -0.08764882385730743, 0.08226431161165237, -0.10293763875961304, 0.056338757276535034,
        -0.0007850093534216285, -0.026618007570505142, 0.022959966212511063, -0.0760481134057045,
        -0.08573680371046066, -0.10446447879076004, -0.025177007541060448, 0.022222241386771202,
        -0.010738869197666645, -0.09778780490159988, -0.020556721836328506, -0.0802425742149353,
        0.06432218104600906, -0.05518319085240364, -0.08952685445547104, -0.024363601580262184,
        0.07782672345638275, 0.00843596551567316, -0.08093301206827164, -0.030189307406544685,
        -0.04991721361875534, 0.03591962531208992, 0.02165420725941658, -0.004129390232264996
      ],
      [
        0.0700484961271286, 0.04980815201997757, -0.10331368446350098, -0.00709708733484149,
        0.01940895989537239, -0.0522938072681427, 0.06070366129279137, 0.01641266420483589,
        0.03053789585828781, 0.06022069230675697, -0.063606858253479, 0.05782113969326019,
        0.011681988835334778, -0.013413166627287865, -0.029384778812527657, -0.055602941662073135,
        -0.062443409115076065, -0.08616182953119278, -0.08223007619380951, 0.009225228801369667,
        0.02258838154375553, -0.007544498424977064, -0.10257086157798767, -0.03579358384013176,
        0.05362766608595848, -0.021173954010009766, -0.04090125486254692, -0.1090608611702919,
        0.005784180015325546, -0.02016707882285118, 0.009913928806781769, 0.03737189620733261,
        -0.01968540996313095, -0.08214005082845688, 0.043890904635190964, -0.06463141739368439,
        0.02700115740299225, -0.07479795068502426, 0.01193837821483612, -0.0004264839517418295,
        0.011694330722093582, -0.02602122165262699, 0.005439428146928549, -0.028812434524297714,
        0.06398037075996399, -0.0856543704867363, -0.039400190114974976, -0.11039897054433823,
        -0.028631487861275673, -0.0096084950491786, -0.09925621747970581, 0.05891481041908264,
        -0.0680355578660965, 0.04212299361824989, -0.0367717370390892, -0.027461513876914978,
        -0.0186582263559103, -0.02956729382276535, 0.00359673285856843, -0.088333860039711,
        0.062413379549980164, 0.08623797446489334, -0.10106836259365082, -0.0948813259601593,
        0.013145687989890575, -0.013499696739017963, 0.03694432973861694, 0.05419165641069412,
        -0.02323697879910469, -0.06887943297624588, -0.03864816576242447, 0.011208037845790386,
        0.00516764260828495, 0.05945321545004845, -0.06968098878860474, 0.025478200986981392,
        0.10135553777217865, -0.04105735570192337, -0.055844224989414215, 0.07940279692411423,
        -0.048119958490133286, 0.006194401066750288, -0.05283551663160324, -0.023409990593791008,
        -0.038559265434741974, 0.00838498491793871, 0.06322366744279861, 0.06515885889530182,
        -0.08128470927476883, -0.016413168981671333, -0.03970688208937645, -0.10539799183607101,
        -0.023534508422017097, 0.06570517271757126, 0.060906220227479935, 0.0775722935795784,
        -0.016919150948524475, -0.1020151749253273, -0.029784636572003365, 0.005132012534886599,
        0.001743730972521007, -0.0034046671353280544, -0.0938505008816719, -0.07940131425857544,
        -0.02338867075741291, -0.060434915125370026, -0.03779185935854912, -0.049755409359931946,
        0.03844711557030678, -0.09082713723182678, -0.08598019927740097, 0.05089975893497467,
        0.029976218938827515, -0.023671256378293037, 0.053852204233407974, -0.034069646149873734,
        0.047130391001701355, -0.02991105243563652, -0.08470751345157623, -0.0980454534292221,
        -0.007318010553717613, -0.08252536505460739, -0.06975474953651428, 0.032270994037389755,
        0.00843033753335476, -0.03088226355612278, 0.040222689509391785, -0.00878946203738451
      ],
      [
        0.07832522690296173, 0.1560293734073639, 0.21526996791362762, 0.009391711093485355,
        -0.054327402263879776, -0.2839871942996979, -0.1651204377412796, -0.034979887306690216,
        0.0854102149605751, 0.007271498907357454, -0.43564093112945557, -0.2900750935077667,
        -0.49624356627464294, 0.09009099006652832, -0.10218927264213562, -0.0020742923952639103,
        -0.012776732444763184, 0.1903979629278183, -0.3295738399028778, -0.07731427997350693,
        -0.00793695729225874, -0.3499302864074707, -0.28886929154396057, 0.1849215030670166,
        -0.22627834975719452, -0.03619511052966118, -0.21137239038944244, 0.0670892521739006,
        0.0944870337843895, 0.0012321289395913482, -0.04894029721617699, 0.28287196159362793,
        0.2712373733520508, 0.41909584403038025, 0.03021480143070221, -0.20999571681022644,
        -0.04370652511715889, -1.8542752265930176, -1.1927860975265503, 0.07739050686359406,
        0.0322195328772068, -0.021510319784283638, -0.0797826275229454, -0.41991090774536133,
        -0.991652250289917, -0.4112323820590973, 0.042607881128787994, -0.9022827744483948,
        -0.08738984167575836, -0.18253663182258606, -0.01099209301173687, -0.4228123724460602,
        0.35428452491760254, -0.5302032232284546, 0.1103498712182045, -0.17753197252750397,
        -0.02731097675859928, -0.3508237302303314, 0.052328936755657196, 0.06141531094908714,
        0.1781744509935379, -0.0578860305249691, -0.1967121958732605, -0.6222901940345764,
        -0.3259516656398773, -0.5585528612136841, -0.637365460395813, -0.047949884086847305,
        -0.0645885244011879, -0.36044102907180786, -0.2734612822532654, -0.13214688003063202,
        -1.7810006141662598, -0.24110646545886993, -0.4687690734863281, 0.07951878756284714,
        -0.120930977165699, -0.2337019294500351, 0.07929618656635284, -0.2262241244316101,
        -1.0320508480072021, -0.26931631565093994, -0.1989692598581314, -0.04621514305472374,
        0.2823464870452881, -0.1428985595703125, 0.054206643253564835, 0.05640387162566185,
        0.04246537387371063, -0.8374375104904175, -0.37495157122612, -0.3962339162826538,
        0.2987538278102875, 0.07855179160833359, 0.05579010769724846, 0.010913610458374023,
        -0.3820328712463379, 0.13337120413780212, -0.929943323135376, -0.4249366223812103,
        0.0066460417583584785, -1.7046277523040771, 0.19597628712654114, 0.014569669961929321,
        -0.4539061188697815, 0.4514937400817871, -0.9331809282302856, -0.30421683192253113,
        -0.03000854142010212, 0.07344553619623184, -0.04044283926486969, -0.06139132007956505,
        -0.39842915534973145, 0.14974777400493622, 0.2606857120990753, -0.04800139367580414,
        0.05100672319531441, -0.6789903044700623, 0.3118385970592499, 0.08383988589048386,
        -0.07600976526737213, 0.27016615867614746, 0.021370990201830864, 0.17158176004886627,
        -0.038304753601551056, 0.01371034886687994, -2.600534439086914, -0.07211343199014664
      ],
      [
        -0.04505867883563042, 0.028336552903056145, -0.04794193431735039, 0.04954102635383606,
        -0.055532898753881454, -0.040589701384305954, -0.041205551475286484, -0.041174281388521194,
        0.06031475588679314, 0.020339446142315865, -0.045046575367450714, -0.05783267319202423,
        -0.04242883250117302, -0.05306494981050491, 0.028282685205340385, 0.0027551096864044666,
        -0.03767254948616028, 0.057464729994535446, 0.08084408938884735, -0.08331827074289322,
        -0.017580082640051842, -0.08336605131626129, 0.048006944358348846, -0.03469490632414818,
        -0.06483827531337738, 0.06514813005924225, -0.01883643865585327, 0.07647757232189178,
        -0.003981818910688162, -0.0046438975259661674, 0.07498881965875626, 0.00961012952029705,
        0.05222036689519882, 0.007283393293619156, 0.034061312675476074, -0.033291593194007874,
        -0.055522371083498, 0.07532674074172974, 0.04353731498122215, -0.07394856214523315,
        -0.09259850531816483, 0.08273518085479736, -0.00286538852378726, 0.04123888909816742,
        0.03312302380800247, -0.013019978068768978, -0.08296842873096466, 0.005048280116170645,
        -0.07815518230199814, 0.00179306382779032, -0.07254903763532639, 0.07758093625307083,
        -0.07624846696853638, -0.05930411070585251, 0.06935282796621323, 0.024652719497680664,
        -0.012149911373853683, -0.07307717949151993, -0.0036623370833694935, -0.08706942200660706,
        0.07208692282438278, 0.05063671991229057, 0.06034396216273308, -0.003681699512526393,
        -0.026392055675387383, -0.03052525408565998, -0.024102549999952316, 0.08073022216558456,
        -0.03979659080505371, -0.08084405958652496, 0.03608401492238045, -0.03067980520427227,
        0.035903848707675934, -0.05355937033891678, 0.03652910515666008, 0.04526340588927269,
        0.03467545658349991, 0.05952279269695282, -0.05981021374464035, -0.06409347802400589,
        0.022897986695170403, -0.06617896258831024, 0.01986105926334858, 0.026677951216697693,
        0.015282606706023216, 0.0216361153870821, 0.043593645095825195, -0.027212291955947876,
        0.03604230657219887, -0.03187078237533569, -0.029724158346652985, 0.03240826725959778,
        -0.08065416663885117, -0.03323446586728096, 0.0840553566813469, -0.018563948571681976,
        -0.011554041877388954, -0.01283995807170868, -0.01578880473971367, -0.0451781339943409,
        0.0327746644616127, -0.08274398744106293, -0.002370111644268036, 0.011722049675881863,
        0.05857230722904205, -0.07330679148435593, -0.05265458673238754, 0.06154017150402069,
        -0.06002955883741379, -0.0674310252070427, 0.08297403901815414, -0.07374017685651779,
        0.027757376432418823, 0.07664092630147934, 0.06600971519947052, -0.06622115522623062,
        -0.006054416298866272, -0.04939314350485802, 0.07153476029634476, -0.00568132009357214,
        -0.009676294401288033, -0.013064701110124588, -0.018912987783551216, -0.08680328726768494,
        -0.058001670986413956, 0.013414854183793068, -0.014528988860547543, 0.049413975328207016
      ],
      [
        -0.02939288504421711, -0.4972868859767914, 0.031236007809638977, -0.20622073113918304,
        0.009558652527630329, 0.38108476996421814, -0.04857577010989189, 0.03633921220898628,
        -0.6732640266418457, -0.11195988208055496, 0.10725771635770798, 0.06364696472883224,
        0.019174650311470032, 0.06305869668722153, 0.07076213508844376, -0.21137471497058868,
        -0.04813239723443985, -0.1410471498966217, 0.1583840250968933, 0.04705682769417763,
        0.01808227226138115, 0.035963378846645355, -0.03291817009449005, -0.2982857823371887,
        0.09709760546684265, 0.04373089596629143, 0.05716092139482498, -0.057339467108249664,
        -0.22026678919792175, 0.20601098239421844, 0.07310307770967484, -0.12669549882411957,
        0.22346223890781403, 0.11958786845207214, 0.031291622668504715, 0.11391875147819519,
        0.007032138295471668, 0.3421410620212555, 0.4199853837490082, -0.02082538977265358,
        -0.2374415397644043, -0.3455629348754883, -0.909289538860321, 0.2637767493724823,
        0.3539702296257019, 0.43264803290367126, 0.17033672332763672, 0.3830699026584625,
        0.5803775787353516, -0.47918233275413513, -0.09172302484512329, -0.14398899674415588,
        -0.35591959953308105, 0.15367840230464935, -0.28106358647346497, -0.09672632813453674,
        -0.03828049078583717, -0.026241907849907875, -0.47365832328796387, -0.04193420708179474,
        -0.2868209779262543, -0.02501307986676693, 0.5218021869659424, 0.12377528101205826,
        0.16026844084262848, 0.4152025282382965, -0.190157949924469, -0.011977280490100384,
        0.07871238142251968, 0.33428895473480225, 0.1022433489561081, 0.125687375664711,
        0.14215804636478424, -0.10120787471532822, 0.2390570193529129, 0.020798636600375175,
        0.01078410167247057, 0.0687672346830368, 0.06017513945698738, 0.3157613277435303,
        0.2735026776790619, -0.06649076193571091, 0.37831175327301025, 0.13138353824615479,
        -0.007008218672126532, 0.10616809874773026, 0.0017187484772875905, -0.06298648566007614,
        0.4454165995121002, 0.25698044896125793, -0.02964968793094158, 0.35971540212631226,
        -0.033277515321969986, 0.0837705135345459, 0.0874415934085846, 0.0430498868227005,
        -0.04099644348025322, -0.09561586380004883, 0.2846693992614746, -0.032436974346637726,
        0.020844345912337303, -0.005779392085969448, -0.117582768201828, -0.0692729502916336,
        0.0029887084383517504, -0.10407078266143799, 0.2548697292804718, 0.023992639034986496,
        -0.4702034294605255, -0.5436204075813293, 0.14808379113674164, 0.06805020570755005,
        0.0007141603855416179, 0.04155867174267769, 0.03708561137318611, -0.008395367302000523,
        -0.23648570477962494, 0.11574450880289078, 0.3309032618999481, -0.33783596754074097,
        0.3959062993526459, -0.7838289141654968, 0.059523288160562515, -0.10564374923706055,
        -0.006605526432394981, -0.3718227744102478, 0.551871120929718, -0.07399114221334457
      ],
      [
        0.029993193224072456, -0.04107942804694176, 0.027578266337513924, -0.058220185339450836,
        -0.04096156358718872, -0.007783184293657541, 0.021456832066178322, -0.11087118089199066,
        0.01799697056412697, -0.053248412907123566, -0.11433511227369308, -0.0781368762254715,
        -0.034441910684108734, -0.032588131725788116, 0.003587704384699464, -0.0043123262003064156,
        -0.020102612674236298, -0.08066476881504059, -0.018625395372509956, 0.07015521824359894,
        -0.029020918533205986, 0.050354257225990295, -0.04667742922902107, 0.010133469477295876,
        0.06783047318458557, 0.07744047790765762, -0.014521502889692783, -0.07534942775964737,
        -0.018375512212514877, -0.109928198158741, 0.0685976967215538, -0.08465874195098877,
        0.06488388031721115, -0.12002494186162949, 0.05984878912568092, -0.04640238732099533,
        0.06042005494236946, -0.10270242393016815, 0.022950785234570503, -0.053310588002204895,
        -0.08971990644931793, -0.0073373629711568356, 0.002973399357870221, 0.04773809388279915,
        -0.010610193945467472, -0.020105179399251938, -0.025788964703679085, -0.13192293047904968,
        0.04619252309203148, 0.07771792262792587, 0.06401979178190231, 0.018086163327097893,
        -0.0022336808033287525, -0.13740508258342743, -0.09044573456048965, 0.017672590911388397,
        -0.0924980640411377, -0.03151991218328476, -0.06211942806839943, -0.08553396910429001,
        0.06611279398202896, -0.05694284662604332, -0.0849972814321518, -0.10022704303264618,
        0.012287793681025505, -0.00039277179166674614, -0.10197443515062332, 0.045670609921216965,
        -0.0010004080832004547, -0.07597620040178299, -0.09737274050712585, 0.018976714462041855,
        -0.04131457209587097, -0.0078427167609334, 0.02047691121697426, 0.002770712599158287,
        -0.008996115066111088, -0.05449783056974411, 0.044462669640779495, -0.023405583575367928,
        0.02068411186337471, 0.02342931181192398, 0.04697081819176674, -0.026407377794384956,
        -0.09064080566167831, -0.07917378097772598, -0.01278104167431593, -0.017283348366618156,
        0.008449428714811802, -0.07474052160978317, -0.016929250210523605, 0.00928271934390068,
        0.028161941096186638, -0.06811308115720749, 0.030320800840854645, -0.04297123849391937,
        -0.06623409688472748, -0.07181785255670547, -0.03214298188686371, -0.03212261199951172,
        -0.016208846122026443, -0.0932990089058876, 0.05658724904060364, 0.06557583808898926,
        0.031871553510427475, 0.0501553900539875, -0.05208651348948479, 0.028535213321447372,
        -0.001784793334081769, 0.023796455934643745, -0.017551641911268234, 0.0653710886836052,
        0.07119237631559372, 0.003641819814220071, -0.022666215896606445, 0.00895115826278925,
        -0.0032727308571338654, -0.0037498907186090946, 0.0505138598382473, 0.051885463297367096,
        -0.05555126070976257, 0.014376186765730381, 0.015915391966700554, -0.04945002496242523,
        0.032342810183763504, -0.083760105073452, -0.008954889141023159, -0.019524917006492615
      ],
      [
        0.018295735120773315, -0.08250153809785843, -0.017893057316541672, 0.048851341009140015,
        -0.001957215368747711, 0.01381574384868145, -0.025228798389434814, -0.05267937853932381,
        -0.03363832086324692, -0.025987600907683372, 0.05490141734480858, 0.07959608733654022,
        0.02280014380812645, 0.026261743158102036, -0.054526422172784805, -0.05868621543049812,
        0.01135561428964138, -0.09791448712348938, 0.0274956151843071, 0.0096303541213274,
        0.008301221765577793, 0.08133111894130707, -0.07177924364805222, -0.05651746690273285,
        -0.04240827262401581, -0.023434806615114212, 0.028821425512433052, 0.0487341471016407,
        0.035924024879932404, 0.05369463935494423, -0.08423950523138046, -0.1118100956082344,
        -0.07816090434789658, 0.02135905995965004, -0.0346028134226799, 0.02593194507062435,
        -0.07626552134752274, -0.12426742166280746, -0.11666067689657211, -0.015151201747357845,
        -0.07920157164335251, -0.031187541782855988, 0.040264517068862915, 0.0574248768389225,
        0.015661686658859253, -0.07030899077653885, -0.11002310365438461, -0.07232954353094101,
        0.052597057074308395, -0.051543064415454865, 0.03749009221792221, -0.06461191922426224,
        -0.06690634787082672, -0.038264404982328415, 0.032278236001729965, -0.013488098047673702,
        -0.09082038700580597, -0.024241479113698006, 0.046009574085474014, -0.015876812860369682,
        -0.10556608438491821, -0.014411618933081627, -0.055059123784303665, -0.0750361755490303,
        -0.09553956985473633, -0.08392390608787537, -0.0189496036618948, 0.012599315494298935,
        -0.06808317452669144, -0.05974233150482178, -0.05774834007024765, -0.08375299721956253,
        -0.05631236359477043, 0.06515488028526306, 0.0844840332865715, -0.08401254564523697,
        0.07128974050283432, -0.020617708563804626, -0.013957192189991474, 0.04262252151966095,
        -0.10320128500461578, 0.008593868464231491, 0.04747428372502327, -0.0164082832634449,
        0.02278445102274418, -0.04927631840109825, 0.05557733029127121, -0.08170633018016815,
        0.06172989681363106, -0.022829273715615273, -0.07924643158912659, 0.05943439155817032,
        -0.09432617574930191, 0.059703972190618515, -0.07500454038381577, 0.050314873456954956,
        -0.02108192816376686, -0.1097470223903656, 0.05066655948758125, -0.06898028403520584,
        -0.06784037500619888, -0.021240202710032463, -0.09683056175708771, -0.03691429644823074,
        0.022778749465942383, -0.0574282705783844, -0.03997715562582016, -0.05849699676036835,
        0.02166404016315937, -0.06967239081859589, 0.008877904154360294, 0.06427600979804993,
        0.05384308472275734, -0.05253845453262329, 0.011101254262030125, 0.04868210479617119,
        -0.05619114637374878, 0.04743054509162903, 0.022157857194542885, -0.005801577586680651,
        0.07454286515712738, 0.05337898060679436, 0.0730276107788086, -0.002817911561578512,
        0.0403687059879303, 0.07525797933340073, -0.10721922665834427, -0.02621488645672798
      ],
      [
        -0.024667643010616302, 0.1154988631606102, 0.08727023750543594, -0.004541799426078796,
        -0.0828176811337471, -0.4167497754096985, 0.1144004762172699, 0.40162768959999084,
        -0.00196954607963562, -0.02012016251683235, -0.18238893151283264, -0.26861292123794556,
        -0.05723421275615692, 0.07820256799459457, -0.05413588136434555, 0.1424238085746765,
        -0.03795786201953888, 0.009876127354800701, 0.01548929512500763, 0.07486394792795181,
        -0.046288955956697464, -0.22057466208934784, -0.1306687444448471, 0.2607802152633667,
        -0.09992953389883041, -0.0624966099858284, -0.05189620330929756, -0.033827293664216995,
