{
  "model_type": "NeuralController",
  "input_features": 7,
  "output_classes": 6,
  "model_state_dict": {
    "shared_layers.0.weight": [
      [
        0.4369930922985077, -0.17701902985572815, -0.24767200648784637, -0.3202075958251953,
        -0.1590423285961151, 0.27801093459129333, 0.6670778393745422
      ],
      [
        -0.9405805468559265, 0.24112887680530548, 0.6263410449028015, 0.2812986969947815,
        -0.18864387273788452, 0.1621699184179306, 0.41188371181488037
      ],
      [
        -0.9931855797767639, 0.41929891705513, -0.06396117806434631, 0.05519239231944084,
        0.41863566637039185, -0.22152113914489746, 0.6945757269859314
      ],
      [
        0.5078056454658508, 0.35120511054992676, 0.2844212055206299, 0.3795384466648102,
        0.07803510129451752, -0.09111817181110382, 0.5950624346733093
      ],
      [
        0.48475921154022217, 0.01811131089925766, 0.6695165634155273, 0.19990848004817963,
        0.11059729009866714, 0.2752554416656494, 1.4210827350616455
      ],
      [
        -0.23948706686496735, 0.3349275290966034, -0.12066073715686798, -0.2795671820640564,
        -0.3467535376548767, -0.3041633367538452, 0.35091570019721985
      ],
      [
        0.8556444048881531, -0.004470417741686106, -0.05735529214143753, -0.2100045382976532,
        0.40924277901649475, 0.07508552074432373, 0.6754982471466064
      ],
      [
        0.2703787088394165, -0.030805516988039017, -0.4038953185081482, -0.17756669223308563,
        -0.21625778079032898, 0.11587872356176376, 0.4478199779987335
      ],
      [
        -2.7676565647125244, 0.19770127534866333, -0.9079188108444214, 0.09242334961891174,
        0.06189250573515892, 0.26677924394607544, -0.14244267344474792
      ],
      [
        0.0029904611874371767, -0.061078913509845734, -1.6254489421844482, -0.21258151531219482,
        0.4714075028896332, 0.10613082349300385, -0.3238423466682434
      ],
      [
        -0.3056719899177551, -0.2040114551782608, 0.06675976514816284, 0.07795949280261993,
        0.12192080169916153, -0.09781673550605774, -4.167635917663574
      ],
      [
        0.1989527940750122, -0.4975235164165497, -0.9847589135169983, -0.21339179575443268,
        0.1545097529888153, 0.007893599569797516, -0.46493101119995117
      ],
      [
        0.8180698752403259, 0.162204310297966, -0.17934256792068481, 0.08687129616737366,
        0.5673465132713318, -0.3222750723361969, 0.49773192405700684
      ],
      [
        0.1164565235376358, -0.102419413626194, 0.25934863090515137, -0.16468775272369385,
        0.1428254246711731, -0.2604842185974121, -0.24433378875255585
      ],
      [
        0.31851068139076233, 0.18179331719875336, -0.8332189917564392, 0.15152503550052643,
        0.17439182102680206, -0.3977763056755066, -0.3280111253261566
      ],
      [
        -0.026630904525518417, -0.4356357753276825, -0.17567700147628784, -0.30162009596824646,
        -0.15312011539936066, 0.26300564408302307, 0.8205050230026245
      ],
      [
        0.12327858805656433, -0.0766080841422081, 0.11387904733419418, -0.38786423206329346,
        -0.17339880764484406, -0.04575764760375023, 0.181468665599823
      ],
      [
        0.022364184260368347, 0.2760179042816162, 0.026387332007288933, -0.18528322875499725,
        -0.16989941895008087, 0.4129946231842041, 0.6820997595787048
      ],
      [
        -0.07486975938081741, -0.14741094410419464, 0.15593968331813812, 0.024822741746902466,
        -0.006061721593141556, 0.0837319865822792, -4.554330348968506
      ],
      [
        -0.39522629976272583, -0.18674695491790771, 0.38614243268966675, 0.3453836739063263,
        -0.0816129744052887, -0.026872070506215096, -0.15333230793476105
      ],
      [
        0.06316667795181274, 0.03299488127231598, 0.23617133498191833, -0.03221598267555237,
        -0.3765261173248291, -0.15212035179138184, 0.20101386308670044
      ],
      [
        -0.07471071183681488, -0.05343101918697357, 0.37442389130592346, 0.6288422346115112,
        0.5794678926467896, -0.5664164423942566, -0.15033289790153503
      ],
      [
        -0.07340792566537857, -0.005583158228546381, -1.212892770767212, -0.5754616856575012,
        0.48046767711639404, 0.37157073616981506, -0.028430717065930367
      ],
      [
        0.10833560675382614, -0.20873227715492249, -0.3365311026573181, -0.08723966032266617,
        0.01096058078110218, -0.2501964569091797, 0.24945968389511108
      ],
      [
        0.4379141926765442, -0.04111000522971153, -0.39990633726119995, -0.5931792855262756,
        -0.20900267362594604, 0.35601502656936646, 0.04184858500957489
      ],
      [
        0.2255355566740036, 0.03906417638063431, 0.2611468434333801, -0.3779953718185425,
        0.01708281971514225, -0.05117885395884514, 0.0033258504699915648
      ],
      [
        0.2571367919445038, -0.049985501915216446, 0.47268587350845337, 0.5064820051193237,
        -0.002874489640817046, 0.039278794080019, 1.2588083744049072
      ],
      [
        -2.4573891162872314, -0.07302277535200119, -0.25274041295051575, -0.5425775647163391,
        0.03872639685869217, 0.3131774067878723, -0.7688801884651184
      ],
      [
        -0.008741629309952259, -0.013788824900984764, -0.023989707231521606, -0.013732885010540485,
        -0.18916542828083038, 0.3866145610809326, -0.6405230760574341
      ],
      [
        0.1231113076210022, 0.21230559051036835, 0.4241137206554413, 0.024627406150102615,
        0.2987483739852905, -0.26887351274490356, 1.1672780513763428
      ],
      [
        0.22587434947490692, 0.0500330924987793, -0.35870161652565, 0.00025367020862177014,
        -0.32579711079597473, -0.1120220273733139, -0.18873897194862366
      ],
      [
        -1.5514456033706665, -0.08011096715927124, 0.755225658416748, -0.053062863647937775,
        0.0701528936624527, -0.3048204779624939, 0.15277689695358276
      ],
      [
        -0.08920357376337051, -0.7727441787719727, -0.30754271149635315, -0.5598216652870178,
        0.11904584616422653, 0.07694365084171295, -0.9169396162033081
      ],
      [
        0.1737670600414276, 0.0349188968539238, -0.18636925518512726, -0.33346885442733765,
        -0.03190765902400017, 0.044213589280843735, 0.011107736267149448
      ],
      [
        0.7007489800453186, 0.20794044435024261, -0.7951151728630066, -0.18109749257564545,
        -0.14711254835128784, -0.19615769386291504, -3.048211097717285
      ],
      [
        -0.7394142150878906, -0.21028022468090057, -0.5117025971412659, -0.3437756299972534,
        0.6083515286445618, -0.16585242748260498, -0.038502514362335205
      ],
      [
        -0.2695171535015106, 0.17102332413196564, 0.01623782142996788, -0.08124155551195145,
        -0.17438358068466187, -0.1613999456167221, 0.23244039714336395
      ],
      [
        0.28475436568260193, -0.25287875533103943, -0.9708145260810852, 0.009138238616287708,
        0.2048051655292511, 0.03692800551652908, 0.11529044806957245
      ],
      [
        0.6034423112869263, 0.09306662529706955, -0.6208915710449219, -0.32639777660369873,
        0.16452769935131073, -0.49969637393951416, -0.8838059306144714
      ],
      [
        -0.7555786371231079, 0.13449326157569885, -0.07887796312570572, 0.3474336862564087,
        0.2777586877346039, -0.14168718457221985, 0.04535806551575661
      ],
      [
        0.520764172077179, -0.1947641521692276, -0.4644022583961487, 0.1332876831293106,
        0.43878093361854553, -0.47903212904930115, 0.19328457117080688
      ],
      [
        -0.9519641995429993, 0.04735199734568596, 0.10746216028928757, 0.163588747382164,
        0.06002581864595413, 0.04165969043970108, -3.0525166988372803
      ],
      [
        -1.0237619876861572, 0.004157573450356722, 0.7838698029518127, -0.05461447313427925,
        -0.3054984211921692, 0.4614184498786926, 0.5576928853988647
      ],
      [
        -0.09277841448783875, -0.03535054251551628, 0.10251709818840027, -0.28047966957092285,
        -0.22568939626216888, -0.10436613857746124, -0.003866645973175764
      ],
      [
        -0.16944755613803864, 0.003632865846157074, 0.41733846068382263, 0.16230978071689606,
        0.049699388444423676, -0.43230774998664856, -2.8820111751556396
      ],
      [
        -0.04475913941860199, -0.29562947154045105, -0.1515190154314041, -0.0802733302116394,
        0.1535467505455017, 0.07726830989122391, 0.1087769865989685
      ],
      [
        0.22531306743621826, -0.021878687664866447, -0.33519262075424194, 0.0797366350889206,
        0.07226820290088654, 0.3287838399410248, -4.426007270812988
      ],
      [
        -0.00035644331364892423, -0.5209712982177734, -0.12182559818029404, 0.1568574160337448,
        -0.4650267958641052, 0.29763492941856384, 0.10816303640604019
      ],
      [
        -0.029067493975162506, 0.0001523443206679076, -0.05777077004313469, 0.14592060446739197,
        0.29809051752090454, -0.3278721570968628, -5.534858226776123
      ],
      [
        -0.12953098118305206, -0.09072559326887131, 0.18871156871318817, -0.12633872032165527,
        -0.07734879851341248, 0.2331029176712036, 0.7846073508262634
      ],
      [
        -0.3582388758659363, -0.36271825432777405, 0.02092360146343708, 0.3621324300765991,
        0.12535394728183746, -0.05147603899240494, -0.012610113248229027
      ],
      [
        -0.40214210748672485, 0.34722384810447693, -0.3681630790233612, -0.428280234336853,
        0.20957741141319275, -0.016739798709750175, -1.4651447534561157
      ],
      [
        -0.3743325173854828, 0.14229145646095276, 0.24599044024944305, 0.0891067311167717,
        -0.005968593992292881, -0.3427509367465973, 0.11693025380373001
      ],
      [
        0.268965482711792, 0.12163572013378143, -0.08573399484157562, -0.2111683338880539,
        -0.25613653659820557, 0.089920274913311, -0.23441803455352783
      ],
      [
        -0.21793681383132935, 0.36230331659317017, -0.2149307131767273, -0.1694803088903427,
        0.02213725447654724, -0.06814311444759369, 0.03426823019981384
      ],
      [
        0.08326439559459686, -0.08478453010320663, 0.18623654544353485, 0.23454919457435608,
        0.1618056446313858, -0.3265324831008911, -2.017432928085327
      ],
      [
        -0.06318943947553635, 0.2547791600227356, -0.5199324488639832, -0.20631760358810425,
        0.13206274807453156, 0.16718938946723938, -1.8116178512573242
      ],
      [
        -0.5554332137107849, -0.008218297734856606, 0.17013131082057953, -0.26419928669929504,
        -0.2211064249277115, 0.38715481758117676, 1.1459170579910278
      ],
      [
        0.19328466057777405, -0.4633297026157379, 0.6200936436653137, 0.3762807250022888,
        -0.009523612447082996, 0.1432044506072998, 0.08190111070871353
      ],
      [
        0.750183641910553, -0.20389902591705322, 0.13364462554454803, 0.018809977918863297,
        0.28436461091041565, 0.2811936140060425, 0.7912665605545044
      ],
      [
        0.1552864909172058, 0.2769467532634735, -0.34117287397384644, 0.12339447438716888,
        0.2864293158054352, -0.23044079542160034, -3.828247308731079
      ],
      [
        -0.25219571590423584, -0.042910587042570114, -0.929149329662323, -0.5869393944740295,
        -0.005070745479315519, -0.07969091087579727, -0.1774139106273651
      ],
      [
        -0.3185708522796631, 0.3277725875377655, 0.3099104166030884, -0.19937041401863098,
        0.2504633367061615, -0.36620020866394043, 0.13054797053337097
      ],
      [
        0.2385106384754181, -0.33611905574798584, -0.048626553267240524, 0.4252902567386627,
        0.5001803040504456, -0.11241649091243744, 0.2144928276538849
      ],
      [
        -0.38769468665122986, 0.16469122469425201, -0.9168151617050171, -0.3884160816669464,
        0.5778633952140808, -0.2266630232334137, 0.11880645900964737
      ],
      [
        0.18847811222076416, -0.00391676090657711, -1.7514089345932007, -0.631727933883667,
        0.2214827537536621, 0.09006233513355255, -0.3118583559989929
      ],
      [
        0.40370023250579834, -0.19469217956066132, 0.06118582934141159, -0.11689642071723938,
        0.16004548966884613, 0.18063051998615265, 0.006056960206478834
      ],
      [
        0.5504612326622009, 0.27942970395088196, -0.1283784657716751, -0.29347914457321167,
        -0.32620495557785034, 0.6182999610900879, -0.13253775238990784
      ],
      [
        0.3664490282535553, -0.01072765700519085, -0.5493289828300476, -0.36688312888145447,
        0.02676810324192047, 0.1943652480840683, 0.03169018402695656
      ],
      [
        -0.33902424573898315, 0.08187487721443176, -0.16199591755867004, -0.3314189910888672,
        -0.12042617052793503, -0.2150435745716095, -0.1714487075805664
      ],
      [
        0.09490758925676346, -0.11795846372842789, -0.3121504783630371, -0.4551968574523926,
        -0.09622057527303696, 0.5406073331832886, -3.1936914920806885
      ],
      [
        0.45214197039604187, 0.3805168867111206, 0.03550653159618378, -0.4220205545425415,
        -0.12002094835042953, -0.3410066068172455, -0.5409813523292542
      ],
      [
        -0.2815921902656555, -0.11783574521541595, -0.30094289779663086, -0.05115969851613045,
        -0.27121347188949585, 0.578706681728363, -3.1060056686401367
      ],
      [
        0.030858639627695084, -0.059147272258996964, 0.399985671043396, 0.4815866947174072,
        0.0024153473787009716, -0.5862253308296204, -6.142024993896484
      ],
      [
        -0.008556935004889965, -0.003016555681824684, -0.21735337376594543, 0.266640305519104,
        -0.053372301161289215, -0.21058744192123413, -4.524346828460693
      ],
      [
        0.0056722587905824184, -0.034230418503284454, -0.32279226183891296, 0.3638729155063629,
        0.022726014256477356, -0.23534584045410156, 0.12695781886577606
      ],
      [
        0.26314085721969604, -0.08850724995136261, 0.3040156364440918, -0.2258657068014145,
        -0.30619439482688904, -0.18285129964351654, -0.3401050567626953
      ],
      [
        -0.3571244180202484, 0.23014964163303375, 0.12995828688144684, -0.36590802669525146,
        -0.00044145292486064136, 0.378174364566803, -1.7258058786392212
      ],
      [
        -0.44447746872901917, 0.04575448855757713, -1.4930511713027954, -0.4928605258464813,
        -0.03082979843020439, 0.08523866534233093, 0.2351076602935791
      ],
      [
        -0.17616930603981018, 0.10728523880243301, -0.8143986463546753, 0.019776562228798866,
        0.48277440667152405, -0.29336363077163696, 0.17287303507328033
      ],
      [
        -0.03454739600419998, 0.2033660113811493, 0.12448056042194366, -0.08284687250852585,
        0.2628838121891022, -0.08833339810371399, -0.20977824926376343
      ],
      [
        0.3571649193763733, -0.23282377421855927, 0.787114143371582, 0.4122203588485718,
        -0.12494298815727234, -0.1638919860124588, 0.38766592741012573
      ],
      [
        -0.07835479080677032, 0.34830841422080994, 0.2103899121284485, 0.27430230379104614,
        -0.420457661151886, -0.39289772510528564, -3.8972649574279785
      ],
      [
        -0.3579457998275757, -0.28587204217910767, -0.1259191483259201, -0.11774839460849762,
        -0.027214623987674713, -0.1756252646446228, 0.12012739479541779
      ],
      [
        0.05195574089884758, 0.48983895778656006, 0.3060663938522339, -0.012799837626516819,
        0.06854231655597687, -0.4941633641719818, -2.8275680541992188
      ],
      [
        0.0035913775209337473, 0.02667241357266903, -0.4629497826099396, -0.49193283915519714,
        -0.14286528527736664, 0.42681244015693665, -2.754955530166626
      ],
      [
        0.10326781123876572, 0.25572240352630615, -0.6229871511459351, -0.02302669733762741,
        0.12546922266483307, 0.2156902551651001, 0.29510125517845154
      ],
      [
        -0.5015036463737488, 0.163969486951828, 0.5594552755355835, 0.07510708272457123,
        0.0825079157948494, 0.01839396543800831, 0.9685202240943909
      ],
      [
        -0.3037371337413788, 0.1360364854335785, -0.09360282123088837, 0.19298364222049713,
        -0.0799964964389801, -0.3221447765827179, -0.12474018335342407
      ],
      [
        -3.030592679977417, -0.014439265243709087, -0.6175206899642944, -0.2647114396095276,
        0.2980549931526184, -0.09247961640357971, -0.004504337906837463
      ],
      [
        0.1716107279062271, -0.12044729292392731, -0.29601719975471497, 0.15817978978157043,
        0.1753162443637848, 0.4613744020462036, 0.23451633751392365
      ],
      [
        -2.5710463523864746, -0.017527412623167038, -0.9106378555297852, -0.4858865439891815,
        0.3155452013015747, -0.12088804692029953, -0.8498464226722717
      ],
      [
        -0.00824468769133091, -0.32343658804893494, 0.05751829966902733, -0.15803612768650055,
        -0.08775646239519119, -0.0646650418639183, 0.18170081079006195
      ],
      [
        0.006782015785574913, -0.009473859332501888, -0.4012013077735901, 0.24225680530071259,
        0.2336556315422058, -0.42952218651771545, -3.906083106994629
      ],
      [
        -0.2102053463459015, 0.21953290700912476, 0.24495521187782288, 0.42068561911582947,
        -0.35571596026420593, 0.02827010490000248, -4.391484260559082
      ],
      [
        0.2963394224643707, -0.0979996919631958, -0.22350043058395386, 0.27360016107559204,
        -0.24660120904445648, -0.3468937277793884, -0.2235071361064911
      ],
      [
        -0.274788498878479, -0.18418937921524048, -0.01194300688803196, 0.10073579102754593,
        0.1267499029636383, 0.2573550343513489, -4.54310941696167
      ],
      [
        0.5111027956008911, 0.13379867374897003, 0.304930180311203, -0.05238616093993187,
        -0.10030784457921982, -0.16285835206508636, 0.668932318687439
      ],
      [
        0.2695294916629791, -0.19521790742874146, -0.5505997538566589, -0.3825084865093231,
        0.36832550168037415, 0.21473924815654755, 0.13178282976150513
      ],
      [
        0.003656086279079318, -0.002506896387785673, -0.08952947705984116, 0.09946966171264648,
        -0.34885555505752563, 0.0765233039855957, -4.211408615112305
      ],
      [
        -0.15917572379112244, -0.005465907044708729, 0.19246873259544373, 0.09562786668539047,
        -0.27021586894989014, -0.09458863735198975, -4.880120277404785
      ],
      [
        -0.6704220771789551, -0.16551189124584198, 0.1475238800048828, 0.17504991590976715,
        -0.1681438386440277, 0.2072095274925232, 0.3252374231815338
      ],
      [
        0.24907228350639343, -0.11064188182353973, -0.1671888381242752, -0.15438275039196014,
        -0.15068204700946808, 0.44627171754837036, 0.14529746770858765
      ],
      [
        0.02119898982346058, -0.22188244760036469, 0.26740238070487976, -0.10026393830776215,
        -0.3264172077178955, -0.2152310609817505, 0.26908740401268005
      ],
      [
        0.27220723032951355, -0.24549610912799835, -0.42492878437042236, -0.5062477588653564,
        0.14226551353931427, 0.4219077229499817, -2.180515766143799
      ],
      [
        -2.707780122756958, -0.04147082939743996, -0.408464640378952, -0.5310959219932556,
        0.13686852157115936, 0.3260059952735901, -0.02259940467774868
      ],
      [
        -1.7154052257537842, -0.11062156409025192, -0.15446056425571442, -0.6224561929702759,
        0.2178102731704712, 0.5081184506416321, 0.5917924046516418
      ],
      [
        0.09272858500480652, 0.3155215382575989, -0.2939929664134979, -0.3454626500606537,
        -0.24093091487884521, -0.011748400516808033, 0.011200418695807457
      ],
      [
        -2.7021214962005615, -0.008397281169891357, -0.5897568464279175, -0.25198715925216675,
        0.2915327548980713, -0.032423313707113266, -0.006698837969452143
      ],
      [
        0.442805677652359, -0.23477302491664886, -0.9271643161773682, -0.43506574630737305,
        0.13992242515087128, -0.07373122125864029, 0.018822256475687027
      ],
      [
        0.26546183228492737, -0.10119855403900146, -0.1102718785405159, -0.24373197555541992,
        0.2910793125629425, -0.361054927110672, 0.3355271518230438
      ],
      [
        -1.0174329280853271, 0.21696551144123077, -0.5707604289054871, -0.40787848830223083,
        0.21165697276592255, -0.020708806812763214, -0.4039670526981354
      ],
      [
        -0.6156103610992432, 0.15532837808132172, -0.2659163177013397, -0.23145316541194916,
        0.0820593610405922, -0.11028572916984558, -0.9483370184898376
      ],
      [
        0.04277839511632919, -0.07052446156740189, -0.06680673360824585, -0.2497110664844513,
        0.08682392537593842, -0.15593670308589935, 0.14870472252368927
      ],
      [
        -0.11953350156545639, -0.07215943932533264, -0.09282563626766205, -0.31812745332717896,
        0.36279845237731934, 0.06878504157066345, -0.3307390809059143
      ],
      [
        0.11885323375463486, -0.003880864242091775, -0.4676806330680847, 0.20396500825881958,
        0.14628002047538757, -0.39022502303123474, -4.713872909545898
      ],
      [
        0.2293131947517395, 0.2689102292060852, 0.25343599915504456, 0.05035796016454697,
        -0.07749819755554199, 0.0787268728017807, 1.090987205505371
      ],
      [
        0.09136001765727997, 0.09355071932077408, -0.2926276624202728, -0.38185814023017883,
        -0.5196737051010132, 0.4851634204387665, -0.11854269355535507
      ],
      [
        -0.1629202514886856, -0.3648837208747864, 0.29928311705589294, -0.005142746493220329,
        -0.34146299958229065, -0.2364806979894638, -0.2452041059732437
      ],
      [
        0.0967903658747673, 0.06332649290561676, -0.320218950510025, -0.3753834366798401,
        0.017520546913146973, -0.3704334497451782, 0.1822921484708786
      ],
      [
        0.5136226415634155, -0.017093123868107796, -0.4028405547142029, -0.623979389667511,
        -0.3508231043815613, 0.2288152277469635, -0.5787482857704163
      ],
      [
        0.23627331852912903, -0.12521839141845703, -0.12410439550876617, 0.3232768177986145,
        0.32655584812164307, 0.06585422158241272, -5.464272975921631
      ],
      [
        0.19102168083190918, -0.13120800256729126, -0.04022276774048805, -0.27592700719833374,
        0.04902489855885506, -0.24642474949359894, -0.09738471359014511
      ],
      [
        -0.7077969908714294, -0.023193230852484703, 0.32381877303123474, -0.09722355753183365,
        0.17665360867977142, 0.6199607849121094, 0.993577778339386
      ],
      [
        0.5509641766548157, 0.15940314531326294, 0.2233092337846756, 0.1732288897037506,
        0.22373844683170319, 0.10309983789920807, 0.6391539573669434
      ],
      [
        -2.7255778312683105, 0.0020876475609838963, -0.6406105756759644, -0.270822137594223,
        -0.19425040483474731, 0.09382467716932297, -0.002974267117679119
      ],
      [
        0.3264213800430298, -0.2538107931613922, -0.4385289251804352, 0.18282708525657654,
        -0.14136730134487152, -0.3152991235256195, -0.48146700859069824
      ],
      [
        0.5893810391426086, 0.3194441497325897, -0.4689810276031494, -0.24936650693416595,
        -0.017990441992878914, 0.3061356544494629, 0.7025400400161743
      ]
    ],
    "shared_layers.0.bias": [
      0.17533622682094574, -0.16865280270576477, -0.13405264914035797, -0.07888925075531006,
      -0.11843491345643997, -0.07266470789909363, 0.04170198366045952, 0.07777263969182968,
      0.02116001769900322, 0.2464389055967331, 0.29457923769950867, 0.12432557344436646,
      0.06118490546941757, -0.24087801575660706, 0.2996985912322998, 0.019485196098685265,
      -0.006676067132502794, -0.21587681770324707, 0.09810350835323334, 0.10525137186050415,
      -0.10033296793699265, -0.06682195514440536, -0.15312723815441132, -0.37239745259284973,
      0.15024730563163757, 0.004966806620359421, -0.25007498264312744, 0.19152751564979553,
      -0.2576211094856262, 0.010678017511963844, -0.2522178590297699, 0.32910752296447754,
      0.25337961316108704, -0.24713177978992462, 0.24827200174331665, 0.5747164487838745,
      -0.11938756704330444, -0.16927775740623474, 0.4378588795661926, -0.15733776986598969,
      0.3715164065361023, 0.07726947963237762, -0.17319238185882568, -0.2967797815799713,
      -0.03970209136605263, -0.203406423330307, -0.17356258630752563, 0.04385891556739807,
      0.22807499766349792, -0.08197704702615738, -0.30065807700157166, -0.09880025684833527,
      -0.36607256531715393, -0.3245018720626831, -0.2828999161720276, -0.050691813230514526,
      0.06797802448272705, -0.13782647252082825, -0.24343769252300262, -0.12643058598041534,
      0.1012156680226326, 0.5145047307014465, -0.20406420528888702, 0.023784684017300606,
      0.6948934197425842, 0.467436283826828, -0.2459772527217865, -0.36560478806495667,
      -0.10074471682310104, -0.3771154284477234, 0.06295935064554214, 0.012509148567914963,
      0.1711168885231018, -0.0852322056889534, 0.2540968954563141, 0.16057410836219788,
      -0.3094443082809448, 0.07473558187484741, 0.5529704689979553, 0.4596876800060272,
      -0.29000604152679443, -0.14244811236858368, 0.3285210132598877, -0.17775793373584747,
      0.028497792780399323, 0.1479087471961975, -0.33780935406684875, -0.08420617878437042,
      -0.377025842666626, 0.3268943727016449, -0.45327362418174744, 0.3727675974369049,
      -0.09266748279333115, 0.28039613366127014, 0.05643359571695328, 0.44783127307891846,
      0.12918800115585327, 0.1548813134431839, -0.17218206822872162, 0.16505222022533417,
      0.3046635389328003, 0.04445704072713852, -0.21828995645046234, -0.19706502556800842,
      0.11967095732688904, 0.14324915409088135, -0.10069198161363602, -0.2951718866825104,
      0.23230567574501038, 0.1496264785528183, -0.2986293435096741, 0.11018719524145126,
      0.21955899894237518, -0.35480743646621704, -0.2422986626625061, 0.30288103222846985,
      -0.1521277129650116, 0.12453317642211914, 0.05909668654203415, 0.15057457983493805,
      0.10900157690048218, -0.19279608130455017, -0.20760226249694824, -0.38628172874450684,
      -0.3061029016971588, 0.38380512595176697, 0.3052386939525604, -0.35361868143081665
    ],
    "shared_layers.2.weight": [
      [
        -0.09526727348566055, -0.040324173867702484, -0.07108452916145325, 0.002057950710877776,
        -0.07688730955123901, -0.08605848252773285, -0.07461753487586975, -0.09038712084293365,
        0.07594074308872223, -0.016102144494652748, -0.00034750287886708975, -0.05244845896959305,
        -0.04150236025452614, 0.0438690222799778, 0.07974381744861603, -0.09243832528591156,
        -0.10737809538841248, -0.06006399169564247, -0.03599761426448822, -0.06983446329832077,
        -0.0013546734116971493, 0.013192664831876755, -0.04889676347374916, -0.033448316156864166,
        -0.03309211879968643, -0.07345958054065704, -0.07710792124271393, 0.00445343554019928,
        -0.08837258070707321, 0.06420570611953735, 0.08373000472784042, 0.06248854100704193,
        -0.058335792273283005, 0.01740722730755806, 0.05144694074988365, -0.07492207735776901,
        0.005633547902107239, 0.051612213253974915, -0.005692733451724052, 0.021418752148747444,
        -0.11596499383449554, -0.0695621445775032, 0.046801358461380005, 0.06881515681743622,
        0.01222797017544508, 0.06070523336529732, -0.03204523026943207, -0.001900617266073823,
        0.0375819206237793, -0.06320451945066452, 0.04787186533212662, -0.036780547350645065,
        -0.08234413713216782, 0.03546902909874916, -0.05552889406681061, -0.10111112147569656,
        -0.09730339795351028, -0.07098674029111862, 0.042678799480199814, -0.034087542444467545,
        -0.025959404185414314, 0.07095983624458313, 0.08492184430360794, -0.100975401699543,
        0.03115706890821457, 0.04786638170480728, -0.012828143313527107, 0.006951595656573772,
        0.0030824467539787292, 0.007513697724789381, -0.07629095017910004, -0.011604216881096363,
        -0.07438969612121582, -0.016039248555898666, -0.06344874203205109, 0.06498987227678299,
        -0.04702429100871086, -0.06352655589580536, 0.09104356914758682, -0.010285014286637306,
        -0.05149777978658676, -0.09524639695882797, -0.058446433395147324, -0.08247783780097961,
        -0.06692657619714737, -0.012024858966469765, -0.03775949776172638, 0.02343134395778179,
        -0.07989770919084549, 0.05143512040376663, -0.0901816114783287, -0.006207410711795092,
        -0.08488685637712479, -0.06901099532842636, 0.06182292848825455, -0.07301253080368042,
        0.04580523446202278, -0.061192017048597336, 0.01606634631752968, 0.06331469863653183,
        0.02077798917889595, -0.05216899514198303, -0.09568953514099121, -0.08069522678852081,
        -0.003979092463850975, 0.052652791142463684, 0.016576087102293968, 0.08820335566997528,
        -0.06292304396629333, 0.05262238159775734, 0.015663359314203262, 0.01861077919602394,
        -0.020022021606564522, 0.0761314108967781, 0.041720323264598846, -0.02422717772424221,
        0.026893138885498047, -0.06443757563829422, -0.07670138031244278, -0.039535026997327805,
        0.012076426297426224, -0.05521980673074722, 0.07627782970666885, 0.06605549156665802,
        0.014305764809250832, -0.028217757120728493, 0.012027694843709469, -0.014020328409969807
      ],
      [
        -0.05580701306462288, 0.20350341498851776, 0.3324902355670929, 0.22759312391281128,
        0.37432995438575745, 0.02280854620039463, 0.14803682267665863, 0.008181612007319927,
        -0.2979152202606201, -0.06887287646532059, 0.11380838602781296, -0.11874447017908096,
        0.22667475044727325, 0.010937812738120556, 0.6957002878189087, -0.6202164888381958,
        0.07516336441040039, -0.2878093123435974, -0.22871117293834686, 0.35223907232284546,
        0.07304065674543381, 1.0539662837982178, -0.3900018036365509, 0.05866243690252304,
        -0.2838466763496399, 0.05013410374522209, 0.25454503297805786, -0.4102838635444641,
        -1.1647037267684937, 0.2760271430015564, 0.02469358593225479, -0.013920030556619167,
        -0.4867413640022278, 0.00316282594576478, 0.13958773016929626, -0.10439801961183548,
        0.03186381608247757, 0.06324583292007446, 0.45922333002090454, 0.22667863965034485,
        0.5218741297721863, 0.3652385175228119, 0.07662546634674072, 0.056886665523052216,
        -1.8730322122573853, 0.024621272459626198, -0.4072692394256592, -0.060107745230197906,
        -1.3010982275009155, -0.13353650271892548, -0.013184113427996635, -0.07414530962705612,
        0.07720279693603516, 0.04507981613278389, -0.009488899260759354, 0.007683692499995232,
        -0.0179262924939394, -0.2363836020231247, 0.3039608597755432, 0.08129364252090454,
        0.1526801437139511, -0.33027616143226624, -0.026039259508252144, 0.33895614743232727,
        0.01833183504641056, -0.07603760063648224, 0.06247168779373169, -0.36525845527648926,
        -0.3615870177745819, 0.00884224008768797, -0.636838436126709, 1.1737951040267944,
        -0.49944427609443665, -3.8287391662597656, -0.1750318706035614, 0.6163681149482727,
        0.03642016649246216, -0.22890128195285797, -0.4295346736907959, -0.026079323142766953,
        -0.03316434845328331, 0.2852504849433899, 0.19617773592472076, 0.002926108194515109,
        -0.1401223987340927, -0.4672563970088959, -0.08712298423051834, 0.15155844390392303,
        -0.04059286043047905, 0.1678667515516281, -0.1621142476797104, 1.124090313911438,
        -0.04862005636096001, -0.16020575165748596, -0.16358795762062073, 0.5323947072029114,
        -0.39114677906036377, 0.16958710551261902, -0.0007964299875311553, -2.6214847564697266,
        -0.3107995092868805, 0.25631508231163025, -0.16419561207294464, -0.08538926392793655,
        -0.32846370339393616, -0.3507947325706482, -0.7867226600646973, -0.024191057309508324,
        0.9301036596298218, 0.18997952342033386, -0.016982387751340866, 0.18703673779964447,
        0.3828794062137604, 0.022494815289974213, -0.08411572128534317, 0.4034463167190552,
        0.020106418058276176, -0.20930039882659912, -0.06364696472883224, 0.03584083542227745,
        -0.24158257246017456, -0.7698297500610352, -0.006922672502696514, -0.029304005205631256,
        0.053842876106500626, -0.11044894903898239, 0.43301650881767273, -0.08851699531078339
      ],
      [
        -0.018592469394207, 0.0711522251367569, 0.044023383408784866, 0.006171806249767542,
        -0.0031674562487751245, -0.08625800907611847, 0.01390312984585762, -0.04457441344857216,
        0.030222134664654732, -0.03342241793870926, -0.08587255328893661, -0.0015003579901531339,
        -0.07158128172159195, -0.055976398289203644, -0.08530889451503754, -0.0036508534103631973,
        -0.080283522605896, -0.0144019965082407, -0.016570746898651123, -0.03513631597161293,
        -0.08379296958446503, 0.03414343297481537, -0.06804003566503525, -0.041841376572847366,
        0.03279922530055046, -0.01955847069621086, -0.01281509455293417, 0.066936194896698,
        -0.023089183494448662, 0.024265378713607788, 0.05048711970448494, -0.09038156270980835,
        -0.03138648346066475, -0.0069768838584423065, -0.007951314561069012, -0.07277949899435043,
        0.0639122799038887, -0.03215276077389717, -0.007229966577142477, 0.073430635035038,
        0.07353140413761139, 0.005926160141825676, 0.052127063274383545, 0.022638240829110146,
        0.00029087645816616714, -0.012830616906285286, -0.061889201402664185, -0.005684934556484222,
        0.016288867220282555, -0.04964626580476761, 0.07108290493488312, -0.047995563596487045,
        0.052007291465997696, -0.07997983694076538, -0.06922002136707306, -0.0408356674015522,
        0.06519561260938644, -0.0584590770304203, -0.03312493488192558, -0.05493661388754845,
        0.04393649846315384, -0.09319164603948593, 0.061051931232213974, 0.06589005887508392,
        -0.05608994513750076, -0.05295521765947342, 0.0573553740978241, -0.0689496099948883,
        0.02905336208641529, -0.06652325391769409, 0.04661304131150246, 0.07265377044677734,
        0.03077918104827404, 0.0013487926917150617, -0.03250151500105858, 0.06040358170866966,
        -0.05067749693989754, -0.08101821690797806, -0.09050959348678589, -0.005889128893613815,
        -0.029584234580397606, -0.0762508437037468, -0.04232580587267876, 0.08243416249752045,
        -0.08208630979061127, -0.0757988914847374, -0.006833520717918873, 0.02938757836818695,
        0.058351751416921616, -0.02568730339407921, -0.07466846704483032, 0.028130048885941505,
        -0.056511253118515015, -0.06237822771072388, -0.053390443325042725, -0.05619753152132034,
        0.0713886022567749, 0.00873401015996933, -0.07978887856006622, -0.09036532789468765,
        -0.011880380101501942, 0.04397859796881676, 0.0785808265209198, 0.0336310975253582,
        0.07767855376005173, 0.02222609519958496, 0.0367085263133049, -0.014399891719222069,
        -0.043315913528203964, 0.030467920005321503, 0.015951791778206825, 0.06709496676921844,
        -0.08574778586626053, 0.031594593077898026, -0.08401987701654434, 0.06645060330629349,
        -0.046636324375867844, -0.05889177694916725, -0.021791575476527214, -0.033168863505125046,
        0.05737471580505371, 0.005115891341120005, -0.04838463291525841, -0.05097717046737671,
        0.050538551062345505, 0.0022708671167492867, 0.059817034751176834, -0.038143012672662735
      ],
      [
        -0.2124100625514984, 0.015451914630830288, 0.2484910488128662, -0.5340226888656616,
        -0.603302538394928, -0.02442326582968235, -0.4389810562133789, -0.1911819875240326,
        1.6852171421051025, 0.06872893869876862, 0.213083878159523, -0.037054628133773804,
        -0.39977478981018066, 0.017778383567929268, -0.25954470038414, 0.21923907101154327,
        -0.16722403466701508, -0.1303698718547821, 0.2745944559574127, 0.14661788940429688,
        0.07486336678266525, -0.534784734249115, -0.0021006588358432055, 0.06395227462053299,
        -0.08219652622938156, -0.12875983119010925, -0.9155963063240051, 1.571330189704895,
        -0.05904446914792061, -0.30752822756767273, 0.037520136684179306, 0.5662464499473572,
        0.12645672261714935, -0.08009526133537292, -0.2149505764245987, 0.17296048998832703,
        0.033270079642534256, -0.447918564081192, -0.40868979692459106, 0.08626234531402588,
        -0.5099493265151978, 0.5486237406730652, 0.589485228061676, 0.05555480346083641,
        -0.08180973678827286, -0.010983394458889961, 0.19647401571273804, 0.14095239341259003,
        1.3623791933059692, -0.056201592087745667, 0.08131705224514008, 0.07444696873426437,
        0.04838641360402107, -0.006181045901030302, 0.05624241754412651, -0.12427935749292374,
        -0.02845962531864643, -0.004885057453066111, -0.25904756784439087, -0.3550543785095215,
        -0.11720123142004013, 0.036891452968120575, -0.03520578891038895, -0.3462042808532715,
        0.01718711107969284, 0.05893130972981453, -0.3733972907066345, -0.04063040763139725,
        -0.014088965952396393, 0.06823393702507019, 0.1558867245912552, 0.07081082463264465,
        0.12198293209075928, 0.017800223082304, 0.20735132694244385, -0.2512350380420685,
        0.0764944925904274, 0.22172018885612488, 0.03402649983763695, 0.09790942817926407,
        -0.003580153454095125, -0.23052595555782318, 0.4965866804122925, 0.02364189550280571,
        0.7381187081336975, 0.09652959555387497, 0.02611464262008667, -0.16658760607242584,
        -0.07580580562353134, 2.9116008281707764, -0.15465816855430603, 2.7308402061462402,
        0.050866059958934784, 0.4848107099533081, 0.2149437814950943, -0.4800845980644226,
        0.210226371884346, -0.6496404409408569, -0.030857393518090248, 0.5783839225769043,
        0.44401004910469055, -0.018557798117399216, -0.18533852696418762, 0.03422240912914276,
        -0.03230232000350952, 1.6673610210418701, 0.8872203230857849, 0.06638305634260178,
        3.8872992992401123, -0.1974908411502838, -0.017729725688695908, 0.16306619346141815,
        0.00020573681103996933, -0.07306738942861557, 0.011464469134807587, 0.20352648198604584,
        -0.28642991185188293, 0.007838612422347069, 0.030342863872647285, 0.043934453278779984,
        0.004053599201142788, 0.9843735098838806, -0.0225547906011343, 0.2108931690454483,
        -0.4412599802017212, 3.759807586669922, -0.6366098523139954, 0.2817133367061615
      ],
      [
        0.03677409887313843, 0.027930758893489838, 0.06825637817382812, -0.010597609914839268,
        0.028482263907790184, 0.033136095851659775, 0.02802320569753647, -0.05942734703421593,
        -0.04308798909187317, -0.05074288323521614, -0.06053057685494423, 0.052095990628004074,
        -0.0731523334980011, 0.061686884611845016, 0.05013938248157501, 0.014231057837605476,
        -0.05946914851665497, -0.04255456477403641, -0.0117667680606246, -0.08945868164300919,
        0.01922244019806385, 0.061442963778972626, -0.05635356903076172, 0.036284759640693665,
        -0.03190458565950394, -0.04687086492776871, 0.06413422524929047, -0.06079133227467537,
        0.004729239270091057, -0.040094684809446335, 0.04694955423474312, 0.06619521230459213,
        -0.09504513442516327, 0.05477899685502052, -0.04413264989852905, 0.0022899776231497526,
        -0.0407504066824913, 0.0019848898518830538, 0.01913045160472393, -0.08341816067695618,
        0.033049799501895905, 0.005967790260910988, 0.022850651293992996, 0.013572233729064465,
        0.006244358606636524, -0.06364478170871735, -0.04841121286153793, -0.027554979547858238,
        0.004265318624675274, -0.08071763813495636, -0.0865679383277893, 0.008305234834551811,
        -0.04435136914253235, 0.012553839012980461, -0.016855008900165558, -0.07231714576482773,
        0.053270164877176285, -0.055327221751213074, -0.06383339315652847, 0.028894027695059776,
        -0.011500532738864422, 0.0876031368970871, -0.06917320936918259, -0.1072792038321495,
        -0.042532116174697876, -0.03346574679017067, -0.06885072588920593, 0.03708619251847267,
        -0.035415664315223694, 0.07381933927536011, -0.08121275901794434, 0.0605459101498127,
        0.06997683644294739, -0.04183008521795273, -0.05131082609295845, -0.08565592020750046,
        0.05617084354162216, 0.056936245411634445, -0.06373041868209839, 0.06749540567398071,
        0.0296328067779541, 0.0697908028960228, -0.09723720699548721, 0.049132633954286575,
        -0.010542920790612698, -0.02128094621002674, -0.10417286306619644, -0.07974426448345184,
        0.021521518006920815, 0.09030687808990479, -0.027937326580286026, 0.07803277671337128,
        0.06317947059869766, -0.07098338007926941, 0.04026595130562782, -0.03448343649506569,
        0.042072445154190063, -0.06159118190407753, -0.04613081365823746, -0.00319829978980124,
        -0.07059341669082642, -0.04299471154808998, 0.0014640036970376968, 0.006516830064356327,
        -0.03461639955639839, 0.04591542109847069, 0.08528556674718857, -0.038510195910930634,
        0.07441160827875137, -0.006512463092803955, 0.044815849512815475, 0.04419563710689545,
        -0.06810519099235535, -0.0592900887131691, -0.030119191855192184, -0.05317552387714386,
        0.052705395966768265, -0.03273411840200424, -0.01063352357596159, 0.06255987286567688,
        -0.028879234567284584, 0.03314460813999176, -0.0005584246828220785, -0.09347155690193176,
        0.034241966903209686, 0.00865909457206726, -0.07653486728668213, -0.00334669160656631
      ],
      [
        0.06943608075380325, 0.0344420000910759, -0.001775884535163641, 0.08245240896940231,
        0.007940102368593216, -0.038351114839315414, -0.0648677870631218, -0.06468407809734344,
        -0.0027748660650104284, -0.005874758120626211, -0.03976937010884285, 0.07638471573591232,
        -0.09224069118499756, 0.07537797093391418, 0.012732823379337788, 0.07820732146501541,
        -0.08473557978868484, -0.037418171763420105, -0.04410620033740997, -0.021216506138443947,
        0.006182868964970112, 0.02472933940589428, -0.07463288307189941, -0.014802878722548485,
        -0.07590862363576889, 0.07290923595428467, -0.033516835421323776, -0.001974851358681917,
        -0.09148672223091125, -0.01969342678785324, -0.03265110030770302, -0.06405865401029587,
        -0.08094457536935806, -0.059015605598688126, -0.013297154568135738, -0.0024269341956824064,
        0.042544174939394, 0.025478599593043327, 0.05105336382985115, -0.026609808206558228,
        -0.05023616924881935, -0.06121651083230972, 0.02220136858522892, -0.07694399356842041,
        0.04141595587134361, 0.05525454878807068, 0.058149565011262894, -0.03200306370854378,
        0.031453102827072144, 0.04849793016910553, -0.009459786117076874, 0.017001423984766006,
        -0.0785626694560051, -0.03196655958890915, -0.07439634948968887, -0.01529043260961771,
        -0.0853026732802391, -0.05743756517767906, 0.041327428072690964, -0.05594013258814812,
        -0.0060684108175337315, -0.049635108560323715, 0.0780913308262825, -0.005267420317977667,
        0.046838320791721344, 0.03925400599837303, -0.06578285247087479, -0.0774165466427803,
        0.0017195515101775527, 0.005143390502780676, -0.06185140088200569, -0.029788600280880928,
        0.08246003836393356, 0.013458095490932465, -0.020044468343257904, 0.047353602945804596,
        0.018689587712287903, -0.046977560967206955, 0.03248954564332962, -0.04600756987929344,
        -0.05237944796681404, 0.006678307428956032, 0.005107492674142122, 0.05041110888123512,
        0.07792747765779495, -0.012581363320350647, -0.03421754017472267, -0.05958626791834831,
        0.06321700662374496, 0.0560440830886364, -0.042784497141838074, -0.08519461750984192,
        -0.024531668052077293, -0.027682291343808174, 0.011616629548370838, -0.05515231564640999,
        -0.07369275391101837, -0.07958918064832687, -0.0761108547449112, 0.0638168603181839,
        0.05276155844330788, 0.023909395560622215, 0.03232883661985397, -0.035925570875406265,
        0.005932676140218973, -0.012708167545497417, 0.006929808296263218, 0.010552517138421535,
        0.009717254899442196, 0.021736137568950653, 0.08078708499670029, -0.0028974334709346294,
        -0.07940848916769028, 0.0287238247692585, -0.011095915921032429, -0.03276927396655083,
        -0.04768681898713112, -0.016935350373387337, -0.01126120612025261, 0.05985676497220993,
        0.02115509659051895, -0.020526492968201637, -0.04824724420905113, -0.040415070950984955,
        0.005095967557281256, 0.040828946977853775, 0.07187949120998383, -0.08214276283979416
      ],
      [
        0.016706597059965134, 0.041124772280454636, -0.6330729722976685, -0.003242418635636568,
        -0.1651911437511444, 0.03820524364709854, -0.045866090804338455, 0.012331198900938034,
        0.20964309573173523, -0.0024286427069455385, 0.045473773032426834, -0.19834603369235992,
        -0.08039600402116776, -0.03841366991400719, -0.41802945733070374, 0.1742105931043625,
        0.0023488441947847605, 0.3243393898010254, 0.3779189884662628, -0.2327742725610733,
        -0.03807191178202629, -0.4472239911556244, 0.24542972445487976, 0.014474312774837017,
        0.11736448109149933, 0.1615261733531952, -0.3271000385284424, 0.30315962433815,
        1.6046745777130127, -0.19089674949645996, -0.04709654301404953, -0.7117583155632019,
        0.028083721175789833, 0.07290629297494888, 0.0367165133357048, -0.11434999853372574,
        0.02936442568898201, 0.04695462808012962, -0.24799060821533203, 0.15537454187870026,
        -0.38493019342422485, 0.1758074313402176, 0.18052861094474792, 0.038906946778297424,
        1.4828888177871704, -0.020931273698806763, 0.7211747169494629, 0.20193950831890106,
        2.428802728652954, -0.07931385934352875, 0.024179382249712944, -0.009911756962537766,
        -0.03411519527435303, 0.03876961022615433, -0.06256531924009323, 1.39277982711792,
        0.22018861770629883, 1.2360676527023315, -0.01868431642651558, -0.07661604881286621,
        0.06308258324861526, 0.10865873843431473, 0.011096147820353508, -0.13592956960201263,
        -0.02419019117951393, 0.015025760047137737, 0.10499222576618195, 0.38723528385162354,
        0.08734452724456787, -0.011330284178256989, 0.7995352745056152, 0.35012534260749817,
        0.5660390853881836, 3.800121307373047, 0.6494662165641785, -0.47776371240615845,
        -0.08193577826023102, 0.245664581656456, 0.12169206887483597, -0.16199682652950287,
        -0.04455643147230148, -0.1971614956855774, 0.4031873643398285, 0.061633285135030746,
        0.5715529322624207, 1.0332845449447632, 0.20918433368206024, -0.15771900117397308,
        0.07786685973405838, -1.3109755516052246, 0.36735397577285767, -1.8419411182403564,
        -0.03909403458237648, 0.9691504836082458, 0.3214415907859802, -0.2954389154911041,
        0.42659878730773926, -0.02916727215051651, -0.010622161440551281, 3.7594010829925537,
        0.82985919713974, -0.07089761644601822, 0.39921510219573975, 0.03314009681344032,
        0.41308706998825073, 0.45521366596221924, 0.4823797643184662, -0.0060912310145795345,
        -2.3526973724365234, -0.02462310902774334, 0.00289502483792603, -0.22684496641159058,
        -0.10667269676923752, -0.027325740084052086, 0.06542926281690598, -0.041082289069890976,
        -0.06817565113306046, 0.4117352068424225, 0.04031858220696449, -0.013679665513336658,
        0.10204406827688217, 0.7489772439002991, 0.02254742570221424, -0.1971314400434494,
        -0.027572154998779297, -0.42560601234436035, -0.31530657410621643, 0.8425636887550354
      ],
      [
        -0.1279648393392563, -0.06869646906852722, 0.18482458591461182, 0.11878082901239395,
        0.06796419620513916, -0.0146155571565032, 0.07484998553991318, -0.19385939836502075,
        -0.3272484242916107, -0.03571946546435356, -0.4072677195072174, -0.1512182354927063,
        0.03725194185972214, -0.05629018321633339, 0.16960538923740387, -0.2392713874578476,
        -0.019996099174022675, -0.3486986756324768, -0.14023657143115997, 0.15213851630687714,
        0.0115578668192029, 0.4478387236595154, 0.06493199616670609, 0.06456292420625687,
        -0.1528812050819397, 0.062245022505521774, 0.0921521708369255, -0.01616322062909603,
        -0.8053730726242065, 0.03860534727573395, -0.011861376464366913, -0.11613941192626953,
        0.030433060601353645, -0.04612618312239647, 0.03691840171813965, 0.13552214205265045,
        0.029482152312994003, -1.022554636001587, 0.18793484568595886, 0.1182444840669632,
        0.043876733630895615, 0.13116656243801117, 0.19608555734157562, -0.030553525313735008,
        -0.24002566933631897, -0.08627954870462418, -0.35115912556648254, -0.353440523147583,
        0.11217835545539856, -0.3108907639980316, 0.062358178198337555, 0.07049456238746643,
        -0.044690292328596115, 0.0044343541376292706, -0.01218337845057249, -0.0735885351896286,
        -0.11184382438659668, -0.17127741873264313, 0.08625224977731705, 0.10573440790176392,
        -0.10096830874681473, -0.05847116559743881, 0.0669572502374649, 0.14066989719867706,
        0.08334724605083466, -0.17616818845272064, -0.015122671611607075, -0.14772599935531616,
        -0.6876837611198425, -0.015375780873000622, -0.5415669679641724, 0.5871930122375488,
        -0.2661612033843994, -0.4078446626663208, -0.04655129462480545, -0.038151782006025314,
        -0.08283855766057968, -0.010878656059503555, -0.13140247762203217, 0.11132048815488815,
        -0.01968531124293804, 0.13964492082595825, 0.2352643609046936, -0.05852856859564781,
        -0.04494883865118027, -1.8696907758712769, -0.1558554470539093, -0.047000057995319366,
        -0.05447914078831673, -0.7004766464233398, -0.2179519236087799, -0.0970771461725235,
        -0.07582028210163116, -0.23925213515758514, -0.014659745618700981, 0.26398715376853943,
        -0.17508283257484436, -0.004671742208302021, -0.3739544749259949, -3.0746922492980957,
        -0.14239785075187683, -0.06827937811613083, -0.30837446451187134, 0.06297922134399414,
        -0.09918399900197983, -0.07248078286647797, -0.010652679949998856, 0.07253673672676086,
        -1.3035629987716675, 0.03869341313838959, 0.012592877261340618, -0.28943151235580444,
        -0.26055586338043213, 0.0007848585955798626, 0.021886415779590607, 0.6272067427635193,
        -0.03581533581018448, -0.3124050199985504, 0.04862622916698456, 0.07867886871099472,
        -0.25941112637519836, 0.03208411857485771, -0.0655631273984909, -0.011280477978289127,
        0.11177023500204086, -1.6773020029067993, 0.05162318795919418, -0.2882654666900635
      ],
      [
        -0.19601169228553772, 0.280556857585907, 0.4007609784603119, 0.10323073714971542,
        0.03303694352507591, -0.06150898337364197, -0.3532660901546478, -0.2802574932575226,
        1.6054805517196655, 0.30654215812683105, 0.2626209259033203, -0.1987607181072235,
        -0.3349110186100006, 0.010772154666483402, -0.9079834818840027, 0.2663058936595917,
        0.07988199591636658, 0.05177585408091545, 0.42541438341140747, 0.05169622600078583,
        -0.027796268463134766, 0.02583012357354164, 0.5814850926399231, -0.07390054315328598,
        0.08646820485591888, 0.08557409048080444, 0.012939789332449436, 1.180131196975708,
        1.3560854196548462, -0.09605199098587036, -0.06032640486955643, 0.5727253556251526,
        0.35790830850601196, -0.06333658844232559, 0.02784658782184124, 0.1407271772623062,
        0.01655716821551323, -0.13840259611606598, -0.32727086544036865, 0.16651007533073425,
        -0.1275193691253662, 0.45141521096229553, 0.4075832664966583, 0.062314558774232864,
        1.683342695236206, 0.07922594994306564, 1.0188310146331787, 0.20656509697437286,
        1.4286303520202637, -0.17911195755004883, -0.016101276502013206, 0.30075356364250183,
        0.04481526091694832, 0.002026399364694953, -0.03199963644146919, 0.6673170328140259,
        0.026607660576701164, 0.4150131940841675, 0.31423696875572205, -0.06791120022535324,
        0.1107267439365387, 0.2833189368247986, -0.033237162977457047, -0.056463729590177536,
        -0.12003649026155472, 0.07915318757295609, -0.0722297951579094, 0.3452778160572052,
        -0.1673697978258133, -0.06328220665454865, 0.8331090807914734, 0.15431547164916992,
        0.5810273289680481, 3.0525050163269043, 0.4106561243534088, -0.14554902911186218,
        0.07320378720760345, 0.5347039699554443, 0.46303972601890564, -0.3455148935317993,
        -0.09565053880214691, -0.04634666442871094, 0.39125561714172363, -0.013104940764605999,
        0.2283017635345459, 0.9871113896369934, -0.20162731409072876, 0.12967275083065033,
        -0.08398231118917465, 0.036318276077508926, 0.16919918358325958, -0.049373649060726166,
        -0.05870134010910988, 0.978485643863678, 0.5002237558364868, 0.1537233293056488,
        0.39014187455177307, -0.14372164011001587, -0.014263804070651531, 3.6061012744903564,
        0.7148086428642273, -0.0017048066947609186, 0.1344519555568695, -0.010026124306023121,
        0.2864789664745331, 1.585790991783142, 1.1795176267623901, -0.08096285909414291,
        -0.11740950495004654, -0.25073254108428955, 0.05623043701052666, 0.2332548052072525,
        0.20516440272331238, 0.05920770391821861, 0.02045820653438568, 0.8763697743415833,
        0.11359408497810364, 0.2332734316587448, 0.030825583264231682, -0.023637838661670685,
        -0.06642181426286697, 1.156576156616211, -0.011775460094213486, 0.8115075826644897,
        0.062360841780900955, 0.8296319246292114, 0.14774292707443237, 0.21957144141197205
      ],
      [
        0.035713642835617065, 0.04896166920661926, -0.09864263981580734, 0.06062272563576698,
        -0.0861261710524559, 0.023176731541752815, -0.07254958897829056, -0.06218555197119713,
        -0.05320873111486435, 0.013058195821940899, -0.056349318474531174, -0.07352717965841293,
        -0.0654885545372963, 0.058950744569301605, 0.07921478897333145, 0.06635560840368271,
        -0.02378651686012745, 0.031530316919088364, 0.03687296435236931, 0.01006481982767582,
        -0.08612082153558731, -0.012343998067080975, -0.07336381822824478, -0.05097012221813202,
        -0.0741017535328865, -0.08915098756551743, 0.03749000281095505, -0.01624520681798458,
        -0.029376721009612083, 0.004565633367747068, -0.08547350019216537, -0.03972223773598671,
        0.006422828417271376, -0.024819931015372276, -0.06928134709596634, -0.0689547210931778,
        -0.06024736911058426, -0.025117969140410423, -0.04122566431760788, -0.03784159943461418,
        -0.09256146103143692, -0.030317485332489014, -0.05502906069159508, 0.04021605849266052,
        0.0347442664206028, 0.048397962003946304, -0.02898586168885231, 0.04885603114962578,
        -0.0565357580780983, -0.0038007658440619707, 0.02580108866095543, -0.03349100425839424,
        -0.07753341645002365, -0.04094397649168968, 0.05238662287592888, 0.02012593485414982,
        -0.09275433421134949, 0.01474105566740036, -0.06653226166963577, -0.027750752866268158,
        -0.059897664934396744, -0.08014830201864243, 0.0687425285577774, 0.03247392550110817,
        0.0060738455504179, 0.08233454823493958, -0.06799072027206421, -0.05109734833240509,
        -0.034886449575424194, -0.0520489439368248, -0.07075005024671555, -0.08329924196004868,
        -0.018282881006598473, 0.0199231319129467, 0.054949428886175156, -0.031087243929505348,
        0.0702914297580719, -0.08075592666864395, -0.0015874570235610008, -0.021209241822361946,
        0.08136522769927979, 0.03539194166660309, -0.054360054433345795, -0.05416901409626007,
        -0.045040324330329895, -0.027400895953178406, 0.01955176331102848, -0.09227679669857025,
        0.05813420191407204, 0.002985145663842559, -0.01837516762316227, 0.026928141713142395,
        0.011815911158919334, -0.012398493476212025, -0.05235243961215019, 0.01941201277077198,
        0.06375092267990112, 0.00926169939339161, 0.03039185330271721, 0.016995392739772797,
        -0.07794445008039474, -0.09888529032468796, 0.05219902843236923, -0.08426407724618912,
        0.056319013237953186, 0.04698004573583603, 0.019680196419358253, 0.006455537863075733,
        0.011128637008368969, 0.052716996520757675, 0.02948291040956974, 0.03632012754678726,
        -0.05684536695480347, -0.008016341365873814, 0.07577744871377945, -0.009522791020572186,
        -0.08528412878513336, 0.04178280010819435, 0.05231029540300369, -0.05027713254094124,
        0.07148461043834686, -0.07767839729785919, 0.07077071070671082, 0.06824198365211487,
        -0.1067330613732338, 0.0017078949604183435, -0.059787213802337646, 0.06216006726026535
      ],
      [
        0.37225717306137085, -0.11720834672451019, -0.5114313960075378, 0.2163471132516861,
        0.07312687486410141, 0.04425888881087303, 0.4523356854915619, 0.35774528980255127,
        -0.8623549938201904, 0.019107665866613388, -0.05061197653412819, -0.13883283734321594,
        0.36707746982574463, 0.012179922312498093, -0.024658558890223503, 0.0449865348637104,
        0.1269446313381195, 0.268603652715683, 0.26623934507369995, -0.020168079063296318,
        -0.06611329317092896, -0.0970689207315445, 0.2100609838962555, 0.08823686093091965,
        0.7417653203010559, 0.16824235022068024, -0.15529553592205048, -0.5413039326667786,
        1.581676959991455, -0.18776920437812805, -0.07691580802202225, -1.0108437538146973,
        -0.08292936533689499, -0.04512043297290802, 0.4034615755081177, -0.24867984652519226,
        0.0052882912568748, -0.25364062190055847, 0.09585853666067123, -0.13965651392936707,
        0.04579858109354973, -0.18044757843017578, -0.24846580624580383, -0.01651584357023239,
        0.49559885263442993, 0.07859569787979126, 0.9249446988105774, 0.09481506794691086,
        2.0131375789642334, 0.018809527158737183, 0.011526783928275108, -0.039269205182790756,
        0.06705492734909058, -0.006438099779188633, -0.02563226968050003, 0.5527445077896118,
        0.4753377437591553, -0.18423137068748474, 0.07702779024839401, 0.32164889574050903,
        0.12022405117750168, -0.03517705947160721, -0.0584271103143692, 0.1252351999282837,
        0.001188332331366837, 0.10720232874155045, 0.2308979630470276, 0.5594955086708069,
        0.05306253954768181, -0.07289958000183105, 0.831209659576416, 0.2521613538265228,
        0.4574327766895294, 2.850206136703491, 0.49316197633743286, -0.00407536793500185,
        -0.005458174739032984, 0.32273322343826294, -0.04402299225330353, 0.05237160995602608,
        0.0452008955180645, -0.1997736692428589, 0.08746646344661713, -0.06829845160245895,
        -0.29186680912971497, 0.9697490334510803, 0.14209404587745667, 0.0332610048353672,
        -0.06690546870231628, -1.5172853469848633, 0.4437389671802521, -1.5101033449172974,
        -0.06512502580881119, 0.9316126108169556, 0.23706026375293732, -0.1830275058746338,
        0.5265460014343262, 0.07387559860944748, 0.16146163642406464, 3.083467483520508,
        0.39202162623405457, 0.18506784737110138, 0.6330750584602356, -0.02716164104640484,
        0.3186979293823242, -0.7280929684638977, -0.3644237220287323, 0.05798914283514023,
        -1.871772289276123, 0.14908652007579803, 0.07505811750888824, -0.14788027107715607,
        0.15301842987537384, -0.03395235165953636, -0.03571062535047531, 0.3828807473182678,
        0.13840478658676147, 0.4943535029888153, 0.0158514603972435, -0.001900464529171586,
        0.12236245721578598, 0.7352992296218872, 0.03362013027071953, -0.0880613774061203,
        0.16592946648597717, -1.4631589651107788, -0.33068379759788513, 0.6884203553199768
      ],
      [
        0.06259005516767502, 0.05675894767045975, -0.034859415143728256, -0.027031689882278442,
        -0.002547996584326029, -0.08195539563894272, -0.0866050124168396, -0.013069174252450466,
        0.04866530001163483, 0.018100431188941002, 0.040319498628377914, -0.0015119934687390924,
        -0.05251974239945412, 0.06236020103096962, 0.05202827230095863, 0.03688023239374161,
        0.03294823318719864, -0.049584515392780304, -0.04758339375257492, 0.0015157879097387195,
        -0.07163381576538086, -0.07187016308307648, 0.06794099509716034, 0.0573052242398262,
        -0.008529803715646267, -0.07641993463039398, -0.05030647665262222, -0.05576755851507187,
        -0.05498569831252098, -0.024685798212885857, 0.004355318378657103, 0.00882802251726389,
        0.050574708729982376, 0.07005496323108673, 0.06301258504390717, -0.061769749969244,
        -0.08340000361204147, -0.028006533160805702, -0.06331167370080948, 0.05238264426589012,
        -0.022764189168810844, -0.02486228384077549, -0.0018254955066367984, -0.059562377631664276,
        -0.06601160019636154, 0.06013716757297516, -0.046782784163951874, -0.06438392400741577,
        -0.02463385835289955, -0.08179135620594025, -0.0048276581801474094, 0.031294334679841995,
        0.010676355101168156, -0.008430001325905323, 0.04003719612956047, 0.03613314405083656,
        0.013134889304637909, 0.04466276988387108, 0.06712361425161362, 0.01799977384507656,
        -0.10249731689691544, -0.07697596400976181, 0.0020325949881225824, 0.01881830208003521,
        0.05578352138400078, -0.07054313272237778, -0.008332420140504837, -0.04403724893927574,
        0.02759714424610138, -0.04273100197315216, -0.0323234423995018, 0.04296770691871643,
        0.06602708250284195, 0.06985174864530563, -0.10006047040224075, -0.07593271136283875,
        0.07469534128904343, -0.09957046806812286, 0.020305415615439415, 0.0037311736959964037,
        0.03498156741261482, -0.043871939182281494, 0.053195562213659286, -0.07923821359872818,
        0.0625930204987526, -0.09685159474611282, -0.09668109565973282, 0.021249597892165184,
        -0.01097802072763443, -0.0682544857263565, 0.0027964951004832983, -0.04466928169131279,
        0.03667472302913666, -0.09329213201999664, -0.02144922874867916, -0.04621214047074318,
        -0.017643721774220467, -0.04702051356434822, -0.07203757762908936, -0.09195321798324585,
        0.059920407831668854, -0.0546315535902977, 0.04428230598568916, -0.041331253945827484,
        -0.05309305712580681, -0.0477798730134964, -0.05515617877244949, 0.011612468399107456,
        -0.03575965389609337, -0.053041502833366394, 0.07971102744340897, -0.04722904413938522,
        -0.005511987488716841, 0.017054816707968712, 0.07121366262435913, -0.05869284272193909,
        0.062444936484098434, 0.0642881691455841, 0.0005696041043847799, 0.007013340946286917,
        0.06087810918688774, 0.05746395140886307, 0.015246548689901829, -0.06306672841310501,
        -0.0074434890411794186, 0.03707420825958252, 0.020748110488057137, 0.026322321966290474
      ],
      [
        -0.09158221632242203, -0.16060668230056763, -0.07596998661756516, -0.05234317481517792,
        -0.06561990827322006, 0.04681292548775673, -0.13830849528312683, -0.10152605921030045,
        0.3296565115451813, -0.38712549209594727, 0.30011337995529175, -0.1853448450565338,
        -0.05287905037403107, -0.013776414096355438, -0.35406169295310974, 0.4349057972431183,
        -0.0626390352845192, -0.0734914243221283, 0.5980467796325684, -0.22808504104614258,
        0.08015062659978867, -0.24388062953948975, -0.37937289476394653, -0.0018117243889719248,
        -0.06502974033355713, -0.08332522958517075, -0.0957367941737175, -0.2518986463546753,
        0.7911531925201416, -0.06049532815814018, 0.057939786463975906, -0.01243791077286005,
        0.030947571620345116, -0.020677760243415833, 0.27482879161834717, -0.23990997672080994,
        -0.019736673682928085, -0.35052067041397095, 0.2209220826625824, 0.023921780288219452,
        0.01894518733024597, 0.3234541118144989, -0.3229338824748993, 0.010532718151807785,
        1.8047690391540527, 0.08111917227506638, 0.8242354393005371, -0.2754588723182678,
        2.261320114135742, -0.10682342946529388, -0.07644325494766235, 0.1453351229429245,
        -0.06149214506149292, -0.003385308664292097, -0.050338298082351685, 0.5783134698867798,
        0.08475693315267563, 0.4694378077983856, -0.12259632349014282, -0.06763473898172379,
        0.5170413255691528, -0.04168257117271423, 0.035246167331933975, -0.15948589146137238,
        -0.2942536473274231, -0.44116365909576416, -0.015631720423698425, -0.19233813881874084,
        -0.276095449924469, 0.030054917559027672, 0.6138444542884827, 0.001608395017683506,
        0.33574309945106506, 3.9213786125183105, 0.82379549741745, -0.1624852418899536,
        0.0023234293330460787, 0.29976731538772583, 0.004900760017335415, -0.407522976398468,
        -0.003905130550265312, -0.13744467496871948, 0.26850470900535583, 0.0688338652253151,
        0.09640434384346008, 2.0832505226135254, -0.29784268140792847, -0.11807161569595337,
        0.019944699481129646, -1.872950553894043, -0.0446009561419487, -0.8749077916145325,
        0.022264283150434494, 1.283510446548462, 0.5053459405899048, 0.031675007194280624,
        0.6746945381164551, -0.019008008763194084, -0.27145513892173767, 3.655451536178589,
        0.5799105167388916, -0.21544820070266724, -0.025007586926221848, -0.046620555222034454,
        -0.08838598430156708, -0.5072723627090454, -0.42236584424972534, -0.048196300864219666,
        -3.1916606426239014, -0.3177798390388489, 0.03522617742419243, -0.28535154461860657,
        -0.35148024559020996, -0.010849978774785995, -0.0443611703813076, 1.446367621421814,
        -0.10356932133436203, -0.1482905000448227, 0.05908864736557007, 0.017924632877111435,
        -0.1981639862060547, 0.9393112063407898, -0.04311836510896683, 0.12579135596752167,
        -0.0747288316488266, -4.404299736022949, 0.020116174593567848, 0.2451290786266327
      ],
      [
        -0.05387508124113083, 0.06473538279533386, 0.03361114487051964, 0.06137416139245033,
        0.06793379783630371, 0.039323799312114716, -0.03626301512122154, -0.03285077586770058,
        -0.02983623743057251, 0.019746670499444008, 0.05085761472582817, 0.07248161733150482,
        -0.026190560311079025, 0.019423553720116615, -0.011400490999221802, 0.033840470016002655,
        -0.05095478519797325, 0.03220587223768234, 0.029251160100102425, -0.02165749855339527,
        -0.013249430805444717, 0.07117001712322235, 0.06939840316772461, -0.060443323105573654,
        0.0009149307734332979, 0.05171072110533714, -0.06306223571300507, -0.05043082311749458,
        -0.044152095913887024, -0.0863112360239029, 0.05469244718551636, -0.01499913726001978,
        -0.059527598321437836, -0.037645354866981506, -0.038951326161623, -0.05275612697005272,
        0.005410380195826292, -0.01541441585868597, -0.09248670190572739, 0.06445374339818954,
        0.0524701364338398, -0.06735613942146301, -0.04215110465884209, -0.009281937032938004,
        -0.031937964260578156, 0.06958770006895065, -0.01164103765040636, 0.045071929693222046,
        0.06202107295393944, -0.0712013840675354, -0.00473971851170063, -0.09079379588365555,
        -0.05001647397875786, -0.06392151862382889, -0.00892674457281828, -0.027225909754633904,
        -0.05140852928161621, -0.07589253038167953, -0.029547257348895073, -0.07281211018562317,
        -0.031898170709609985, -0.00262845610268414, 0.07561339437961578, 0.02547961287200451,
        -0.007879205979406834, -0.09065543115139008, -0.049295440316200256, -0.07330292463302612,
        -0.014889772981405258, 0.01669936068356037, 0.06629729270935059, -0.04620978236198425,
        -0.08415041863918304, -0.03472122550010681, 0.04511956498026848, 0.032467879354953766,
        0.020228812471032143, 0.034273911267519, 0.07930027693510056, 0.07670846581459045,
        -0.04756339639425278, 0.0250284131616354, 0.01932516321539879, 0.025204235687851906,
        0.04018021747469902, -0.051412105560302734, 0.017512744292616844, -0.019598646089434624,
        0.02472631260752678, -0.04292376711964607, 0.06008690223097801, -0.040037088096141815,
        -0.004130043555051088, 0.06520400196313858, -0.023076683282852173, -0.07182061672210693,
        -0.0851035863161087, -0.09681089967489243, 0.036495909094810486, 0.0003617602924350649,
        -0.04657581076025963, 0.0006737606017850339, -0.029709091410040855, 0.013096584938466549,
        0.006486065685749054, -0.08111018687486649, -0.07471799850463867, -0.01282217726111412,
        0.011294479481875896, 0.05048370733857155, 0.008403385989367962, -0.03145265951752663,
        0.05758342519402504, 0.04845976084470749, 0.08753141760826111, 0.04804988205432892,
        -0.02172226458787918, 0.0015693448949605227, 0.04695317894220352, -0.0735912173986435,
        -0.0014811625005677342, 0.005659337155520916, 0.07336105406284332, -0.08223346620798111,
        -0.05872105807065964, -0.05818181112408638, -0.09607652574777603, 0.08253481239080429
      ],
      [
        0.03956354409456253, 0.32035860419273376, 0.0593976154923439, 0.020855536684393883,
        0.03528725728392601, -0.025845764204859734, 0.17431320250034332, 0.02982298471033573,
        -0.8492865562438965, 0.4290693402290344, -0.011980745941400528, 0.16588744521141052,
        0.15611258149147034, 0.007086497265845537, 0.5022401213645935, -1.097043514251709,
        -0.021997865289449692, -0.30517858266830444, -0.2735067903995514, 0.1695328801870346,
        -0.03229416906833649, 0.5322745442390442, 0.25799283385276794, -0.018520157784223557,
        0.11726974695920944, 0.085162453353405, 0.14173951745033264, -0.6379223465919495,
        -1.380204200744629, 0.07605582475662231, 0.05451346933841705, -0.09677772969007492,
        -0.09930581599473953, 0.08341411501169205, 0.20939764380455017, 0.4507647752761841,
        -0.044311489909887314, -0.07073055952787399, 0.46686622500419617, 0.23611316084861755,
        0.41647422313690186, -0.2156893014907837, -0.2836749255657196, 0.06763284653425217,
        -0.8345258235931396, 0.08566001057624817, -0.5859880447387695, -0.31875717639923096,
        -2.1899445056915283, -0.2011919766664505, 0.08746307343244553, 0.33481618762016296,
        -0.07734476774930954, -0.044842034578323364, -0.0731891617178917, -0.4116166830062866,
        -0.06740140914916992, -2.2175405025482178, -0.0660490170121193, 0.027629408985376358,
        0.08908438682556152, 0.22264017164707184, -0.003609666833654046, 0.16332212090492249,
        0.5083999037742615, 0.41752058267593384, -0.02859368920326233, -0.2781308889389038,
        0.08578645437955856, 0.0672227293252945, -0.7046647071838379, -0.1745998114347458,
        -0.40499356389045715, -2.5967133045196533, -0.30180981755256653, 0.3854612112045288,
        0.034051313996315, 0.2469930201768875, 0.2283950299024582, 0.6161530017852783,
        -0.016599850729107857, 0.28520292043685913, -0.0005549115594476461, -0.07686074823141098,
        0.006323007866740227, -0.7392212748527527, 0.05678071454167366, 0.1343909502029419,
        -0.006120417732745409, -0.5285089612007141, -0.3094949424266815, -0.21478413045406342,
        -0.018823055550456047, -0.5777477622032166, -0.289443701505661, 0.415576308965683,
        -0.504061222076416, 0.11324489116668701, -0.051675111055374146, -3.587653875350952,
        -0.6238771080970764, -0.09910687059164047, -0.38364747166633606, -0.0337720587849617,
        -0.11753491312265396, -0.9193434119224548, -0.4059315621852875, -0.015699027106165886,
        -0.24375447630882263, 0.0811353325843811, -0.014734895899891853, 0.1255185753107071,
        0.21658943593502045, 0.007533348631113768, 0.04649392515420914, 0.5984567999839783,
        0.030460737645626068, -0.1532733142375946, -0.0043104845099151134, 0.01293602678924799,
        -0.027777856215834618, -0.8921273350715637, -0.062408819794654846, -0.6625926494598389,
        -0.005635160021483898, -0.8802551627159119, 0.40575364232063293, -1.0561264753341675
      ],
      [
        0.21468442678451538, -0.020550746470689774, -0.9136171340942383, -0.012883545830845833,
        -0.07404421269893646, -0.061243657022714615, 0.3720132112503052, 0.16518890857696533,
        -0.8936413526535034, 0.33180665969848633, 0.2088993340730667, 0.31748196482658386,
        0.2633974254131317, 0.06722817569971085, 0.2727401554584503, -0.53550785779953,
        0.000383281905669719, -0.44357311725616455, -0.2524881958961487, 0.2622219920158386,
        -0.0603882260620594, 0.3777908682823181, 0.06626661866903305, -0.07002497464418411,
        0.6546266078948975, 0.05921202152967453, -0.13305579125881195, -0.26498210430145264,
        -1.3506704568862915, 0.13577722012996674, 0.004182695411145687, -3.1659178733825684,
        0.031356215476989746, -0.08476819843053818, 0.30181363224983215, 0.16276775300502777,
        -0.05998338386416435, -0.13613064587116241, 0.5763013958930969, 0.01723623275756836,
        0.4960092604160309, -0.06865031272172928, -0.8272467851638794, 0.03907999023795128,
        -1.4838961362838745, 0.02742886357009411, -0.3576273024082184, -0.6000431776046753,
        -1.059799313545227, -0.0891197919845581, 0.0035911749582737684, 0.08148583024740219,
        -0.08024555444717407, 0.011675172485411167, -0.014840494841337204, -0.5254302024841309,
        0.17892608046531677, -2.2792088985443115, -0.2131243646144867, 0.0961645245552063,
        0.2529439926147461, 0.27996671199798584, 0.08250753581523895, 0.14920486509799957,
        0.4631524085998535, 0.47074249386787415, -0.005288084037601948, -0.2326229363679886,
        0.12100403755903244, 0.06516746431589127, -0.44367969036102295, -0.4065392315387726,
        -0.39581629633903503, -3.5105044841766357, -0.5398603081703186, 0.2654595971107483,
        -0.0392751507461071, 0.2778322100639343, 0.07048677653074265, 0.7395341396331787,
        0.0016511994181200862, 0.07592267543077469, -0.21939368546009064, -0.05400991067290306,
        -0.5510650277137756, -0.40353405475616455, -0.10238028317689896, -0.029799578711390495,
        -0.023149872198700905, -0.19834429025650024, -0.41302114725112915, -0.8975955843925476,
        0.06616856157779694, -0.7156526446342468, -0.24863721430301666, 0.3373139798641205,
        -0.14269296824932098, 0.01807311549782753, 0.16966933012008667, -3.8875975608825684,
        -0.829535722732544, 0.10826236009597778, -0.35842859745025635, 0.042918555438518524,
        -0.002602114574983716, -0.6063128113746643, -0.4390260577201843, 0.056908853352069855,
        -0.9135744571685791, 0.11180396378040314, -0.052490800619125366, 0.20859549939632416,
        0.09103594720363617, -0.036468688398599625, -0.08198513090610504, 0.651563286781311,
        -0.10548517107963562, -0.15128706395626068, -0.0395941399037838, -0.004018259234726429,
        0.051300182938575745, -1.0421746969223022, 0.036770470440387726, -1.116561770439148,
        -0.11142276972532272, -0.834321916103363, 0.3834703266620636, -0.7474438548088074
      ],
      [
        -0.008267488330602646, 0.14772407710552216, -0.04926716536283493, 0.1088658943772316,
        0.0922703891992569, 0.07695448398590088, -0.024094177410006523, 0.05354905501008034,
        0.055615849792957306, 0.6873601078987122, -0.12374553829431534, 0.07306383550167084,
        0.14320598542690277, 0.007927706465125084, 0.36272695660591125, -0.258752703666687,
        0.1010725274682045, -0.09284787625074387, -0.3301076889038086, 0.2578582465648651,
        -0.014839346520602703, 0.4921208620071411, 0.6728205680847168, -0.012088453397154808,
        -0.24609889090061188, 0.09170807898044586, 0.13191060721874237, -0.16004595160484314,
        -1.1429764032363892, 0.17614193260669708, -0.01687922328710556, 0.27917593717575073,
        -0.42647427320480347, -0.05976702272891998, -0.023581452667713165, 0.7830612659454346,
        0.03868639096617699, -0.12461035698652267, 0.37503156065940857, 0.037181925028562546,
        0.23534834384918213, -0.15723824501037598, 0.2939392030239105, 0.01875241845846176,
        -1.4090142250061035, -0.014822213910520077, -0.7139719128608704, -0.2006198912858963,
        -1.3359726667404175, 0.14846685528755188, -0.05535600706934929, -0.3466297388076782,
        -0.015921561047434807, 0.0333431176841259, 0.051888152956962585, 0.0005265429499559104,
        -0.034485314041376114, -0.39696869254112244, -0.004632802680134773, 0.11373700201511383,
        0.09172964841127396, 0.7655462622642517, 0.07542230933904648, 0.13024646043777466,
        0.8015394806861877, 1.0757017135620117, 0.09125202894210815, -0.3243875801563263,
        0.025862744078040123, 0.07853277027606964, -0.6990561485290527, 0.11150768399238586,
        -0.5688607096672058, -3.306713819503784, -0.2650163471698761, 0.20987877249717712,
        -0.005869328044354916, -0.38034215569496155, 0.9437761306762695, 0.9214110970497131,
        -0.010236253961920738, 0.34158381819725037, -0.062035005539655685, -0.08602599054574966,
        -0.06302396953105927, -1.2586681842803955, 0.09179987758398056, 0.1391059160232544,
        0.04499243572354317, 2.0861575603485107, -0.09818034619092941, 2.1869349479675293,
        -0.05782901495695114, -0.5643433928489685, -0.2705683410167694, 0.3306260108947754,
        -0.5247759222984314, 0.011733518913388252, -0.04377961531281471, -3.122056484222412,
        -0.3579663336277008, 0.10932012647390366, -0.2853432595729828, -0.024600567296147346,
        -0.23847579956054688, 0.06763966381549835, 0.14262965321540833, -0.03727906569838524,
        2.9590835571289062, 0.044380102306604385, 0.016978679224848747, -0.0433531329035759,
        0.018011324107646942, -0.05509297922253609, -0.009823840111494064, 0.5902809500694275,
        0.033731281757354736, -0.27393752336502075, 0.0060958038084208965, 0.016231035813689232,
        -0.009199071675539017, -0.9529616832733154, -0.04318826645612717, -0.4444037675857544,
        0.09278339147567749, 1.9215816259384155, 0.36428430676460266, -0.5082875490188599
      ],
      [
        -0.006008381024003029, -0.016948748379945755, -0.025785822421312332, 0.03992032632231712,
        -0.055993322283029556, 0.03864803910255432, 0.046353522688150406, 0.040493808686733246,
        0.057823069393634796, -0.08241023123264313, -0.07471191138029099, -0.0698041021823883,
        0.059455882757902145, 0.04634780436754227, -0.011187725700438023, 0.05620365962386131,
        -0.0644301176071167, 0.05887862667441368, -0.03556936979293823, 0.01984826847910881,
        -0.02497072145342827, -0.027376379817724228, 0.07072095572948456, 0.027498889714479446,
        0.03945346549153328, 0.035574283450841904, -0.039079003036022186, -0.013797939755022526,
        -0.07965367287397385, 0.053556036204099655, -0.0018666839459910989, 0.04428614675998688,
        0.03532997518777847, 0.058517780154943466, -0.03540744259953499, -0.035780251026153564,
        0.012769609689712524, 0.06510700285434723, 0.006599529646337032, 0.0647876039147377,
        -0.06617415696382523, 0.03917161747813225, 0.03995668515563011, 0.042406871914863586,
        -0.02767881751060486, -0.07221619039773941, 0.057964175939559937, 0.0459841787815094,
        -0.002811678685247898, -0.02977037988603115, -0.0674789547920227, -0.05601169914007187,
        0.08083809912204742, -0.05819595605134964, -0.038411613553762436, -0.08709248155355453,
        -0.0025754773523658514, -0.021115729585289955, -0.0691283643245697, 0.0007898799376562238,
        -0.07534752786159515, -0.02739240601658821, 0.002305474830791354, 0.019245436415076256,
        -0.06385256350040436, 0.05585151165723801, -0.08085948973894119, 0.049951907247304916,
        0.024749837815761566, -0.011492012068629265, -0.031854718923568726, -0.0523376539349556,
        -0.05889507010579109, 0.0559648834168911, 0.0030309970024973154, -0.09163793921470642,
        0.05927019566297531, -0.08314337581396103, 0.0036799029912799597, -0.07895198464393616,
        0.026098495349287987, -0.0585944764316082, -0.005637298803776503, -0.05270439013838768,
        -0.028679259121418, -0.08742821216583252, -0.10360456258058548, -0.015648290514945984,
        0.06517785787582397, -0.0389254093170166, 0.019246675074100494, -0.049337781965732574,
        0.07616346329450607, -0.06029558554291725, -0.007134309038519859, -0.06993100047111511,
        -0.04129447042942047, 0.027248242869973183, -0.022234339267015457, 0.04606262966990471,
        0.006856702733784914, -0.02655377984046936, -0.07557518780231476, 0.0359327495098114,
        -0.07961273938417435, 0.021187126636505127, -0.07537026703357697, -0.015322729013860226,
        -0.04120917245745659, -0.05117369443178177, -0.008477279916405678, 0.01411183550953865,
        -0.020274152979254723, -0.06993316113948822, -0.04708807170391083, 0.01705857366323471,
        -0.10867023468017578, 0.005315570626407862, 0.013123875483870506, -0.054958466440439224,
        -0.0833849236369133, -0.08270290493965149, -0.04106106236577034, 0.011554104276001453,
        -0.02240823209285736, -0.08663764595985413, 0.004857941996306181, -0.08879242837429047
      ],
      [
        0.14854586124420166, 0.24042870104312897, -0.2851831614971161, -0.034945160150527954,
        0.24348893761634827, 0.022350873798131943, 0.13211855292320251, 0.1452631801366806,
        1.1604877710342407, -0.07858482003211975, -0.257259726524353, -0.09774581342935562,
        -0.2224334478378296, 0.055922701954841614, -0.6478437185287476, 0.4140937030315399,
        0.017098739743232727, 0.43963170051574707, -0.16262800991535187, -0.14384984970092773,
        0.08100423961877823, -1.3212050199508667, 0.28693416714668274, -0.04971546307206154,
        0.11335910111665726, -0.02912825718522072, 0.1673831343650818, 1.1443026065826416,
        1.283634901046753, 0.0588504821062088, 0.056574124842882156, -0.32911571860313416,
        0.16396383941173553, 0.07923951745033264, -0.42091605067253113, -0.12859079241752625,
        0.0572500005364418, 0.09291990101337433, -0.5517175793647766, 0.18228524923324585,
        -0.6410098671913147, -0.040792934596538544, 0.3987824320793152, -0.024834439158439636,
        -1.1489336490631104, 0.014305061660706997, 0.3396665155887604, 0.39878255128860474,
        -1.3405157327651978, 0.47991228103637695, -0.03341040760278702, 0.0035028511192649603,
        0.03740020841360092, 0.02047414891421795, 0.020040614530444145, -1.2330363988876343,
        -0.10678371787071228, 0.3692265450954437, 0.05693896487355232, 0.17495197057724,
        -0.5810896754264832, -0.11045556515455246, 0.019155235961079597, -0.16107618808746338,
        -0.3750528395175934, -0.2029464691877365, 0.10126300901174545, 0.6575723886489868,
        0.09824702143669128, 0.060423702001571655, 0.629247784614563, 0.1276998370885849,
        0.3807781934738159, -0.74727863073349, -0.8247241973876953, -0.39166438579559326,
        0.044460467994213104, 0.532443106174469, -0.03998873382806778, -0.4963567852973938,
        -0.09814847260713577, 0.09375257045030594, -0.3834139108657837, 0.07113658636808395,
        -0.08235901594161987, 0.9948353171348572, 0.1562308669090271, 0.16204872727394104,
        -0.057334527373313904, -1.0369011163711548, 0.41986748576164246, -0.36331066489219666,
        -0.00911401305347681, -2.4386305809020996, 0.05180523172020912, -0.36301320791244507,
        -0.03984462469816208, 0.009699434041976929, 0.09508983045816422, 2.6071832180023193,
        -0.22497627139091492, 0.32629671692848206, 0.5400547385215759, 0.04727327451109886,
        0.1242671012878418, 1.5209019184112549, 1.1977369785308838, 0.08084838837385178,
        -0.9815621972084045, -0.010807483457028866, 0.08458207547664642, 0.2597021460533142,
        -0.18881726264953613, 0.04994671046733856, -0.004240626003593206, -2.805759906768799,
        0.14055852591991425, 0.3162441551685333, 0.022739551961421967, 0.08824722468852997,
        -0.03683225437998772, 0.2900155186653137, 0.0654306709766388, 0.47013673186302185,
        0.133208230137825, 0.27655959129333496, -0.5175504088401794, 0.29795223474502563
      ],
      [
        0.21636901795864105, -0.10549408197402954, -0.14293093979358673, 0.0780322402715683,
        -0.08777450770139694, -0.05647651106119156, 0.27494576573371887, 0.1180654913187027,
        -0.6138709187507629, 0.0020917877554893494, 0.03216775879263878, -0.015456220135092735,
        0.03335852175951004, 0.04305114969611168, -0.4087280333042145, 0.3266371190547943,
        0.1641658991575241, 0.25538307428359985, 0.27264463901519775, -0.2392553836107254,
        0.0209797415882349, -0.5129879713058472, 0.1013362929224968, 0.035155992954969406,
        0.540920615196228, 0.06962168216705322, -0.17771369218826294, -0.5595595836639404,
        1.4573845863342285, -0.17565467953681946, 0.059073884040117264, -0.6575818657875061,
        0.16660307347774506, -0.014839683659374714, 0.018350772559642792, -0.1672992706298828,
        -0.018194235861301422, -0.11950994282960892, -0.19039320945739746, -0.0390084907412529,
        -0.1502135992050171, -0.07914355397224426, -0.3587907552719116, -0.07501006126403809,
        1.2985039949417114, 0.0800638273358345, 0.7471317648887634, 0.040767841041088104,
        1.3821589946746826, 0.08474741876125336, 0.031328678131103516, 0.22014331817626953,
        -0.0073913452215492725, -0.08405633270740509, -0.054704755544662476, 0.20782548189163208,
        0.427870512008667, 0.07494533061981201, 0.11270859092473984, 0.17581471800804138,
        0.153772234916687, 0.012333943508565426, -0.06608382612466812, 0.05839255824685097,
        0.05808933824300766, -0.21400396525859833, 0.030780628323554993, 0.5167327523231506,
        0.09153717011213303, 0.07932090759277344, 0.8507511019706726, -0.14337468147277832,
        0.7496589422225952, 3.5338492393493652, 0.33205026388168335, -0.05626963824033737,
        0.06958603858947754, 0.5516656637191772, 0.051787301898002625, -0.1263751983642578,
        -0.05271210893988609, -0.38917994499206543, -0.19943676888942719, 0.04722796753048897,
        -0.3556263744831085, 1.0951247215270996, 0.18782654404640198, 0.10842392593622208,
        0.037997014820575714, -1.6485668420791626, 0.3210943341255188, -1.4086333513259888,
        0.0785859078168869, 0.8544321060180664, 0.23765037953853607, -0.1835673600435257,
        0.5305655598640442, -0.06571704894304276, -0.009842650964856148, 3.025437831878662,
        0.23970094323158264, 0.09405045211315155, 0.4473905861377716, -0.025800077244639397,
        0.427925705909729, -0.6399421095848083, -0.07856976240873337, -0.05656732991337776,
        -1.6106318235397339, -0.18251866102218628, 0.06944350898265839, 0.07746632397174835,
        0.18479591608047485, 0.06660191714763641, 0.022552208974957466, -0.10169107466936111,
        0.14990836381912231, 0.4980998635292053, -0.059137169271707535, -0.08351705223321915,
        0.19727008044719696, 0.7444289922714233, 0.0055117011070251465, 0.33206549286842346,
        0.03231651335954666, -1.6346728801727295, -0.3651667535305023, -0.09079848229885101
      ],
      [
        -0.1360689401626587, 0.23295533657073975, -0.2082376927137375, -0.29579585790634155,
        -0.32633745670318604, 0.0647391527891159, -0.27534037828445435, -0.1705135703086853,
        0.723483681678772, 0.0971699208021164, -0.3787081241607666, -0.09796686470508575,
        -0.4345245361328125, -0.0717182382941246, -0.7389577031135559, 0.10382243245840073,
        -0.07992290705442429, 0.3291934132575989, -0.2895332872867584, -0.22206078469753265,
        -0.04146797955036163, -0.9576724767684937, 0.18317674100399017, 0.07942477613687515,
        0.07753583043813705, -0.13534656167030334, -1.5722370147705078, 0.7297543883323669,
        1.9695096015930176, -0.4633084237575531, -0.009465455077588558, -0.1639694720506668,
        -0.12616375088691711, 0.07120325416326523, -0.46516260504722595, 0.022594226524233818,
        -0.011455545201897621, 0.04610518366098404, -1.2393227815628052, -0.27115869522094727,
        -0.7665074467658997, -0.08848893642425537, 1.891684651374817, 0.019059373065829277,
        -0.18645232915878296, -0.05469503998756409, 0.4974084198474884, 0.1846425086259842,
        5.542967319488525, 0.14985334873199463, -0.05860010161995888, 0.13767129182815552,
        -0.06885913014411926, 0.07979796826839447, 0.03015269711613655, 0.11041469126939774,
        -0.01911221444606781, 1.9648643732070923, 0.09072663635015488, -0.16581234335899353,
        -0.3694303333759308, 0.025138946250081062, -0.01646052487194538, -0.3146405518054962,
        -0.04653797298669815, 0.09684298932552338, 0.034112025052309036, 0.8513081073760986,
        0.07212038338184357, -0.05166437476873398, 0.1306409239768982, -0.13771983981132507,
        0.24351729452610016, 0.2443264275789261, 2.8027474880218506, -0.8501665592193604,
        -0.04444819316267967, 0.23920944333076477, 0.1387045532464981, -0.07599322497844696,
        0.05834566056728363, -0.8533279895782471, 0.24510324001312256, 0.08776728063821793,
        -0.009432220831513405, 0.14619548618793488, 0.11965151131153107, -0.05404626205563545,
        -0.030301718041300774, -0.14134275913238525, 0.6931558847427368, -0.4628397226333618,
        0.029169611632823944, 3.331880569458008, -0.047263968735933304, -0.5888144969940186,
        0.10893500596284866, -0.29331815242767334, 0.038285307586193085, 5.501100063323975,
        2.0985124111175537, -0.010912659578025341, 0.5462146401405334, 0.06116717308759689,
        0.10548604279756546, 0.6969833970069885, 0.6371515393257141, -0.04665188118815422,
        -0.3561708927154541, -0.0739605575799942, 0.014456252567470074, 0.09163696318864822,
        -0.06685953587293625, -0.06698328256607056, -0.0035499236546456814, 5.2214741706848145,
        -0.0858624055981636, 0.2128959447145462, -0.02103804238140583, -0.05276435613632202,
        -0.04918422922492027, 2.383981704711914, 0.052341610193252563, 0.6811480522155762,
        -0.08699049055576324, 0.44208845496177673, -1.179271936416626, 0.5874543190002441
      ],
      [
        -0.3756045997142792, 0.25541287660598755, 0.25888770818710327, -0.46128982305526733,
        -0.9348764419555664, 0.05426156893372536, -0.6019860506057739, -0.3066887855529785,
        1.6196222305297852, 0.03858384117484093, 0.2019822597503662, -0.200424924492836,
        -0.7848045229911804, -0.06400931626558304, -0.5766627788543701, 0.21792304515838623,
        -0.03108585998415947, 0.03851357102394104, 0.2019396275281906, 0.1185225248336792,
        -0.031391024589538574, -0.8189036250114441, 0.24901610612869263, 0.04842745512723923,
        -0.07586364448070526, -0.08702437579631805, -1.8115296363830566, 1.463611364364624,
        0.6230217218399048, -0.6927316784858704, -0.016768628731369972, 0.8766941428184509,
        0.13550281524658203, -0.01681538112461567, -0.39796972274780273, 0.13502761721611023,
        -0.019459599629044533, -0.50824373960495, -0.7226191163063049, -0.00510054174810648,
        -0.8197652101516724, 0.4815863370895386, 1.1795942783355713, -0.07340160012245178,
        -0.4317881464958191, 0.08392763882875443, 0.2794394791126251, 0.2949911653995514,
        1.9901180267333984, 0.1454504281282425, 0.0811188593506813, 0.10447775572538376,
        0.06707563251256943, -0.021128013730049133, -0.047897204756736755, -0.20194660127162933,
        0.08505553752183914, 1.035066843032837, -0.18098556995391846, -0.563364565372467,
        -0.1385757178068161, 0.13405492901802063, 0.017107689753174782, -0.5603780746459961,
        0.01847008429467678, 0.09530113637447357, -0.31940048933029175, 0.46527543663978577,
        -0.06677048653364182, -0.03777270019054413, 0.15795432031154633, -0.14466898143291473,
        0.22570081055164337, 0.037115275859832764, 0.44114136695861816, -0.4920055568218231,
        0.04682641103863716, 0.2476789802312851, 0.2023477554321289, 0.08513787388801575,
        -0.004357157740741968, -0.2590494155883789, 0.5848170518875122, -0.0009916099952533841,
        0.8189507126808167, 0.22107231616973877, 0.054755598306655884, -0.04558175802230835,
        0.07962886989116669, 2.0599474906921387, -0.042205825448036194, 1.8271986246109009,
        0.08603473007678986, 0.7153975963592529, 0.36722299456596375, -0.6516042947769165,
        0.1864844560623169, -0.7354089617729187, -0.1345674693584442, 1.2907143831253052,
        0.7726681232452393, 0.1743379533290863, -0.1356094926595688, 4.818438537768088e-5,
        0.025716032832860947, 1.5924174785614014, 0.9611546397209167, -0.06829840689897537,
        2.5550153255462646, -0.2685050368309021, 0.03683314099907875, 0.22897851467132568,
        0.0020913633052259684, -0.0037808988709002733, 0.0018530810484662652, 0.5663197636604309,
        -0.20731687545776367, -0.01643863134086132, -0.0765177309513092, -0.04603396728634834,
        -0.11629647761583328, 1.3017345666885376, -0.06758056581020355, 0.5983009934425354,
        -0.21694011986255646, 2.576023817062378, -0.8679924011230469, 0.04528764262795448
      ],
      [
        -0.01718585565686226, -0.02323363907635212, 0.08079051971435547, -0.03909938037395477,
        0.04112701863050461, -0.045894838869571686, -0.03480708599090576, -0.09976117312908173,
        0.07070212811231613, 0.022620558738708496, -0.03477859869599342, 0.007964064367115498,
        -0.06937959790229797, 0.07720430195331573, 0.04932130500674248, -0.07939576357603073,
        0.03159511834383011, 0.06740330159664154, -0.036545149981975555, -0.010468531399965286,
        0.06619127839803696, -0.05226537212729454, 0.05729397386312485, 0.02968776598572731,
        -0.03394680097699165, -0.04309186339378357, -0.08284418284893036, -0.02472834289073944,
        0.01353455614298582, 0.027054641395807266, -0.06711500138044357, -0.04794450104236603,
        -0.08516859263181686, 0.04247767850756645, 0.05838301405310631, -0.0618063323199749,
        -0.006848177872598171, 0.015169419348239899, -0.07137669622898102, 0.03913663327693939,
        -0.06360556930303574, 0.0847221091389656, -0.06304335594177246, 0.060679785907268524,
        -0.07407893240451813, -0.04736170917749405, -0.015064558014273643, 0.03402439504861832,
        -0.008872704580426216, -0.08156583458185196, -0.03827323764562607, 0.02331261709332466,
        0.0871589407324791, 0.07445648312568665, -0.08480627834796906, -0.036297015845775604,
        -0.08991670608520508, 0.056423455476760864, -0.024595696479082108, 0.0254350695759058,
        -0.009723188355565071, -0.054558634757995605, 0.0073758880607783794, -0.07180297374725342,
        0.03008369542658329, -0.030420375987887383, -0.08041391521692276, 0.04348963871598244,
        0.03289637714624405, 0.04592343792319298, 0.05154058337211609, 0.015637941658496857,
        -0.10619799792766571, -0.07710205018520355, -0.040586911141872406, -0.07200111448764801,
        -0.01487894356250763, -0.05093635246157646, 0.018303541466593742, 0.0325123555958271,
        -0.04564693942666054, -0.06298909336328506, -0.009014999493956566, -0.07044727355241776,
        0.056140437722206116, -0.06552471965551376, 0.040243204683065414, 0.026085656136274338,
        -0.0006731799803674221, 0.07123080641031265, -0.026277752593159676, -0.013507272116839886,
        -0.033700861036777496, -0.02731432393193245, -0.04609829932451248, 0.011366574093699455,
        -0.07512819021940231, -0.06970115005970001, -0.005727660842239857, 0.03658509999513626,
        0.03729445859789848, -0.09381066262722015, -0.0425557978451252, -0.08148044347763062,
        0.062372565269470215, 0.05281490832567215, 0.030063051730394363, -0.00715149799361825,
        0.0707424059510231, 0.031213169917464256, -0.00655073719099164, -0.05235716328024864,
        0.0015548039227724075, 0.007689671125262976, -0.011381556279957294, 0.0277889221906662,
        -0.008246136829257011, -0.07071159780025482, 0.08651428669691086, -0.03136168047785759,
        -0.004889008589088917, -0.08146540820598602, 0.004156047943979502, 0.041500650346279144,
        -0.03764015808701515, -0.04097331687808037, 0.033083874732255936, -0.02518264390528202
      ],
      [
        -0.02292279526591301, 0.018867753446102142, -0.0772944986820221, -0.02488534338772297,
        0.028760071843862534, -0.052303437143564224, -0.07730764150619507, 0.060422133654356,
        0.04308317229151726, -0.048889320343732834, 0.07341504842042923, 0.007990557700395584,
        -0.04119839519262314, -0.007211304735392332, 0.06875346601009369, -0.03768597170710564,
        -0.0284990556538105, -0.039371002465486526, 0.025186587125062943, 0.002551896730437875,
        -0.03944482281804085, 0.07386847585439682, 0.05311299487948418, -0.040438394993543625,
        0.04236407205462456, -0.02461911179125309, -0.0758850947022438, 0.04177273064851761,
        0.03685934841632843, -0.07607890665531158, -0.003158116014674306, -0.058046579360961914,
        0.0403699167072773, 0.0013072898145765066, -0.008775605820119381, 0.036884140223264694,
        0.05628383904695511, 0.032792702317237854, 0.0717814639210701, 0.07133184373378754,
        0.0039750272408127785, -0.052904944866895676, -0.015507658943533897, -0.0583205409348011,
        0.05577690526843071, -0.06431969255208969, -0.08197817206382751, 0.00666082464158535,
        -0.08728586137294769, -0.07602928578853607, 0.07627808302640915, 0.07163254171609879,
        -0.01852988265454769, 0.07274448126554489, -0.058615654706954956, -0.019680028781294823,
        -0.043173227459192276, 0.07637815922498703, 0.01224355399608612, -0.05984299257397652,
        0.030293088406324387, 0.06449393928050995, -0.08288818597793579, -0.04997633025050163,
        0.023843979462981224, 0.018881281837821007, -0.032892484217882156, -0.03781672194600105,
        -0.0490749254822731, -0.035857148468494415, 0.003554054070264101, 0.028861066326498985,
        0.019301360473036766, -0.02300618402659893, -0.05650252848863602, -0.008369753137230873,
        -0.07506927847862244, -0.04388067498803139, 0.07216256111860275, -0.0309879332780838,
        0.034577883780002594, 0.033434536308050156, 0.015411321073770523, 0.08800916373729706,
        0.016692638397216797, -0.06932301819324493, -0.010995269753038883, -0.02852095104753971,
        -0.05325017124414444, 0.020313357934355736, -0.06415798515081406, -0.0016509342240169644,
        -0.06047240272164345, -0.06873832643032074, -0.0032549379393458366, 0.028493313118815422,
        0.06191113963723183, -0.051894497126340866, 0.05302052199840546, 0.0752909928560257,
        -0.059723757207393646, -0.030014192685484886, -0.04651804640889168, 0.07049116492271423,
        -0.002064910950139165, 0.06630224734544754, 0.019947249442338943, -0.06435699015855789,
        0.015372599475085735, -0.053657859563827515, 0.05737835913896561, -0.08035621047019958,
        -0.05972166359424591, 0.022803405299782753, -0.07098130881786346, -0.028578229248523712,
        -0.05018642172217369, -0.021258870139718056, 0.015073387883603573, 0.03907596692442894,
        0.05442800745368004, 0.012154708616435528, 0.014040885493159294, -0.05484409257769585,
        -0.01564793474972248, -0.053174298256635666, 0.007881280966103077, 0.04767291247844696
      ],
      [
        0.09570949524641037, 0.18934540450572968, 0.07365240901708603, 0.00804673507809639,
        0.013262643478810787, 0.08635318279266357, -0.06572646647691727, 0.07761115580797195,
        0.0642106682062149, -0.6049654483795166, 0.23793654143810272, 0.13468198478221893,
        -0.05461393669247627, 0.02577156387269497, -0.21742306649684906, 0.08304136991500854,
        0.025030069053173065, 0.21107904613018036, 0.28203630447387695, -0.16678185760974884,
        -0.06706728786230087, -0.4603349268436432, -0.4937816858291626, 0.011302140541374683,
        0.07602930068969727, 0.06728723645210266, -0.022881343960762024, -0.7329275012016296,
        1.090728998184204, 0.0022044170182198286, -0.002790732542052865, 0.35744383931159973,
        1.7821232080459595, -0.04867465794086456, 0.08417004346847534, -0.14102336764335632,
        0.04352477565407753, 0.1851530373096466, -0.16649220883846283, 0.11111484467983246,
        -0.16918838024139404, 0.30755195021629333, 0.1275222897529602, -0.03167549520730972,
        1.5222665071487427, 0.015162033028900623, 0.7186107039451599, 0.3124450743198395,
        0.25004637241363525, 0.09121132642030716, 0.0428663045167923, -0.1174592450261116,
